<?xml version="1.0"?>
<opencv_storage>
<opencv_ml_ann_mlp>
  <format>3</format>
  <layer_sizes>
    108 62 31</layer_sizes>
  <activation_function>SIGMOID_SYM</activation_function>
  <f_param1>1.</f_param1>
  <f_param2>1.</f_param2>
  <min_val>-9.4999999999999996e-01</min_val>
  <max_val>9.4999999999999996e-01</max_val>
  <min_val1>-9.7999999999999998e-01</min_val1>
  <max_val1>9.7999999999999998e-01</max_val1>
  <training_params>
    <train_method>BACKPROP</train_method>
    <dw_scale>1.0000000000000001e-01</dw_scale>
    <moment_scale>0.</moment_scale>
    <term_criteria>
      <iterations>30000</iterations></term_criteria></training_params>
  <input_scale>
    1.1777843332617353e+01 -2.7522418088292504e+00
    9.7322473008888490e+00 -1.5478208665692132e+00
    1.2131290143741628e+01 -2.8003035783439394e+00
    1.2153864585354027e+01 -3.1295081342532072e+00
    8.7434557616341451e+00 -1.4178508907461895e+00
    1.3243227188287044e+01 -3.4865542109056373e+00
    1.7984700994686804e+01 -5.9207932235633400e+00
    1.3772871641942452e+01 -4.3302369758904469e+00
    1.5102680371624428e+01 -4.8450877894119353e+00
    2.1476293230131848e+01 -7.2355249903088197e+00
    1.1461399321971379e+01 -3.4864384133052844e+00
    1.8124741003758292e+01 -6.0000455914300677e+00
    1.1558873398270118e+01 -2.7468515354534269e+00
    9.1251227504128458e+00 -1.2334107932809073e+00
    1.1238401084948096e+01 -2.7271895844287779e+00
    1.2828745190713986e+01 -3.5941872385072813e+00
    9.4547263285137912e+00 -1.1918742318729167e+00
    1.2274355236000448e+01 -3.1831956594024011e+00
    1.9218934076396405e+01 -6.4933397324503215e+00
    1.0129907981429490e+01 -2.8845784055546044e+00
    1.7298838684145625e+01 -5.7847817909418504e+00
    2.0591466062750886e+01 -7.0128732609905233e+00
    9.7668777981430797e+00 -2.7582878368915411e+00
    2.0910064127268321e+01 -7.1279515015989086e+00
    1.2625829401876810e+01 -3.4419250830668848e+00
    1.0469595633192609e+01 -1.0213239881098619e+00
    1.2071219719099696e+01 -3.0833700448789449e+00
    1.1233678998527820e+01 -3.1150515574501463e+00
    1.0414404264622457e+01 -1.2829049764019793e+00
    1.2428690499515522e+01 -3.3574014390085756e+00
    1.9180637748934043e+01 -6.5836382686301755e+00
    9.3846759247817406e+00 -2.2496073441793496e+00
    1.9060533951982151e+01 -6.5274343403222916e+00
    1.8885479676919683e+01 -6.4749752590692662e+00
    1.1310934529537183e+01 -3.1646461048872285e+00
    1.9832076558817391e+01 -6.8161886194061347e+00
    1.5901934811363335e+01 -4.4033083662785213e+00
    1.3618476800307375e+01 -3.8386725181908035e+00
    1.4071007041811059e+01 -3.7118796715886146e+00
    1.7981873986435630e+01 -5.1431852010565127e+00
    1.2046598065405625e+01 -3.3474195802381992e+00
    1.6821306801492263e+01 -4.7111877944235863e+00
    1.5094010404703658e+01 -4.1289684418045258e+00
    1.3792170453879418e+01 -3.9480793050445611e+00
    1.8158234671823042e+01 -5.1861448757006601e+00
    1.7481973341054246e+01 -4.9400142239726437e+00
    1.1266343599324651e+01 -3.0648684433713607e+00
    2.0647168570298106e+01 -6.1029427603019357e+00
    1.5137431904296196e+01 -4.1779188261296918e+00
    1.1020823388538313e+01 -2.9003035948601807e+00
    1.4545400138253747e+01 -4.0240570971765770e+00
    1.6993792290416035e+01 -4.9220839988031280e+00
    1.0704310383960751e+01 -2.8080583029291075e+00
    1.7154300605619135e+01 -4.9596017874077472e+00
    1.5690311792191187e+01 -4.4177478157834082e+00
    1.0518014281867003e+01 -2.7523694850111702e+00
    1.7631008460626781e+01 -5.0650840487948594e+00
    2.1490180057575955e+01 -6.4304465058201004e+00
    1.0226427751468748e+01 -2.6601534697617395e+00
    1.9899133360484448e+01 -5.8886524491099443e+00
    1.5021705692535029e+01 -4.3783411621603223e+00
    9.8870585557209409e+00 -2.1053903085079053e+00
    1.5422180089257836e+01 -4.4618849717661027e+00
    2.0108389746447472e+01 -6.1059906551821816e+00
    1.1163808503378368e+01 -2.7711876428536546e+00
    1.8973488641430247e+01 -5.6698302471042306e+00
    1.7686987800014681e+01 -5.2698236274059163e+00
    9.5473028202609012e+00 -2.0806881164712712e+00
    1.7722241512403997e+01 -5.2484857475212108e+00
    2.5603550725814259e+01 -7.9840633368676190e+00
    1.0385872942572901e+01 -2.5871927805652959e+00
    2.3971771516962480e+01 -7.3626995714439083e+00
    1.3638961474714817e+01 -4.4587396719805952e+00
    1.1113025590523561e+01 -3.3317591451721484e+00
    1.7021195699086565e+01 -5.8317678993477928e+00
    1.7614963672657172e+01 -6.0572155843543882e+00
    9.1469734688353288e+00 -2.5230082843345087e+00
    1.8198918008623757e+01 -6.2645246123533420e+00
    1.0173093391678522e+01 -2.2698133806574137e+00
    9.7284754361910704e+00 -1.2166284978662436e+00
    1.0921119765096813e+01 -2.6600407407165965e+00
    1.0758252046183168e+01 -2.8275716907094881e+00
    9.2797947964498206e+00 -1.0734049135679393e+00
    9.5695367824008031e+00 -2.4841579430554592e+00
    1.5273570780830964e+01 -5.1863651686556747e+00
    8.5491357627122735e+00 -2.1484568390481273e+00
    1.5529312124545219e+01 -5.3857695579265057e+00
    1.8839796475959627e+01 -6.6582630164473295e+00
    8.1538942798720448e+00 -2.1656946066854137e+00
    1.6740193708391857e+01 -5.8388302892174542e+00
    9.5272465219845479e+00 -2.3400423275887317e+00
    9.7458158627741245e+00 -9.5728113242660362e-01
    1.0139310030739308e+01 -2.4434425081869540e+00
    1.0929134223775922e+01 -2.8494677564091706e+00
    9.3414426028669713e+00 -1.0632401239358857e+00
    1.0378355718659879e+01 -2.6994944000479704e+00
    1.5989988243087183e+01 -5.6633227951041532e+00
    7.5893586800667210e+00 -1.8410822175690686e+00
    1.5905296286827756e+01 -5.5868693141521746e+00
    1.6331697129630026e+01 -5.6820173048439493e+00
    9.1380945877292028e+00 -2.4093256096246876e+00
    1.4351964078786116e+01 -4.8787088228887692e+00
    9.9797232514454546e+00 -2.5096602564659438e+00
    8.6605851001674701e+00 -9.7735106213759593e-01
    1.0385579182432865e+01 -2.5565713100627780e+00
    9.2624480231414577e+00 -2.2348711526286134e+00
    9.1002626918914018e+00 -1.0775681337209968e+00
    8.6069425224239708e+00 -2.0744420941797364e+00</input_scale>
  <output_scale>
    5.2631578947368418e-01 4.9999999999999994e-01 5.2631578947368418e-01
    4.9999999999999994e-01 5.2631578947368418e-01 4.9999999999999994e-01
    5.2631578947368418e-01 4.9999999999999994e-01 5.2631578947368418e-01
    4.9999999999999994e-01 5.2631578947368418e-01 4.9999999999999994e-01
    5.2631578947368418e-01 4.9999999999999994e-01 5.2631578947368418e-01
    4.9999999999999994e-01 5.2631578947368418e-01 4.9999999999999994e-01
    5.2631578947368418e-01 4.9999999999999994e-01 5.2631578947368418e-01
    4.9999999999999994e-01 5.2631578947368418e-01 4.9999999999999994e-01
    5.2631578947368418e-01 4.9999999999999994e-01 5.2631578947368418e-01
    4.9999999999999994e-01 5.2631578947368418e-01 4.9999999999999994e-01
    5.2631578947368418e-01 4.9999999999999994e-01 5.2631578947368418e-01
    4.9999999999999994e-01 5.2631578947368418e-01 4.9999999999999994e-01
    5.2631578947368418e-01 4.9999999999999994e-01 5.2631578947368418e-01
    4.9999999999999994e-01 5.2631578947368418e-01 4.9999999999999994e-01
    5.2631578947368418e-01 4.9999999999999994e-01 5.2631578947368418e-01
    4.9999999999999994e-01 5.2631578947368418e-01 4.9999999999999994e-01
    5.2631578947368418e-01 4.9999999999999994e-01 5.2631578947368418e-01
    4.9999999999999994e-01 5.2631578947368418e-01 4.9999999999999994e-01
    5.2631578947368418e-01 4.9999999999999994e-01 5.2631578947368418e-01
    4.9999999999999994e-01 5.2631578947368418e-01 4.9999999999999994e-01
    5.2631578947368418e-01 4.9999999999999994e-01</output_scale>
  <inv_output_scale>
    1.8999999999999999e+00 -9.4999999999999996e-01
    1.8999999999999999e+00 -9.4999999999999996e-01
    1.8999999999999999e+00 -9.4999999999999996e-01
    1.8999999999999999e+00 -9.4999999999999996e-01
    1.8999999999999999e+00 -9.4999999999999996e-01
    1.8999999999999999e+00 -9.4999999999999996e-01
    1.8999999999999999e+00 -9.4999999999999996e-01
    1.8999999999999999e+00 -9.4999999999999996e-01
    1.8999999999999999e+00 -9.4999999999999996e-01
    1.8999999999999999e+00 -9.4999999999999996e-01
    1.8999999999999999e+00 -9.4999999999999996e-01
    1.8999999999999999e+00 -9.4999999999999996e-01
    1.8999999999999999e+00 -9.4999999999999996e-01
    1.8999999999999999e+00 -9.4999999999999996e-01
    1.8999999999999999e+00 -9.4999999999999996e-01
    1.8999999999999999e+00 -9.4999999999999996e-01
    1.8999999999999999e+00 -9.4999999999999996e-01
    1.8999999999999999e+00 -9.4999999999999996e-01
    1.8999999999999999e+00 -9.4999999999999996e-01
    1.8999999999999999e+00 -9.4999999999999996e-01
    1.8999999999999999e+00 -9.4999999999999996e-01
    1.8999999999999999e+00 -9.4999999999999996e-01
    1.8999999999999999e+00 -9.4999999999999996e-01
    1.8999999999999999e+00 -9.4999999999999996e-01
    1.8999999999999999e+00 -9.4999999999999996e-01
    1.8999999999999999e+00 -9.4999999999999996e-01
    1.8999999999999999e+00 -9.4999999999999996e-01
    1.8999999999999999e+00 -9.4999999999999996e-01
    1.8999999999999999e+00 -9.4999999999999996e-01
    1.8999999999999999e+00 -9.4999999999999996e-01
    1.8999999999999999e+00 -9.4999999999999996e-01</inv_output_scale>
  <weights>
    <_>
      -2.9778513126465816e-01 -2.1488495588269929e+00
      -1.9078017535159239e-01 -2.1079153029687089e-01
      8.4083615608102180e-02 1.0261839300303659e+00
      -5.7722910859092103e-01 8.8834674575982986e-01
      -2.7419059903443417e+00 -4.2539344164556336e-01
      8.7391159544125530e-01 -3.0978821481356050e-01
      -6.3634684593228530e-01 -5.4433917885678695e-01
      1.0247652269804710e+00 -1.2590835844169823e+00
      2.3175002788636828e-01 -6.9875509045018089e-02
      1.4091148750434110e+00 -3.4855735674709076e-01
      -6.4125724631561243e-02 -5.3387053117591343e-01
      -3.5975136289969629e-02 -1.8152294062489038e+00
      1.2558520076460145e-01 -1.7112125461116026e+00
      3.7688777923292671e-01 -2.2684664993583614e+00
      1.7718373086454005e+00 -4.5355382482446105e-01
      6.7121420215478600e-01 1.4278296354345725e+00
      -3.0551482038995870e+00 2.6203705788556853e-01
      -2.7963701059872409e-01 5.2236089813796149e-01
      -2.4981585359731606e-01 4.2639583616177673e-01
      -3.7917317381430244e+00 1.0805121810088533e-01
      -5.3766882564899887e-01 -8.4118250474000666e-01
      -6.3545917382754169e-01 -6.0940807801433838e-01
      1.6407542987125576e+00 1.1402076978570934e+00
      1.6205526443699533e-01 -2.8131967594943248e+00
      -9.2549771933386160e-01 2.7665518095277158e-01
      -5.6578787190546964e-01 -2.0815458821843924e+00
      -4.6245954653560362e-01 1.6828523787581606e+00
      -1.7755968844658212e+00 1.1033324353375269e+00
      1.8948925776582404e-01 -1.3857981958785657e+00
      2.1263455592483541e-01 9.7004506978780347e-01
      3.5885132498941313e-04 4.5298365216885197e-02
      -5.6463977850915159e-01 2.4005450114107929e-01
      -1.1008291138857007e+00 -5.2257570737754111e-01
      -8.9471443468070899e-01 -1.5675959449182879e+00
      7.5480654881017639e-01 -8.2948354264732582e-01
      3.0452713226519756e-01 1.0399637902938512e+00
      -1.3196687054462073e+00 2.2863654534551889e-01
      -5.3923527985470376e-01 -8.1169633870335844e-01
      -1.5832937162100396e+00 -1.9438474783821984e+00
      -3.7488611615505946e-01 -7.0762488424452896e-01
      -1.1213670206086499e+00 -3.6034114421458041e-01
      -1.2882510052645442e+00 -1.2615227749371156e+00
      -8.1350501260539321e-01 1.5758634325359974e-01
      4.9728248691441701e-01 2.1157366685930681e+00
      3.7115398208808430e-02 2.1257359806243117e+00
      -5.8690575476497497e-01 9.2158324640694189e-01
      -6.2811181873909028e-01 8.9354097774957242e-01
      1.5164824738356411e+00 9.2918200476619406e-01
      1.3629563727580560e+00 1.0432591036978700e-01
      -7.3482806424952596e-01 1.1964360328340695e+00
      5.0838504374516813e-01 2.0563131522398383e+00
      -6.5652065131677484e-01 -1.4095300184315869e+00
      -4.5962371113314654e-01 -4.1951125860706251e-01
      -1.2964565431701265e+00 -1.2104358444168732e+00
      8.2997692979579984e-02 -1.8350901634846109e-02
      -8.1674206898699719e-01 -2.8938861199661547e-01
      -2.4761115598045791e-01 -2.1534176088331802e-01
      -6.3118130859842247e-01 -4.9952018544585725e-01
      -2.4055071798670603e-02 5.0008756521634834e-01
      1.5723918159935963e+00 9.0375788175272820e-01
      6.4459208271896029e-01 -7.7831403217571216e-01
      2.1144657078875753e+00 2.3398919237040181e-01
      1.4338848453123048e+00 -2.6003018507339392e-02
      -7.0155707014867219e-01 2.4297267221404925e-01
      -1.4082217928342229e-02 -6.4238129087588958e-01
      4.5799936913580780e-02 3.0586112103756441e-01
      1.7116503675488504e+00 1.5660059305142688e+00
      -4.6187526626939347e-02 2.5435781954460199e+00
      -3.0482882035603831e-01 4.8362350374483616e-02
      4.1445222217163119e-01 -2.3320159710696070e-01
      1.6931144440629659e-01 3.2625099452831358e-01
      2.9197478400337279e-01 1.9787054421451478e+00
      7.2870725183557739e-01 2.8314269141832404e-01
      9.2210394542175589e-01 1.5529671506080700e-01
      -3.5974836715370839e-01 1.4534549549578040e+00
      -5.4481281628260425e-01 7.5495660341698534e-01
      1.5111017215209623e+00 -7.3206993399447995e-01
      -1.0419126948916526e+00 1.0822390324362363e+00
      -1.4334374486550205e+00 -1.0515978359920181e-02
      1.5506616747282634e-01 -1.5403692298215350e+00
      -7.8284246971709803e-01 -1.2374544916976926e+00
      1.4617370948589667e+00 -2.1225308770916812e-01
      -1.5029129131108654e+00 7.5440889057931448e-01
      -3.0304264960582517e-02 -2.3292787049752768e+00
      3.1782200385360088e-01 -8.8130349732927188e-02
      1.2432609935596894e+00 -1.7235717130369623e+00
      3.6733416261079699e-01 8.8251616802454774e-02
      -2.3289214509789341e-01 1.2599689218222394e+00
      -1.1222675574656775e+00 -2.0676638883782117e-01
      7.2818301679196618e-01 8.2199905192310596e-01
      4.7892857900763031e-01 4.1945409620732149e-02
      -1.9319106443367184e-01 4.9481224320867429e-01
      -8.0468541117776196e-02 2.4480677432261917e+00
      6.2459168112335195e-01 6.9146850778362190e-02
      5.8791596390620837e-01 -1.3603509075482312e+00
      8.5379824910979762e-01 5.3671494137598652e-01
      -2.4302854822833742e+00 -8.4594959432044792e-01
      2.2507480293327404e+00 1.6115735862123362e+00
      -6.6909760602697277e-01 1.3460211125313002e+00
      -3.5686605647287967e-01 -1.5195359010000267e-02
      -1.3613817345893844e+00 1.0113396321680315e-01
      1.1870756226186163e-01 -5.2221455895545887e-01
      5.9580198258515549e-01 -4.6012103114664160e-01
      4.3027648284921255e-01 2.5953152247896183e-01
      5.5398260213616635e-01 -9.1107076078018889e-01
      -1.1821826454930551e+00 1.1902284168228627e+00
      2.5571086479391640e+00 -1.7337775160540636e+00
      6.2685802831479631e-01 2.9292345163507366e-01
      -2.1328181996905275e+00 -1.1071489772517600e-01
      -2.0083206843644469e-01 4.4145291332754505e-01
      8.2160152719081336e-01 1.7083926210168361e+00
      7.8621902136083943e-01 3.7066397996759159e-01
      -1.3480064236356124e+00 1.1094332976432582e+00
      5.5500378508276038e-01 -9.9177370497815465e-01
      2.4026003206555124e+00 -8.6313996733554810e-01
      7.5628716228633389e-02 6.6276386123087505e-02
      1.2791721078658250e-01 -5.3125947832652454e-01
      -7.1773952433535537e-01 -2.0817834352274258e+00
      -1.3771462874639765e-02 2.8863449841236299e-01
      3.9979835756664422e-01 9.2393091362052138e-01
      -1.1156474252450133e+00 -6.5056113787192316e-01
      1.9160834203292485e+00 8.1283909255645048e-02
      2.8953224204492206e-01 -1.1484688127768017e+00
      3.7857263276240555e-01 1.5613390219412480e+00
      4.6696148117771563e-02 -4.2847305338942332e-01
      9.7676858438474401e-01 -1.7390195935230262e+00
      6.3975221486849887e-01 -1.3872604628140535e+00
      -6.2230192883585389e-01 -1.8548003720904247e+00
      1.4936706943508289e+00 -7.1321537180696259e-01
      4.4078257054361664e-01 -1.3274309272779389e-01
      -4.1421813509980632e-01 -2.0017587022436514e+00
      1.6794081494473667e+00 6.2253930733962537e-01
      -4.9154828462288641e-01 2.5912734808673171e-01
      -1.1350725650961009e-01 9.9278324471550417e-01
      4.3772698254527354e-01 2.9081996778535029e+00
      1.2561069182604601e+00 3.5434413261962733e-01
      2.3282872573798177e-01 -2.3549678945104704e+00
      -7.9581570814317759e-01 -3.2553641396344611e-02
      5.9282106447507443e-01 -1.3574081478912998e+00
      -2.6033320785061904e+00 9.5633459310963842e-01
      -7.5028098478150829e-01 -1.2305398319724359e+00
      -1.9468277041861444e+00 4.3346755368353718e-01
      1.6640282318491264e+00 -2.6094681915913370e-01
      -8.8696286121653634e-01 1.8284007084284715e+00
      3.9305322796129700e+00 -1.9043669915491388e+00
      -9.7009565976251555e-01 -5.0128705874248292e-01
      6.5690307486696031e-01 -1.4432648707130831e+00
      1.3210264577413662e+00 1.3923301384087792e+00
      1.4956706309850933e+00 -9.9617952369334251e-01
      1.1494611304997825e-01 8.5157077416030136e-01
      -1.8732144982229015e-01 2.0006865172399695e+00
      -4.9055718201352499e-01 1.0699303976517947e+00
      -1.1862503527759951e+00 -1.8670374767702007e+00
      -5.8252705583191955e-01 1.0203329605674520e+00
      -1.6742085197088199e+00 -9.9872416230290295e-01
      4.3162443713095516e-01 -9.7188651898986067e-02
      -5.3292136345720287e-01 3.0534899041805317e+00
      -8.3126722731202585e-01 2.1574117624553613e+00
      -2.2709947573401255e-02 1.4944126802110078e+00
      9.8254320676340179e-01 5.8084784560345193e-01
      -3.7829553443753550e-02 7.7201180453185636e-01
      2.2988812655651731e+00 2.4852848827919979e-01
      1.0170303775778800e+00 9.4703068484397268e-01
      -3.7902681656158349e-01 3.7816705200423053e+00
      1.0436434507615815e+00 -5.7191990859281627e-01
      1.3656483274779063e+00 7.0640810938075438e-01
      1.0856525638342425e+00 1.4611716241546305e-01
      1.9904366004120502e-02 -7.9450973054222407e-01
      1.3914959374067388e+00 8.3704656976691272e-01
      -4.6553983710620073e-01 -2.5361459380589646e-01
      -8.4963933635201783e-01 -2.8372634142467996e+00
      2.7001140102814158e-01 3.9611359830091197e-01
      -7.8751034748122495e-01 2.8734008579983574e+00
      -3.0300310942930897e-01 6.7078041487689932e-01
      7.2175381899150759e-01 9.9979357263669633e-01
      -5.5773024662310855e-01 -3.3598756037167815e-01
      6.2700034268089178e-01 6.9449182721691438e-01
      4.3981429978473835e-01 -1.1798759849048777e+00
      -1.1212735684099988e+00 -2.0949559814516503e+00
      -1.3968793544945748e+00 1.0302944492496084e+00
      -9.9522978788218586e-01 5.0384787118695162e-01
      1.7071894884353374e+00 -7.7977340207149048e-01
      -8.4161530960746050e-02 -1.9013844175321133e+00
      -1.8416696645705728e+00 3.7131520262202283e-01
      8.8574264366194910e-01 2.8900110080722546e-01
      3.4468631652110332e-01 4.1398647352524603e-01
      1.0099183032077477e+00 -8.9530442772127061e-01
      -1.7388356677804598e-01 2.7406146407321136e-01
      -1.3746594462634141e+00 6.3819525195563953e-01
      1.1242871062134350e+00 3.6221810621339751e-01
      3.6413644000311374e-01 2.6405710708887207e+00
      -1.8954950377645968e-02 1.0340823867242708e+00
      5.2887066341434030e-01 1.0557979033183067e+00
      5.7734525823746030e-01 1.7715953609684976e+00
      -5.1802545714935322e-01 4.2426541141748025e-01
      -1.9547635267196578e-02 -1.3416827402348692e+00
      1.1538051342361453e+00 3.2323692717606040e-01
      2.0008839124452518e+00 1.6661994413734749e-01
      4.9767008762515957e-01 -3.4162365806520689e-01
      -9.8984829184364159e-02 1.3273613899039056e+00
      1.1918304399996349e+00 -1.9851640073842203e-01
      -8.4995874700911100e-01 3.5774921604128496e-01
      2.0435163326981387e+00 6.5271886614200991e-01
      1.3802850616320123e-01 1.5591012767873826e+00
      2.1501956886185053e-01 2.8553854459691419e-01
      6.1566976452593292e-01 1.5436417373942490e+00
      -1.1617614571636834e+00 -1.0396516322447971e+00
      2.0854616758921229e-01 -1.4290104920526245e+00
      -6.7359747584204654e-01 -8.5260412219181247e-01
      7.9035583561237843e-01 2.3671990503348619e-01
      2.9104883212361998e-01 -4.7403858364878326e-01
      -7.9962235255652714e-01 2.8796839002933944e-01
      3.7091946713260202e+00 -1.1804344179977047e+00
      1.3492423245484064e+00 -3.6243685763818362e-01
      8.1071709811783232e-01 1.2956100507370898e+00
      1.2320667329378214e+00 1.6342378243636706e+00
      1.0835320746387107e+00 8.7500774528559844e-01
      -1.6261531189180672e-01 -7.0562505193148328e-01
      4.2000690094458420e-01 -4.3559193125576046e-01
      6.6133401788441792e-02 -1.2634756158220497e+00
      -8.0624963847719977e-01 -2.4245372238680324e-01
      -1.5470807579172343e+00 -3.2061210099877946e-01
      1.1543940779139918e+00 -1.9808627946817303e-01
      -1.3833781801468994e-01 -2.4420453775273034e+00
      -1.8846773430338897e+00 -1.8713092351593350e+00
      1.7759696072426849e+00 -1.1264937452812120e+00
      9.2619360786797678e-01 1.6049663454320454e-01
      6.7279551736405996e-01 1.3009707299292750e+00
      1.7520712199565169e+00 -7.7508925865175449e-01
      -9.6529744513563587e-01 2.7876939871230331e+00
      1.1831115998457185e+00 8.9613244568990079e-03
      -1.3978032233431033e+00 -1.3410239722198192e-01
      2.5127391070275856e-01 4.7475518675980638e-01
      -1.3353469890936822e+00 1.4371054424154641e+00
      -3.9419551539646303e-01 -6.8270920266081181e-01
      2.9430766976003458e-01 1.2091702874282027e+00
      -2.8889065868447883e+00 -3.1882057081273907e-01
      5.3083982212996061e-01 2.8451959530395182e-01
      7.2818421640037978e-01 1.5850753865047320e+00
      3.5566966735419259e-01 -7.4741344080388195e-01
      -1.7020298042199180e+00 6.4031628825216225e-01
      -7.9715854699298183e-01 -1.6397949166086752e+00
      9.8354614831715192e-01 -9.6358712376044597e-01
      -4.1193915274014825e-01 -1.2347571953561194e+00
      3.2968245035868846e+00 -1.6223626896234480e+00
      1.6819295771391911e+00 -3.1052540640159593e-01
      -9.5556448435399866e-01 -2.4279457423688033e-01
      2.9253602525255839e-02 8.3042994446788820e-01
      3.2540716271295173e-01 2.3517761301897264e-01
      -5.5858938941370839e-01 2.0888235786593721e+00
      1.3691882131219602e+00 3.3910003591008786e-01
      -1.2032313466438804e+00 4.1953133248697799e-01
      1.7521424899368410e+00 6.6089891690283953e-01
      1.1750494176224653e+00 2.7519288408095233e-01
      1.9266066918644726e+00 1.8630167973693039e+00
      -1.6068503806055832e+00 7.5017960566245134e-01
      1.0278423693302938e+00 -4.4704263258732613e-01
      5.3671960626347937e-01 -2.8042977024900978e-01
      8.1486660627759966e-01 7.7337157510771171e-01
      -1.0120845643454910e+00 8.3138939943661083e-01
      -4.7429313870618778e-01 -6.8440040401635460e-01
      1.3827951365387474e+00 -4.5439120202278677e-01
      8.8382132620475784e-02 -1.0107881940756853e+00
      8.7707685369653440e-02 7.8293449590768249e-01
      -1.5934369946694278e+00 9.4857151296218800e-01
      6.8392054425586568e-01 -1.1887896248810734e+00
      -1.1141738715292404e+00 1.7138531328019075e+00
      4.1257512108087185e-01 -7.4377060631504377e-01
      -2.0114209714649015e-01 -5.1790802430481553e-01
      8.8146226400370298e-01 2.4185036900711818e-01
      1.3784569813361007e+00 -2.7753730131445858e-01
      -3.4961703188064625e-01 -1.5440757932368709e+00
      -2.6650815283196883e+00 1.9416001891649082e+00
      2.8696786383684714e-01 3.5355782445625267e-01
      1.7638444135892111e+00 -5.1562061690605432e-01
      -3.4486394556587080e-01 -2.7134363063570706e+00
      -4.3846296095144960e-01 8.4310681259526676e-01
      5.0083482836957693e-01 1.7104871744553829e-01
      -2.6545800039240564e-01 1.7413949830478805e+00
      -1.4760653554058762e+00 1.4961111744198046e+00
      -2.5955636465343096e-01 4.1281982026627928e-01
      -1.2110806455323184e+00 -5.7590734381616770e-01
      2.5405717625062857e-01 6.6165047732331417e-01
      8.1155372892183864e-01 -9.0384810060180565e-01
      1.5052519692960964e+00 -5.3121216819181605e-01
      6.6035562624315602e-01 -2.4485844175674214e+00
      -1.7925968234657621e+00 -3.2448046723335766e+00
      6.2966833679274067e-02 6.1291559467361256e-01
      2.6102646718321565e-01 7.2084587086046392e-01
      4.0389045343515279e-01 4.6930380373311220e-01
      -4.0022758473823233e-01 -1.5507976884248909e+00
      6.0161382995870449e-01 5.8323345174778971e-03
      6.2787662919971055e-01 3.4325272633923193e-01
      3.8901726861044827e-01 1.2468366564957918e+00
      1.1709643960152127e+00 -8.8936646496897337e-02
      -3.1184351468547225e+00 1.1182538055723237e+00
      -4.7716219363434433e-02 2.6942943902690328e+00
      6.7520368714559575e-02 9.6807269321883505e-01
      7.2172610494008038e-01 -5.0894803630210694e-01
      -2.0645503099184381e+00 4.3094834934004667e-01
      9.6507809181430571e-01 -5.0990979829596617e-01
      3.2946674415316441e+00 9.5447181727789920e-01
      -1.0944501041340404e+00 -1.0029614927247286e+00
      2.6183834356323668e+00 7.8926663241319833e-02
      4.6084709159336101e-01 -3.3037314938794038e-01
      -2.5894540511319177e+00 -6.0238368828663846e-01
      -3.5257650579893907e-01 1.4195008653807668e+00
      1.0807810517280878e+00 -4.0976541731541666e-01
      -6.8439256729658823e-02 -2.4083131047885989e-01
      -3.2357815888667790e-01 1.6456136116685742e+00
      -1.7752836952159531e-01 -8.3164685214406647e-02
      6.4593645549762019e-02 -1.3503140294038449e+00
      1.1383271428940862e+00 -4.1636251762106857e-01
      -3.0760313069646056e-01 1.1400418105454730e+00
      4.5386908036395723e-01 -4.2999649904456816e-01
      4.5075740861745228e-01 1.2219498509181483e+00
      4.4735659307237152e-01 3.4473476886737903e-01
      2.4363613225343217e+00 -1.2411154609724813e+00
      5.3221061488174376e-02 3.0117369333871657e+00
      1.0511130511969224e-01 1.1633949776368462e+00
      1.7588566950996449e+00 6.3338968246237182e-01
      -4.4482521574179101e-01 -3.5263666409726480e-01
      3.7412010243368943e-01 -2.5550736578539839e+00
      1.3209295981735205e+00 6.9718393871817252e-01
      4.1508912007781101e-01 -1.2904510681468238e+00
      -3.5492410321305255e-02 1.2283584300868668e+00
      -1.9574753410763062e+00 1.0345527776420489e+00
      -1.0547044423152392e+00 -7.1240286475217429e-01
      -1.2354318817441547e+00 7.9238135090072814e-01
      -3.1760815646732210e-01 7.9176397685908206e-01
      1.2903186887641118e+00 4.7728189089217515e-01
      -1.2705745661664218e+00 1.3653103658025856e+00
      7.8777189075123577e-01 -3.6810855234485995e-01
      3.5813805564836626e-02 6.8242271047968012e-02
      -8.3587180569200892e-01 -1.7912458893191407e+00
      -1.2265122559375186e+00 -1.2174908488575433e+00
      -1.8982639789833802e-02 1.6498582221006308e+00
      2.0869995004259190e+00 -4.3328726979829107e-01
      -1.1596335140073037e+00 1.4408827153804976e-01
      1.8169702285056616e-01 -1.0415273930225353e+00
      -5.0978256629727781e-01 5.3909653303348315e-01
      3.1315927872670679e+00 -6.0751289536789999e-01
      -1.2494640526010838e+00 -1.6331563573122949e+00
      8.1860189573383846e-01 1.9949773119183423e+00
      8.9630050978649345e-01 1.5510399467012310e+00
      1.2178868757304315e+00 3.6995603037135200e-01
      1.0888234621180541e+00 1.0226982078259452e+00
      -1.6439081543012659e+00 -1.2333878330229757e+00
      -1.0436102550541280e+00 8.5833822692837358e-01
      9.0167096976076534e-03 -1.5582893358867940e+00
      8.9823945886355605e-01 -1.3122165658346354e+00
      5.5048878360381515e-01 -2.6998239706972438e-01
      1.9477801379880733e+00 -4.7091943716621659e-01
      -4.0008532307444183e-01 1.5907627910030167e-01
      2.5131629485734690e+00 4.3020400520047397e-01
      -6.7411646349125820e-01 6.9104113611438440e-03
      -1.4259858999149384e+00 4.7212039923317961e-01
      -8.2179774915674808e-01 -1.8686275157427881e-01
      -9.2941340931615435e-02 1.6570753407998224e+00
      5.7962311420034518e-01 -2.2855420060047013e-01
      -1.2013989667512015e-01 9.8863843782209726e-01
      -8.8824021721126922e-01 -1.5483320702162158e+00
      7.3457244484909823e-01 -1.3249112539169059e+00
      5.6304790245368097e-01 1.6621973257841002e-01
      -7.6997986934480855e-01 3.1457426940197336e-01
      -1.5254928979308875e+00 1.4587397453945543e+00
      2.2582818629923973e-01 -3.2512974951866969e-01
      -1.2664763674030728e+00 -1.1214595834704315e+00
      6.7023992386247766e-01 -1.0894153241365443e+00
      -6.0197577572174932e-01 1.7287023105707700e-01
      1.2319714218169739e+00 3.5663006561414945e-01
      1.0264783960776247e+00 -1.7922314944227584e+00
      7.1315004043130648e-01 1.0486470173824467e+00
      7.2275397022505938e-01 7.4740344038455619e-01
      -5.1005494541437735e-01 2.0213566930162691e-01
      1.8141502931969036e+00 6.2949872169488652e-01
      -1.7853868772236865e+00 1.6738563687930235e+00
      3.2106828786932405e-02 -2.7764761045638147e+00
      1.1480303485000272e+00 4.3973985278258515e-01
      -9.4106616412020128e-01 1.6114419046254302e+00
      -1.5323748578673353e+00 1.3210221552303212e+00
      7.0599458644349733e-01 -2.6854202378543537e+00
      5.5035098186895126e-01 -1.8017927195153636e+00
      2.0159363206354008e-01 8.9750262779007972e-01
      1.1229455742549053e+00 -2.9794434101581814e-02
      -1.6364707649784491e+00 -2.3058921241242545e+00
      -1.9718433879158952e+00 -8.9018258164926090e-01
      2.4738094105894666e+00 5.1729382392344714e-01
      1.1013115707839116e+00 -1.4521835307714435e+00
      -2.2560863266370021e+00 6.3351800181056642e-02
      4.4719859459779576e-01 1.4802550791256941e+00
      -4.6420486162464218e+00 1.3206870991073008e+00
      8.7698133824916102e-01 -1.3558698028847679e-01
      -1.1300847409415786e+00 9.1229862558736941e-02
      -4.5290068428092256e-01 7.4793221229819415e-03
      -1.0912033118605249e+00 1.0875176593493252e+00
      7.0691269095654774e-01 1.1656621175688724e+00
      3.4002454904893581e-01 -1.7239174242288122e+00
      6.2709879154384740e-01 -1.3931321639500591e+00
      1.9794793641840541e-01 1.0161183253758770e-01
      1.5128450979884742e+00 -4.5094214562548279e-01
      3.8652198736465931e-01 2.5856701667264759e-01
      6.4915369611230900e-01 -6.4018843034763151e-01
      -1.3062939732480600e-01 -6.9409522609713459e-01
      -7.1173538995338015e-02 1.2440055059282418e+00
      2.6504304644198305e-02 3.3528623636935233e+00
      4.5177598700110255e-01 3.4793776671869503e-01
      9.7818676073649891e-01 2.7060367422437759e+00
      -3.5204526673778291e-01 3.8575952498123534e+00
      2.3164856697147225e+00 -1.1328578601758694e+00
      -7.0942123710517546e-01 -1.1608012193285944e+00
      1.2864878258706560e+00 6.4674759264638948e-01
      -1.5325148029559926e-01 -2.5591568490993444e+00
      8.8267910730420496e-01 -1.0704863076928586e+00
      3.8101592144940544e-01 -2.8311683074079874e-01
      -1.4857639478362488e+00 1.4367753353438706e+00
      1.2865096503681519e+00 3.5135678674679753e+00
      1.9809045712792497e+00 8.0127681283522967e-01
      3.4669958219695601e-01 -2.5177564794942202e+00
      -3.5351164029387836e+00 1.1995597565221869e+00
      2.6250730594077737e-01 4.3819423244101491e-01
      -4.5471966085966797e-01 -7.5535586172709634e-01
      -6.7662888305503810e-01 -7.7548883132482982e-01
      -4.8389469122217976e-01 2.1939013468139576e-01
      5.9945490263637846e-01 -4.0275669209141568e-01
      -9.7498562290581851e-03 -1.1911337712347494e-01
      -6.0432986528356047e-01 4.0697905898748060e-01
      -3.1664910132305962e-01 3.5115844999687805e-02
      1.1767096980288061e+00 -1.1996247188310846e-01
      6.6334782411699522e-01 -5.0766850380480399e-01
      4.4182495132845578e-01 -1.4509973145571315e+00
      4.3409229373061603e-01 1.0105304534175923e+00
      9.3688488846702500e-01 9.9832883720087362e-01
      6.8846742797237304e-01 5.7162880584571674e-01
      1.5965456133965534e+00 -4.8110897139078412e-01
      3.0992883094066968e-02 -1.4915547974388710e-01
      1.8955649761015331e-01 2.2930877212403541e-01
      4.3617093766269194e-01 2.0965279487081001e-01
      3.8047648234750575e-01 -1.1225439791411165e+00
      1.3507330359808853e+00 1.1605935634451756e+00
      -2.1400191788336739e-01 1.3882872753646314e+00
      -1.6138262952449105e+00 -1.0325520674606705e+00
      9.7831261895744048e-01 -4.8070574939155131e-01
      -5.6212466954508611e-01 -3.7942135505844748e-01
      1.3795250950002682e+00 6.5567705005326482e-01
      -3.3620566033937521e-01 9.8090494417415353e-01
      6.7168776370828698e-01 -3.1200058447386875e-01
      -2.6154895701151979e+00 -2.3405587606840563e+00
      -2.0717575364810044e+00 -5.0740706378579292e-01
      4.9625591472504899e-01 1.3713878720016657e+00
      2.4470714239816629e-01 4.5016667360809676e-01
      -1.0434858523137556e+00 -1.4911256266697199e+00
      6.6618523705504828e-01 1.6515329847752021e+00
      1.5978396920219844e+00 -1.6416432973326502e+00
      -1.1317345376969858e+00 2.6312297260978172e+00
      -1.0042541776698453e+00 -6.4834461812120700e-02
      1.1884928909523595e-01 1.9913402916480398e+00
      1.3637453632295164e+00 1.0642541925975231e+00
      2.3122608128747384e+00 2.9134969908464838e+00
      5.6568323644288943e-01 1.6642895578250674e+00
      -3.1127186183155808e-01 -8.4033390540239428e-01
      -6.5123049990415527e-01 -1.2096281144403096e+00
      4.0978050176489000e-01 1.8753554739145412e-01
      -8.3227701101486795e-01 3.1889165968247501e-01
      -3.1286565323645481e-02 -5.4241923616521204e-01
      -1.4246748778183754e-01 -4.5332807242396089e-01
      2.4817279767145040e-01 9.0851858137667285e-01
      8.4754543688476558e-01 -1.6385670142179320e+00
      -1.5239031905866975e+00 -2.6939543379967068e-01
      -2.0006979705146904e-01 -1.8168872177852538e-01
      -9.3197207375688762e-01 2.0167126550800791e+00
      -4.8454124243490110e-01 -1.3536662449853978e-01
      -5.5124455087678859e-01 -1.4213638515419240e+00
      7.6625333886217373e-01 4.5975513382891953e-01
      -1.0297920521898347e+00 -1.5857111979269856e+00
      -2.4133204292776841e-01 1.6122048168056216e+00
      -3.3518323726600624e-01 -6.0170214571793967e-01
      1.5260803560677700e+00 -3.3867652918803837e-01
      3.0039376681348989e-01 6.9929171892971376e-01
      3.5920367853897017e-01 3.7828707670392203e-02
      -1.2492021847706525e+00 -1.4779846183220247e+00
      -1.3648010114616373e+00 -2.2042109856014822e-01
      -3.9787095534580395e-02 -2.4348272996007023e+00
      -7.7428037868600430e-01 8.6896172684562700e-01
      2.1550454749922783e+00 2.3015347492361431e+00
      -6.9908026038453608e-01 -1.0782376035391104e+00
      -5.4886375116288622e-01 -1.8798224815665825e+00
      -1.2061074432475014e+00 -7.7697577588043087e-01
      -1.5392936005111932e+00 1.2347701575141737e-01
      1.4462685584899058e+00 -4.6410877134114314e-01
      8.5664080362261774e-01 4.6977930454015027e-01
      -3.1994629701993899e-01 1.3623920190434304e+00
      -1.8556945036233106e+00 -2.4450447717782559e-01
      -4.5429064807925024e-01 -1.1393509141295477e+00
      9.1347438675282144e-01 1.6928023584792653e+00
      4.4874319674003055e-01 -1.3002453967637899e+00
      7.1640120224293202e-01 6.0589180492736983e-01
      -1.8198879900908296e+00 7.3509600175607026e-01
      7.2399474572270051e-01 5.8798549099286979e-01
      -1.6990761165223125e+00 2.3741949649129776e-01
      2.7117606909268754e-01 1.0492068943918067e+00
      -4.6222909550941998e-01 -1.1849799084051398e+00
      -2.0348294708188219e+00 -1.9422170250658266e+00
      -1.3242352402559197e+00 -6.5452490087819082e-01
      -2.8541275483804818e-01 9.3077167659223081e-01
      -9.7441287327826898e-01 -4.3534606340065318e-01
      -2.0678987814072755e-01 -7.0365745243667388e-01
      -1.6298961178189735e+00 -1.3956241691808977e-01
      9.2826574833676156e-01 -1.8111599270563710e+00
      -1.6665578022418763e+00 3.5838777233517388e-01
      -1.6462674190209006e+00 7.5371974947082110e-01
      6.2612223526770161e-01 -8.1298946142668538e-01
      -7.1025092164832737e-01 2.3060742924883249e+00
      -2.6475741542105558e-01 5.4830487843285303e-01
      2.8328956209597655e-01 2.2905778554541105e+00
      1.5576691779160725e+00 1.3246229753671570e+00
      -2.5673031132606328e-01 -1.3792645180172660e+00
      -9.6620330663635534e-01 5.2927732544813137e-02
      -1.7107582212760601e+00 1.8782309456137133e-01
      -3.6959993765338678e-01 -3.8402979155804146e-01
      8.6478535784689425e-01 3.0420856488591848e+00
      -2.2761811872164134e-01 1.2473923418777446e+00
      -2.8705147593622007e+00 1.5922507290802161e+00
      -9.7319984943755744e-01 -2.6345947571303077e+00
      1.4899156597408609e+00 1.3816332254532215e+00
      7.5068699119706483e-01 4.0788850356688983e-01
      -5.4649561877184072e-01 2.0407552930586741e+00
      -6.3804654555497675e-01 2.1297743259572890e+00
      -4.7422171830630905e-01 -2.2242729122561182e+00
      3.7841568628897326e-01 4.7431746894684040e-01
      6.9913480184184973e-01 5.5571570057030584e-01
      9.5836444819506272e-01 9.2794638054986611e-01
      -3.4562553835316212e-01 -1.9209998113048610e-01
      -1.1203181027419886e+00 2.2185330933057106e+00
      6.9880025972864934e-01 -4.7321084978799599e-01
      -7.2684346634871966e-01 -1.1008452177466104e+00
      -2.3591739351805002e-01 -5.6785254561296838e-01
      -1.0150514720917114e+00 -1.4192414847619350e+00
      7.2505451221077655e-01 -4.9302685807135364e-02
      1.0904130027983129e-01 -4.7769877235996194e-01
      3.6409530597271289e-01 -1.8803830634714225e+00
      -7.5439466798722307e-02 -2.3850656102102510e-01
      4.6373643733530490e-01 1.3638593215004784e+00
      9.1883115873104038e-01 -4.1173603317191348e-01
      1.2201845417526407e+00 1.3421639902037603e+00
      -8.0798557104114821e-01 1.0384277033866400e+00
      8.8475755339687800e-01 1.1800696379992626e+00
      -4.2058917468614215e-01 -4.1289697532641900e-01
      1.3318361754222565e+00 -4.8493214888238523e-01
      -4.6813372566383543e-01 1.0421084073643183e+00
      2.5291651302646062e-01 -1.5314770188948958e+00
      7.5441152636356468e-01 -1.0580597111738754e+00
      -2.9825096240863580e-01 -4.0509426680034087e-03
      6.2889650537414721e-01 -1.0919153481793149e+00
      -7.1503905920995858e-01 8.1870703967030567e-01
      4.3723504446585393e+00 -3.1090822376670862e-01
      2.0138823338506978e-01 -5.4660407097387753e-01
      -1.4133174119833787e+00 -2.2091130706003251e-01
      1.5606625969899421e+00 2.1595364236673534e-02
      -1.1097804759064875e+00 -3.4657026596474017e-01
      2.6506617661112197e-01 1.6490793608514920e+00
      -6.1568960933462769e-01 1.5698486861317389e+00
      9.3951728997482409e-01 1.6300247042241431e+00
      4.8083865221569061e-01 1.7174860941247829e+00
      -2.3145016626111170e-01 1.6645456280239068e+00
      3.1885118499095744e-01 -2.6180772689456316e-01
      1.4322755962533065e+00 -8.2663569829792427e-01
      1.3170744136078452e+00 1.4943477152860172e+00
      -9.1427472531547760e-01 -1.5752937092636825e+00
      -4.9691056699184333e-01 5.6432625588824314e-01
      -8.6868871457660937e-02 -1.5530802293671697e-01
      -6.4774106813644505e-01 3.5985891229794370e-01
      1.6025954214166518e+00 2.6761633486366726e-01
      -1.9072364735654666e+00 -5.0587990866112620e-01
      1.2937028596740432e+00 -6.1618346562076476e-01
      1.9134396829860276e+00 -2.4760731500239147e-01
      -5.9605226506874143e-01 9.8788986227343223e-01
      6.8582116133359614e-02 8.8468476590051237e-01
      -2.7053549253757597e-01 -2.0482837013056061e+00
      2.9874373455151676e-01 1.6031702964210824e-02
      1.3111782735363264e+00 2.0357430125005567e+00
      4.7418805077387105e-02 -1.0298213110182186e+00
      1.2336103035082278e+00 4.6650492637731744e-01
      2.0225558635482987e-01 1.0617402376406329e+00
      1.2251566908480893e+00 6.6956364752573105e-01
      -9.8291405797755393e-01 -2.5942851664407229e-01
      -1.4146116909942308e+00 1.5325757099462052e+00
      5.3340932699665067e-01 -1.9875480932477945e+00
      -4.1492702986960001e-01 -3.6436718758327637e-02
      -2.4821387918785176e-01 9.2635658952481681e-01
      7.5604762879754461e-01 2.5491397469353699e-01
      6.8342902010126449e-01 -2.5546003635779468e-01
      2.0197249404866630e-01 6.7479514855601919e-01
      1.9139440554706546e+00 -3.0827512747210534e-01
      -1.1734282628437005e+00 3.1988798249856321e+00
      -1.2810058895076812e+00 -1.3454838264137776e+00
      -1.0377660899476633e+00 2.0633694115235044e+00
      -1.6238509905334297e-01 4.4893138189284432e-01
      -1.8270285322026270e+00 -4.6859405402334792e-01
      -1.0827583458731136e+00 6.8707738676265140e-01
      1.8462192029104799e-01 1.3463683874486878e+00
      1.0927794893134082e+00 1.3115885624030235e+00
      -9.0906266570590888e-01 8.8649709154197542e-01
      -5.8426219086173303e-01 1.7529611718570138e-02
      -1.5054640372957080e+00 5.8239683288787925e-01
      7.8711388552193140e-01 -2.0005680173867738e-01
      -6.1362183205501342e-01 2.6410751309950381e-01
      -2.6726376579491196e-01 1.6252093529942618e-01
      1.6891807385007698e+00 -1.1089448963606541e-01
      -5.9552448998124285e-01 5.6255082230223374e-01
      -9.9875809696305828e-01 1.5595807391697458e+00
      -1.6619197368522372e+00 3.5377973649687693e+00
      1.5415299567662091e+00 -2.1455440174938792e-01
      -6.2507010801382179e-01 -2.8925469422430355e-01
      -3.9410135536436303e-01 4.5630835305834050e-01
      6.7039954723523254e-01 3.6703156641952461e-01
      5.8646294181427938e-01 -4.9862561045868964e-01
      -2.0281730613691358e+00 -1.5895985374801030e-01
      -1.5398836438960815e+00 -8.0667990056829508e-02
      1.4305214619939496e-01 3.0351518754974971e-01
      -4.8569747347985942e-01 -2.4237158614426092e-02
      1.2235198816459145e+00 2.0320531211873192e+00
      5.2953542862120495e-01 -1.5505962118888852e+00
      4.6278034676944096e-01 -7.4031612420292736e-01
      -1.4964856878886881e+00 -1.7831526820172865e+00
      -1.0267679771836917e+00 -7.9243630315376157e-01
      -1.7579281569836918e+00 1.0981430621847033e+00
      8.1725007364190722e-02 1.5079313342798180e+00
      -1.1012561964239413e+00 -1.9500098832746331e+00
      -6.7316701437840909e-02 -7.4183352473667363e-01
      -7.5387292303348352e-01 -1.4796706200921026e+00
      1.4814389182415673e+00 -8.9457420836435508e-01
      6.3727831410673827e-02 3.2236806033365528e-01
      -8.0187288885762087e-01 -2.3719295628617583e+00
      3.1021782616422039e-01 3.8510389901378221e-02
      1.5824040564044264e+00 -4.8931526338304326e-01
      -1.9759778753773947e+00 -7.6158613218130411e-01
      5.4608360746437956e-01 -7.1783565552017189e-04
      8.8408311374874746e-02 9.8699178452858638e-01
      1.1832343802625445e-01 8.6971929391341407e-01
      8.6700734195591489e-01 -6.3222112096266647e-01
      4.3742747899807241e-02 1.3809097530761607e+00
      5.7916877302748471e-02 -1.1496882903420376e+00
      -1.8592399792446794e+00 1.9857504081589326e+00
      -5.6844512768370115e-01 -1.9361570896393050e+00
      -8.4706459387161773e-02 -6.7350836695194732e-02
      -4.3969181093090437e-01 2.0441992106917906e+00
      1.2029712947748923e+00 -1.7234341066573120e+00
      7.8349226159987251e-01 -1.9741377101549809e-01
      4.9480397470262655e-01 9.1611388983823905e-01
      9.0007169958150737e-02 7.2137968215155412e-01
      4.3266632600562882e-01 -4.0752194669438002e-01
      -1.0168892951820250e+00 -8.1683241711600973e-01
      5.7208391836148076e-01 2.6165487048907279e+00
      1.4807456886467811e+00 -1.4241758413503047e+00
      7.0063431391004094e-01 1.1109573065012393e-01
      -1.1708355223857846e-01 3.5019973061930585e-03
      -1.5608980873007146e+00 1.5884800236740266e+00
      -6.1402870754847216e-01 -1.6717462421100555e+00
      -6.2538165299739802e-03 -3.1629528089838627e-01
      -4.0188579581158301e-01 -8.8764196513963811e-01
      4.0340649860865101e-02 -7.6053177985133516e-02
      -9.2877310058071449e-01 1.0681457688160112e+00
      -3.0698895164806027e-02 -2.8821038679697086e-01
      3.0504587939510380e-01 -1.4231691602552230e+00
      7.0987582703768148e-01 -1.1043808431510311e+00
      -9.6633511347550424e-02 1.2390064142502316e-01
      -9.0743488159420027e-01 1.5412120578297799e+00
      -3.9060022557604923e-01 8.5430216505793710e-01
      1.4166440847013997e-01 -1.1237902863476861e+00
      5.4095458754030257e-01 -9.6880760107001099e-02
      2.3673524405152253e-02 -1.2524150417097675e+00
      -1.3926788638399843e+00 3.6444397282841740e-01
      -5.8301105932263853e-01 5.9106849344052015e-01
      2.9111247489896780e-01 -5.5922806775231504e-01
      1.6155187570383853e+00 -2.9081033191692540e-01
      -4.8422481802806222e-01 2.2993969883905399e+00
      -1.2929077477730222e+00 -1.2187550851215426e-01
      6.8663407797353837e-01 -1.5806859522459242e+00
      -3.6081376037226220e-01 5.3860684096115607e-01
      -1.4226582969782620e-01 1.9796711890417324e+00
      -8.3967473059438069e-01 -8.7426359067422535e-02
      -7.7999414114458210e-01 -2.0592826748377013e+00
      -1.1877487543300991e+00 5.8035655296754356e-02
      -1.8868502935764483e-01 -5.4673683982080945e-01
      -9.2164614537663148e-01 -1.9185591787738305e+00
      -1.5701263450945122e+00 2.8933652035718507e+00
      -2.5467743798960605e+00 2.2659554889001987e-01
      1.9577167360346726e+00 -2.1129993039048509e+00
      1.4180378718725291e+00 7.4118023326008309e-01
      1.6646323218699074e-02 4.1485022124544795e+00
      7.3310467253707035e-01 2.2297739303201696e+00
      2.6479153019541823e-01 5.9342998268561475e-01
      3.4156201060008096e-01 5.1301545319333053e-01
      8.4824127771773139e-01 -1.9892282920540003e-02
      2.4644661844560967e-01 -1.2883086664459353e+00
      -2.1273449034107716e-01 -6.5884310282117564e-01
      -3.5053465863648003e-01 6.4778919455300665e-01
      -4.8536798112436097e-01 -7.7889599745186333e-01
      9.5611479473890459e-01 2.5985376182831810e-01
      4.1748360088613573e-02 -4.4359480654885203e-01
      1.3326223951650458e+00 1.5689204258195475e+00
      4.6696514147457752e-01 -8.9530605785265438e-01
      -6.5673567128810195e-01 1.3705380634796538e+00
      -2.4334028083235713e+00 4.1848583793347535e-02
      7.3094090993506400e-01 1.6964617197635046e+00
      1.1223390873834267e+00 6.9435887480387770e-01
      4.0024774923934470e-01 -3.3530639168598544e+00
      2.0493245588441014e-01 3.3611809210538097e+00
      1.4745024396551738e+00 -2.1115551925739795e+00
      2.1811235869993140e+00 6.8779538001900370e-02
      -1.2958081713546239e+00 1.5553415179789304e-01
      -1.4866031574098979e+00 -3.4610777780611734e-01
      -3.9232658207442617e-01 1.1406906250402591e+00
      -4.5667388542051313e-01 1.5917701701539311e+00
      -2.5905451662782375e-01 2.4169321767830534e-01
      -2.0319147886299254e+00 1.0212856578848637e+00
      7.6511885157309645e-01 1.4846786782653048e+00
      -1.6226863779467979e-01 1.2151630327986822e+00
      1.6414625425431011e+00 -1.1286845255435606e-01
      -1.4723815706738603e+00 -1.0738829599176154e+00
      -1.0202890066375632e+00 -1.0372306177960038e-01
      -3.0562135345366098e-01 5.5263458117037167e-01
      8.0118217161438876e-01 7.8287413525232541e-01
      -2.6333381641503278e-01 1.0611501012125517e+00
      -3.6691601698267384e-01 5.0652715999736708e-01
      -1.2566947518245697e+00 -5.6841070755233114e-01
      1.1084193502326927e+00 -1.1040639372319696e+00
      -2.4751971990828051e-01 5.5635564867544018e-01
      1.2712366068101926e+00 -1.4147159540985850e+00
      -1.3069337401570549e+00 -1.9625548180824353e+00
      1.0383589120860077e+00 1.5530030011795615e-01
      -9.3323153102476875e-01 8.5836900626125834e-01
      -2.3979446298809068e+00 -4.6584144511053832e-01
      -1.6383302792500662e+00 5.2137511116421224e-02
      -1.1741233677122556e+00 -3.2368928811526526e-01
      1.4840888407451744e+00 1.7721227645998264e-01
      -6.1960024764516813e-02 1.0639778688904677e+00
      4.5799352658615478e-01 1.0633252981694548e-01
      -7.7396413042354717e-01 -1.7439382105040491e+00
      1.6419893005474237e-01 -5.7171297167713664e-01
      -1.0817255208020193e-01 -2.2728874431036297e+00
      -6.2531913037581488e-01 1.1690585963867758e-01
      -1.0211561767272843e+00 2.6044020287318254e-01
      4.2777071748988060e-01 5.5468659367214257e-01
      7.6085165871812144e-01 1.4963527758526851e+00
      4.1661619543134465e-01 1.2247960764025452e+00
      1.6323628832200363e+00 2.5110260644493954e+00
      -1.8156275201338097e+00 2.0798183035115256e+00
      1.0709118961028756e+00 -2.4706153179763790e+00
      -6.5492083587672034e-01 1.1072206402813627e+00
      -1.9927719649754054e+00 8.6445492440315364e-01
      -1.1725923481994116e+00 -2.5533343410253977e+00
      1.7174466020359433e+00 2.9747318358004984e+00
      9.9826003381575171e-02 -1.9645066938756637e+00
      1.3546515202182305e+00 4.5334987220560002e-01
      -1.8265010241494544e+00 1.0714371217746120e-01
      -5.2017963032148795e-01 1.1808551947470887e+00
      4.8829064772335173e-01 -1.6746781121865184e+00
      1.1458389134033673e+00 3.8169157318050445e-01
      5.9033883005102572e-01 -8.2556339387762945e-01
      2.2881088286944493e+00 3.7587640356521107e-01
      1.3710879575190387e+00 1.9357055978726099e+00
      2.9807719581427977e-01 -1.3154499791040580e-01
      2.4137039696189841e-01 1.1045036270888717e+00
      1.5184736293518906e+00 5.5677502424105429e-01
      1.0253388774868457e+00 6.2428134576578931e-01
      2.2098683312215114e-01 -4.3013477350494891e-02
      1.0569388825194263e-01 -2.6507862113294203e+00
      1.8659019393066949e+00 3.1968766646432878e-01
      -7.6110603984482150e-01 1.4151461006376511e+00
      2.8793336831712795e+00 1.2457586053797320e+00
      -7.7746638701917870e-01 9.3505725857093513e-01
      1.2544085923317341e-01 -2.1587374552800215e-02
      -2.2714524497013540e+00 4.0166887381028682e-01
      -3.2824628819461726e-01 5.5951368692023984e-01
      -4.0556605916299121e-01 1.7407921614220216e+00
      8.0897350452555694e-01 1.3723457393936491e+00
      -3.0442109985668470e-01 -3.5279796701205679e-01
      1.7658276532282322e+00 -1.0156496910073678e+00
      -2.5027660842281702e-01 5.7462085746335090e-01
      8.5645400847850439e-01 -3.1752513368068419e-01
      -1.1111501444083155e-01 -1.0121243007519318e+00
      -1.2071013799988004e+00 -8.6643855377528001e-01
      -4.0036194964223998e-01 1.2269625031316871e+00
      -1.6885906908053669e+00 -1.0018743896049500e+00
      -4.5422656636059267e-01 2.1897441819616584e-01
      -7.6690101345883477e-01 -8.0064132024978518e-01
      1.2539982519675068e+00 -4.1678639967938436e-01
      -8.5235977971601817e-01 -2.1651651686378476e-01
      -5.2891169298776863e-01 1.8902920115733013e+00
      1.3682149891872646e+00 1.8636253631975136e-01
      -3.4917767349295159e-01 5.4400859360993603e-01
      -6.2718633292614911e-01 -6.0607156162789244e-01
      -3.9451266499735821e-01 5.9251649777270932e-01
      -2.9801934116351818e+00 -6.4026309042285301e-01
      4.6442759723488002e-03 1.3137609570479030e+00
      6.7985534652421165e-01 1.8251919286252877e-01
      1.0752231444834037e+00 9.1375550336519840e-01
      2.7729307785198856e+00 -7.4150865053293824e-02
      -5.4029156863113492e-01 -1.0079946279835623e+00
      1.2067305267644957e+00 -3.2465931974015971e-01
      2.4231743809222523e+00 2.1303854293750031e+00
      -1.1309974779973921e+00 4.8929723149451759e-01
      2.2506863420839715e-01 -9.3263630576817380e-01
      -1.1960468006409464e+00 -7.2167854669378162e-01
      6.9614094842407293e-01 -2.1075836947864787e-01
      2.6334580041778971e-01 -1.0900658335302413e+00
      1.4614285923022902e-01 9.2376034386664674e-01
      -3.5659846900203362e-01 -1.2780604161782311e-01
      -3.6740365950068360e-01 -1.1464682223293090e+00
      1.7527810355937673e-01 1.5086480039415187e+00
      -4.2256157294332485e-02 -7.2484754439545740e-01
      8.0067493354971586e-01 7.7140867434015048e-01
      6.7093007141545979e-02 -1.7535772466628190e+00
      6.7485225742285948e-01 -3.5983046928571925e-02
      -5.0898132214624003e-01 3.3428924980323083e-01
      1.0359250765013531e-01 -3.6360071360178431e-01
      1.4169864943208856e+00 1.3992096203850837e+00
      1.1363876057830946e+00 6.6744874708773849e-01
      -1.2198206381118102e+00 -2.8540066813017567e-01
      -1.3674030914552515e+00 -1.5568240781671741e+00
      -1.0705450402353758e+00 -5.0832876713234465e-01
      -2.3601423408653879e-01 -2.7560128125279126e+00
      5.5617232878879008e-01 -4.2833812026634138e-01
      -2.0140483001337484e+00 -5.1727010980014887e-01
      -7.6974428641466974e-01 2.2619179966228567e-01
      -1.2168644853351716e-01 1.8125182104390507e+00
      8.7994397772898858e-01 -1.2425935423688015e+00
      1.1037096468826009e+00 3.1192043004652721e+00
      -3.4573438442876858e-01 1.9762491111942986e+00
      7.4515935902104280e-01 9.0588688994702693e-01
      2.0257971230462677e+00 -2.4988398831984178e+00
      1.5798605193373876e+00 -1.8403259074078333e+00
      -2.8361071722559688e+00 -4.1638428159771124e-01
      -9.4819896302437312e-01 -1.2338514913644276e+00
      -1.6683689929131746e+00 8.9380988323739752e-02
      -1.3874739700458505e+00 1.6418818697833406e+00
      7.6793456091963941e-01 -1.6757050303671397e+00
      3.2507231591918750e-01 -1.5433619226011506e+00
      -8.1519715118457992e-01 -1.8018005362205745e+00
      1.0011603192799559e+00 -4.3408246285541369e-01
      2.6005402026128349e-01 -5.9548786788488753e-02
      4.6705953003582029e-01 2.4854981164623533e+00
      1.4940729869433544e-01 6.8060497853102242e-01
      3.5676230185865043e-01 -2.3210530086089167e+00
      4.6012677440853833e-01 1.5984525733834862e+00
      3.8358646150315817e-01 9.9142061651321445e-01
      -1.1273831108448308e-01 -1.4576986154303777e+00
      -8.8510536051274222e-02 -8.5054644464952733e-01
      1.7730836173392078e-01 1.2155162307263458e+00
      2.4363688315588723e+00 -1.0602648740147820e+00
      3.4296216782819244e-01 -5.7255663552270963e-01
      1.6798000360792213e+00 -2.3023003432407410e-01
      1.2193672710479695e+00 -2.3823180146547780e+00
      -5.3098543676168852e-01 -2.6155351360950387e+00
      -6.5063827163036492e-02 -1.4203726098650582e-01
      -1.3724337996006297e-01 3.8764357598522672e-03
      -1.8027533406260057e+00 -1.8471250470906648e+00
      8.9736691786161338e-02 -4.6888492928270759e-01
      -4.8858779654628731e-01 -7.6654401661078020e-01
      4.1498949355756598e-01 -9.7619103724221123e-01
      5.1934800440219453e-01 7.3822961815571342e-01
      -2.0448020051478673e+00 9.0808120277009907e-01
      8.4276558364083387e-01 -3.3073503058206205e-01
      -1.0274825043179356e+00 1.4471153146958921e-01
      -1.5726096926092503e+00 2.1046561223225364e+00
      -1.3242304444669908e-01 5.9569563340865783e-01
      7.9545209758297458e-02 4.4875662563223695e-01
      -7.2948896069045838e-02 -1.2098902721244774e-02
      -2.1082987691880201e-01 4.9719991435972138e-01
      -4.2687554593417859e-01 8.3572647489074836e-01
      -1.0830929325596590e+00 -1.5412971553021073e+00
      1.7950992336445926e+00 2.7717897932901714e-01
      6.6660857967475762e-01 3.4268498716699081e-01
      -5.6002920670247935e-01 7.8391354819199810e-01
      2.5144349702245766e-01 3.4271977982470558e-01
      -5.0045632446946919e-01 -5.8271592461394850e-01
      8.3226375301481326e-01 9.9250504627296135e-02
      -2.0062202300924323e-01 -4.7220917969639808e-01
      3.6621958191188048e-01 1.9688444034025308e+00
      1.1015782371564191e+00 -5.4414730712737425e-01
      1.0853128462480650e+00 1.7335405887386812e+00
      2.1175339699370460e-01 -2.7251391533904046e-01
      7.9607224893859171e-02 4.3975717900180478e-01
      4.8996327057545253e-01 4.9444567701458197e-01
      3.7047923382975539e-01 2.3432216238197459e-01
      -7.8268282022335378e-01 4.2659505872405037e-03
      -2.4158582073137547e+00 -1.0862456326923302e+00
      1.4996813092508527e+00 1.5139847804135669e+00
      2.1100380763867284e+00 9.5830724667818001e-01
      -1.6443778693341449e-01 1.6478405826568854e+00
      -6.6572731570559096e-01 -7.8357166594795724e-01
      -1.6134102852594592e+00 6.1687555718444170e-02
      2.2408201901316874e-01 -3.8660042213520751e+00
      1.5954167740733727e+00 -1.8226337489345157e+00
      -3.5421390903408068e-01 -2.2442705430927895e-01
      -8.9093627498335271e-01 -3.4531993379527831e-01
      -1.1868180915997715e+00 -9.9531671231022883e-02
      -8.8412638083405659e-01 -5.6475656651907036e-01
      -1.4992304834612318e+00 -5.7110006718068618e-01
      4.1956305364899305e-01 6.4620268033434430e-02
      -1.9831536041339373e-01 -8.6934071741372421e-01
      -1.7961226851347263e+00 -1.4262260178782298e+00
      2.1275152637649937e+00 -1.0160456794458588e+00
      -1.8155803113379781e-01 -1.1293444226429636e+00
      5.7504158649088877e-01 -9.9306598658453926e-02
      -1.8665048454567679e-01 -9.9650533325103297e-01
      -6.0703304488544640e-01 1.4516532096737866e+00
      8.0396805306426733e-01 1.5144745200285749e-02
      -1.6433103819629402e+00 5.0136895497135447e-01
      1.5882059848209460e+00 -2.2325302955616297e-01
      3.5570949949255920e-01 2.5432191178816250e+00
      -1.0858850508770235e+00 -6.5569563181357857e-02
      8.6778368262754646e-02 1.1657144142876124e+00
      -9.9528483835139547e-01 -1.8943614667286837e-01
      4.8318106420467938e-02 2.3357259643875388e+00
      -4.9074408723752599e-01 8.7575038683743023e-01
      1.3993023288908240e+00 2.1519028438832462e+00
      1.2395404115258822e-01 1.0392117507102172e+00
      4.2969299116276777e-01 1.8091329976567250e+00
      1.6176290484762437e+00 -2.7132459117660557e+00
      -1.5431622924464270e+00 1.2235378912686976e+00
      -1.8713651566470349e-01 7.7956446062511264e-01
      -2.7789904760670781e-01 -2.1254548870564607e+00
      1.3116040903140718e+00 -1.9618877206912047e+00
      1.0171777704813258e+00 -5.4762667770016449e-01
      5.8559161575959073e-01 1.3042033254827730e+00
      -3.5505279745822231e-02 6.1035946156786014e-01
      -1.0161291545636624e+00 1.4729631472373292e+00
      -2.0886281174894805e-01 -9.1925301535504267e-01
      7.9330469528469039e-01 2.1513905059932098e-01
      8.0840381692501340e-01 -6.7718332606346840e-02
      -3.3331505793838184e-01 -9.3772877404310662e-01
      -7.7644851884879662e-01 3.6115755377264491e-01
      1.1268343389716211e+00 7.4938060076198812e-02
      -4.5256856857438132e-01 -6.0220706972896332e-01
      -1.9090404910123564e+00 4.0265027966879513e-01
      -8.7512045908297031e-01 1.3659508900269440e-02
      -1.6695643144237602e+00 4.9221966525967936e-01
      -4.9778526294238268e-01 -1.7922826483620047e+00
      -2.1753594839472292e+00 -7.9330158553272789e-01
      1.5232649090198882e+00 -4.5673470005648503e-01
      4.7944304075756639e-01 -8.0488840814957802e-02
      -1.0140711294736071e+00 9.4905292862160107e-01
      -6.7440637044945329e-01 1.0552843520534148e-01
      1.1661807408013602e-01 1.1859474253776328e+00
      -4.6023533682372816e-02 -9.3774726891364668e-01
      -1.1926177396403950e+00 6.2577088830875716e-01
      3.0535588252358836e-01 1.9012693022718514e+00
      -1.5008499552212762e+00 1.8509081898791233e+00
      7.6410477543743560e-01 -1.3865976820373958e+00
      3.9073656922496641e-01 3.1378324368350063e-01
      1.6226180235200199e-01 -1.8510609445054325e+00
      1.7472208245834245e-01 -1.2874828029263614e+00
      -1.9401926440215481e-01 -1.3440195472525516e+00
      1.9352988253929115e-01 -7.4866431044321669e-01
      -2.2948800910650471e+00 -1.1719866397013039e+00
      -2.0997510243795152e+00 -3.1014819682098360e-01
      -2.4716528921964687e-02 -4.1169642077643620e-01
      -9.4152198077219265e-02 -7.0484342403280123e-02
      -8.6759195457257932e-01 1.2569143184265770e+00
      -1.7516985393664919e-01 1.2166189127323696e-01
      9.9957812480564498e-02 -1.0146619294098728e-01
      1.1515895518934627e+00 -1.5483902220531249e+00
      -1.6569242176924621e+00 -1.9375123581959766e-01
      4.8918927523528999e-01 -2.2645746008714380e+00
      -6.2627863878200118e-01 1.1167610446853222e+00
      1.6634312590231684e-01 -2.6829155343436883e-01
      -5.6974044534469992e-03 -1.4676720752947376e+00
      -3.5861203016283749e-01 1.1248778932628269e+00
      1.2679633073005382e-02 -4.1850891046135535e-01
      -5.6567311866070435e-01 6.5504228210301707e-01
      -3.2374718729884361e-01 2.1866636044897287e+00
      4.2940667418787587e-01 3.6415464609726773e+00
      -6.4680314895389068e-01 1.8987270318036944e+00
      1.8552973616555462e+00 1.1032219945854824e+00
      -2.8506231044557317e+00 9.5902521002605545e-01
      8.9843039592213236e-01 -1.9723131891344241e+00
      1.0560043260086411e+00 1.4914621711204172e+00
      -1.6152894549485397e+00 -7.1408291429740733e-01
      -2.6899857401336704e+00 1.3064543968747591e-01
      5.3260977894812791e-03 2.8331229528186666e+00
      1.8301188154151429e-01 1.8179024517355480e-01
      -1.6960555660762042e+00 1.3118116517632545e+00
      -2.3805403959168656e-01 1.6423446023934583e+00
      1.5144765860863993e+00 4.5468593068577340e-01
      -1.6137316236209556e-01 5.0969525984890900e-02
      -6.6763865198864147e-01 9.6499088780014364e-01
      -3.5583707882110888e-01 7.8165000717333066e-01
      -9.9721598733399608e-01 1.0115006853982961e-01
      -2.4815904506512299e+00 9.2858885132134039e-01
      -7.1151384770830894e-01 2.2048815187374609e+00
      7.7058191053928637e-02 -6.0809311077074690e-01
      -5.7077780415707269e-02 -1.1230021311897611e+00
      3.4620646943050942e-01 -8.2564785644813155e-01
      -2.0842426425568589e-01 2.0272659032718177e+00
      6.1481217515374031e-01 -1.8764270489801891e+00
      -1.3134183889791662e+00 7.3709722132733624e-01
      1.5641843226759542e+00 -2.4783420787016153e-01
      -1.4611141641676444e+00 -1.8401285603072639e+00
      3.5027280521418563e-01 -4.8774010699972159e-01
      4.5533603417210894e-01 -9.4584126558109161e-01
      1.0159699315942696e+00 -1.5831839330554494e+00
      5.8125348883779382e-01 1.0783919472103165e+00
      2.7887903756094184e-01 1.1871150265536243e+00
      -1.7388246145908244e+00 -1.2841075806846358e+00
      4.3097953199688344e-01 5.1259793740341930e-01
      1.6308554033139426e+00 -7.7430463891499790e-01
      -4.4844052557999298e-01 8.9202248867889378e-01
      -1.2255100652935662e+00 -1.4428847073256729e-01
      -1.6005279912281518e+00 9.1044256306356497e-01
      1.6340089783690945e+00 -2.9927668878042063e-01
      2.6414744835508752e-01 1.8844550890661562e+00
      6.5393120433410223e-01 -1.6729136793357746e+00
      -1.7636490265476956e-01 3.8416364720713143e+00
      1.2863804899601885e+00 5.9058853549913803e-01
      1.6281295341891395e-02 -2.3205132833629061e+00
      1.1789224060843015e+00 -9.6736186669858448e-01
      1.5465751284177982e+00 2.8634736297775687e+00
      4.1845979570413300e-01 4.0356538879191994e-02
      -4.9636783070301033e-01 6.1438508837495420e-01
      -3.6942941971306070e-01 -3.0098128811647022e+00
      4.4055587270248320e-01 2.5671901140821374e-01
      1.5024249611312368e+00 -9.5543234222098095e-01
      1.0264995927292380e+00 1.6008204970866768e-01
      5.8596493156175800e-01 -7.4326043275308185e-01
      -2.0739516779723370e+00 -1.9980748490045677e+00
      -3.1322377926508493e-01 5.9534926883047713e-02
      7.8008799020436626e-01 4.6583899250272266e-02
      6.3207012072112856e-01 -1.4853155600759957e+00
      2.7618925238397274e-01 -1.6072250497260293e-01
      3.2021208765245590e-01 -1.1053642469846243e+00
      -8.7827019985967647e-01 -3.3021626809419224e-01
      -4.1711922142287378e-01 6.0699267159048387e-01
      -8.4723864311485764e-01 -3.2473746778132528e+00
      -7.5117709258287013e-01 1.0223511370379286e+00
      -1.7148137930577894e+00 -8.5133681145923379e-01
      2.1564722918923490e-01 -3.2221130175593998e-01
      -4.9971748685366302e-01 -3.0678591793132975e-01
      -4.6686709668079536e-02 -2.5319111703785069e-01
      1.8251776536682865e-01 -1.4752366766643124e-01
      -4.6081920302754498e-01 1.7799626168899734e+00
      9.0931007746569503e-01 1.3145910203738292e-01
      7.1178205151091772e-02 -8.6347082246428963e-01
      -9.2125782822918445e-01 -9.7952157056754230e-01
      1.1237782369900229e+00 -1.1081415928918892e+00
      1.1193840894345088e+00 2.5742610781811108e+00
      1.0697826239193629e+00 5.6594556196578516e-01
      -7.6895219841923390e-01 -2.3374268156737630e-02
      -2.3132983650460979e+00 1.7040228633212546e+00
      1.7977625594292035e+00 -4.2537475308291189e-01
      -2.8389611642873197e-01 4.3851603814414020e-01
      -1.2601183850858639e+00 2.0633692067920544e+00
      -1.7338242882483768e-01 9.6649410509635547e-02
      -9.9908246780171117e-01 -1.8552281028413227e+00
      9.4512288792256548e-03 -8.7906349831570252e-01
      -7.3216840816581608e-01 -2.7739202342200259e-01
      -3.1283538543990930e+00 -7.2385479014189391e-01
      -5.9057152490994724e-01 -2.5068494012838918e+00
      -4.4046966496166795e-01 -2.2189237324498783e+00
      1.0613532654321747e-01 4.4507698992667638e-01
      -4.6143903338395448e-01 -5.2850857016415720e-01
      -1.2146773872446395e+00 -1.5596732866165325e-01
      -1.3313587008027924e-01 9.9442751119881190e-01
      -2.1663593595905031e-01 -7.1450451088794886e-01
      -5.2738823133463264e-01 1.6231569754402368e+00
      -1.0952548983362917e+00 3.4603886500036246e-01
      -1.5216470230761503e+00 3.7690868750743961e-01
      9.8777239162263430e-01 9.0712694693966711e-01
      -1.0622452657884154e+00 1.0796911578911419e+00
      1.1835674433736075e-01 -6.8292365381811593e-01
      -2.2369247266355261e-01 2.0756633103138697e+00
      -1.8729299083610138e+00 -3.0451115595145190e-01
      7.0620364126840818e-01 8.2354950930758475e-01
      -7.4282696360602340e-01 7.8253188544650609e-01
      -1.4460088274191043e+00 -1.8423008309618488e-01
      1.7656477104783311e-01 1.2632279371975745e+00
      1.6855573618744393e-01 9.3176497249658721e-02
      -3.5982771388512697e-01 4.3005019728076666e-01
      -5.4580731299144125e-01 -1.1193437908708015e+00
      1.6717720734725447e-01 9.6206036087884572e-01
      1.9720331751069018e+00 5.1264264052260466e-01
      -2.2529991486280581e-03 -2.4499545727338181e+00
      -1.0480271846918265e+00 1.1880654227531007e+00
      -2.0192385063307516e-01 -3.7980607490189677e-01
      -4.4556772614040224e-01 2.1555939665929120e+00
      7.8038493931982700e-02 -1.6064440624224163e+00
      -6.4886725119820132e-01 7.4280075249246091e-01
      7.9859835170804150e-01 1.7278967102846512e+00
      5.2271864438964721e-01 7.3711650234484483e-01
      9.3684948535489676e-01 -7.3328621463663790e-01
      -2.5125966688956556e+00 1.2228645441095652e-01
      -6.2399841216946894e-01 1.1502732856471725e+00
      3.4099996344783678e-01 6.6087272568957550e-02
      3.2447031173662289e-01 -6.0172368859272107e-01
      6.1429813389754961e-01 -2.0871860701793363e-01
      8.2726681176746464e-01 8.4270304047116040e-01
      -5.5672602091721812e-01 1.4022173139446181e+00
      -1.2356160049669564e-01 -2.1352911926121187e-01
      -7.0236648854020634e-01 -9.2537520605935319e-01
      4.3943198209628376e-01 -5.5734163727272135e-01
      3.6769639306368890e-01 6.6999111226036823e-01
      1.6677492686026143e+00 1.1801277143105742e+00
      -4.1310713573525132e-01 9.2389701142383374e-01
      -1.9039622677905430e+00 9.6250183245860621e-01
      -2.6799648535422060e-01 -3.6075105686931630e-01
      6.9500751010453632e-01 -1.5058168350472106e-01
      -5.1570208419106056e-01 8.3574041452934400e-01
      -1.4000751482339824e-01 -3.4829266618038485e-01
      2.5972848408775535e+00 -1.2324709944230410e+00
      -4.0901812011693933e-01 1.3919598423945883e+00
      1.2593564299832465e+00 -2.2964290276327820e-01
      1.4070338620066364e-01 3.5014648407160426e-02
      1.3640188099072963e+00 -9.2077648850381510e-01
      -2.3305829383762044e-01 3.7733913215119826e-02
      4.4514393318581857e-01 7.1303632972069431e-01
      1.2362076045391592e+00 2.5134271405446711e+00
      -3.2055235383617431e-01 2.2173747428433570e+00
      -5.6221058151136383e-01 6.3505172088317552e-01
      -4.8628162011111989e-02 -5.9514084025594904e-01
      -5.4498204027277330e-01 2.3494245832143926e-01
      7.2099780005855807e-01 1.6665149254302429e+00
      1.5591763384567199e+00 1.1693616638751436e+00
      6.7226014501014575e-01 4.0278196869260396e-01
      8.7836027146596229e-01 7.5100440501510979e-01
      2.5327882299840032e-01 1.5011474386403539e-01
      3.4917401418412664e-01 -2.6281949370035655e+00
      1.4089036174764680e+00 1.3948053956998121e+00
      -1.7705871990504335e-01 1.5236226357575138e+00
      3.8655806960565642e-01 -6.9956993328479855e-01
      -2.9086058865589826e-01 4.1815487251084366e-01
      -1.1044238731200118e+00 2.8375833626050134e-01
      -7.2595587861775290e-01 -2.6005260935088468e+00
      7.4833998393846513e-01 3.1683494623255165e-01
      -1.1567593958585827e+00 -5.5695924189742695e-02
      -2.8100258667209572e+00 -1.0262159351612112e+00
      1.6803655922630916e+00 -5.7516447927773784e-01
      -1.1128220873908048e+00 5.3107603077695931e-01
      -8.5088527049814866e-01 -4.4287066452981677e-01
      -4.0965473384059797e-01 -1.5227207918646202e-01
      1.3229823137106929e+00 3.3366162094873381e-01
      2.0105611890823756e+00 -1.4804434828887143e+00
      8.7685978895361749e-01 -1.3246421578557819e+00
      5.4731016693897061e-01 -1.1389703049635500e+00
      -3.0230152600671045e-01 3.6426589596402609e-01
      -1.8343641414311478e+00 1.7013808630194664e+00
      -2.6936240824821533e-01 1.7691495696030726e+00
      1.4334330067800227e+00 7.4359939279291920e-01
      -8.8980108460612981e-02 -3.3862280909585651e+00
      1.1984306549896975e+00 7.5238495548934869e-01
      -1.0689209638769479e+00 7.5621061642197718e-01
      -2.5552395000035384e+00 -2.4048598449640815e+00
      -3.0199821109652838e+00 8.1689537367494669e-01
      2.8455128245908399e+00 2.0710558695074046e+00
      1.1579825258947780e+00 8.8344057219261668e-02
      -7.6346752092898618e-01 7.0283708021015057e-01
      -1.4906397308288197e+00 -7.7064909093192535e-01
      -1.1406957654502869e+00 -8.3466281148841104e-01
      -4.3190170528457283e-03 -1.0159732387371989e+00
      -5.5376731302122362e-01 -1.8315366916615230e+00
      -1.1835443760008413e-01 1.5287960083835166e+00
      -4.9647787858506093e-01 4.7565993649630112e-01
      8.8560655209006922e-01 4.3721737096147106e-01
      2.6689714684872445e+00 -8.8541784742580210e-01
      6.7873291696800975e-01 -7.4693781871833487e-01
      -8.8500440105608014e-01 5.9300537728842528e-01
      -1.4299726181362691e+00 1.9710430460305288e+00
      -1.8923875920779889e+00 1.4009057130096432e+00
      -1.2377036177573899e+00 1.3585747929501963e+00
      -4.4328765073182974e-01 3.1763578190164060e-01
      7.7867102346477168e-01 2.8109541347390465e-01
      2.0338887985119425e+00 -2.3235817053050160e-02
      -1.9680548567816649e+00 1.4731537469362264e+00
      -3.4276111057230824e-01 4.1084389259860499e-01
      1.1355084424948878e+00 4.0643053466994711e-01
      -2.7889131507638087e-01 -5.9378269989282573e-01
      1.4766664239064986e-01 -1.3610545526340370e+00
      9.3587908788069452e-01 -5.4116087375676858e-01
      7.5162029436815736e-01 -8.7225089087113756e-03
      5.7692170408175029e-02 -2.2976531314063435e+00
      9.0611707111677897e-01 3.0364466697560155e-01
      1.2902368910997697e-01 1.0673518970494003e+00
      -6.9833894475908997e-01 2.2049672366054343e+00
      -9.6839584065943374e-01 8.2949715999259543e-01
      3.4629646528782854e-01 -4.3875221139837572e-01
      5.6531948730631353e-02 -1.0797634695246583e+00
      -2.0652328657754901e-01 -1.1685876373872792e+00
      4.2910002940840360e-02 -6.5566859957467338e-01
      1.8254489623710117e+00 2.1678173753958183e-01
      2.3660152574669086e-01 -1.9243800393907329e+00
      3.5022109655315808e-01 -7.9849059971408495e-02
      -8.5384294386213255e-01 6.5760271350459676e-01
      -2.6966309093482597e+00 1.4097558099578167e-01
      -2.7102022918238361e-01 1.1042121846807966e+00
      -1.7592698363742160e-01 -8.0998569677090715e-01
      -1.3299359256064602e+00 -1.2009758980225034e+00
      6.7597071298245226e-01 3.9592144634613879e-01
      -1.0738502756120116e+00 1.3291392274342881e+00
      5.8588751745729514e-02 -8.6396016543392323e-02
      -5.9478995696627728e-02 1.7071482127716701e-02
      -1.2172762995102739e+00 -4.7247549143700596e-01
      -4.1582279301766267e-01 1.7465089458094998e+00
      -6.5731285826954045e-01 3.8761992638523146e-01
      -9.7822144637424424e-01 8.0972542371610079e-01
      1.2781955407995167e+00 -1.8435899562022570e-01
      -5.7046416466085481e-01 2.4974253924518930e-01
      -3.1323245803854843e-01 1.5378323757106125e+00
      7.4004375575162229e-01 1.5755061881264005e+00
      9.6887946943139136e-01 1.2182197063834632e+00
      7.9308934978653933e-01 -1.1593080853650208e+00
      -6.8517806500493028e-01 4.0905685232366991e-02
      1.6426337117636747e+00 2.2454175828569842e+00
      -8.0771167051967063e-01 -2.7372907130608204e+00
      1.0502219148189063e+00 6.0611552755380460e-01
      -1.6053864450300799e+00 -1.1465002936508033e-02
      -9.3938211308697817e-01 2.0456589210487723e+00
      2.4882983635224168e-01 -4.6370789141524586e-02
      1.3398847572236137e+00 -5.2504849356865924e-01
      1.3342630925240875e+00 -5.2169910704282929e-01
      -6.0908670926570485e-01 -1.8571958691030281e+00
      4.1326089289741058e-01 1.1044042774376377e+00
      -8.6248862435091833e-01 -2.6590718337818493e+00
      -1.8457559258050236e+00 -1.1016455194218686e-02
      -1.2290231941109442e+00 -1.4167624216526866e+00
      1.9728470293439718e-01 1.2545648196365629e+00
      7.4724880130026414e-02 -1.2288544116158102e+00
      7.0468890089012387e-02 -1.1358909248210076e+00
      -2.1377300312176276e-01 -9.8627536753495204e-01
      1.2624951143962901e+00 -8.9331095010966366e-01
      -5.0633881548344295e-01 -1.0110324699377142e+00
      1.6884050876073604e+00 9.2441844189144751e-01
      9.6467647556293001e-01 -1.1477150771633666e+00
      -3.5962462993105127e-01 1.1838187894668017e+00
      -1.4201250705112045e+00 1.1238597354989530e+00
      1.8482813784933767e+00 1.9454233161462992e-01
      -3.3339406402803556e-01 -1.0342850803824728e+00
      1.0595563331253457e+00 -2.1842294985806164e-02
      -1.9814702260217354e-01 -5.2843656156857599e-01
      1.6795786189117039e+00 1.4196483395089132e-01
      -2.5265219861214694e-01 -6.9224922370596254e-01
      3.5839390127269349e-01 2.3226886237070149e-01
      -7.7447638977424060e-01 1.0545387804572894e+00
      -1.0461191532740031e+00 4.9168772584683340e-01
      -1.3184433687819125e-01 6.9555185634422134e-01
      6.5435274025408985e-01 -9.2849583888733311e-01
      1.6154750829909958e+00 1.2845321767464024e+00
      -1.3606872699335279e-01 -1.6980767929329790e+00
      5.4776008310293078e-01 2.8291994453550497e+00
      -3.9812259938151778e-01 8.1063105723554074e-01
      -1.1247335873222599e+00 1.0982472447355685e+00
      -9.4241975354450058e-01 1.7791416794616153e+00
      -5.8663925132240158e-01 -1.2810226157224327e+00
      -1.0555547981728188e+00 -2.7950905250970175e+00
      -6.5608846545537636e-01 -5.4327885695396327e-01
      3.5254978315614255e-01 6.4302047625161229e-01
      2.6089867308341939e+00 7.3154603283476682e-01
      -6.2814624030157018e-01 6.4022864401090562e-01
      3.7035850854707825e-01 -6.8555446580628865e-01
      2.9535204827050898e-01 -2.9765801197006264e-01
      1.0079215646835444e+00 -5.1332692747009712e-01
      2.0131852518502122e+00 -4.2460445281939636e+00
      1.4631794395595551e-02 9.1289299742431984e-01
      -1.0538535496989916e+00 -3.2856864962689070e-01
      -2.9261936265636362e-01 -8.2183034388747689e-01
      1.0543952639586414e+00 1.7439572154071608e+00
      2.8262841576040493e-01 -2.6695383230367926e+00
      7.9025777265289213e-03 -2.0418870776248297e+00
      2.3942330773614242e+00 -2.0692522187614060e-01
      -6.7877921395124982e-02 4.2634949457245314e-01
      -7.2749069061452654e-01 -1.9822205476720038e+00
      -9.6253672361875153e-01 -1.3181032543857392e+00
      3.4586525809636443e-01 2.9853046386529380e-01
      -1.6978634452122019e+00 -2.9498526211658366e-01
      -1.2936290051757604e+00 5.2295669117272470e-01
      2.4292923777206576e-01 -5.7971200621247676e-01
      9.0321950022253253e-02 -1.4109493677969340e+00
      -3.4748810312688605e-01 -4.9084175805093050e-01
      -2.9796666469894895e-01 2.2159770816151596e+00
      -1.4380025822615394e-01 -6.8802151471875717e-01
      3.4870960112221296e+00 -9.6179254382671187e-01
      1.2455645207263850e+00 -7.3974779844347904e-01
      1.1817613385465822e+00 -2.8891872129548282e+00
      6.2701414059924621e-01 1.9124139870707266e-01
      -8.5737726477409637e-01 1.1421414100522613e+00
      -2.2261379776411481e+00 -6.4865540299932026e-03
      -4.0844358304660577e-01 1.4620675437903587e+00
      -2.2189938115934011e+00 -7.5446658999405736e-01
      -2.6745594250636318e-01 -9.5067371300169068e-01
      -9.4785826002089801e-01 1.3102142522176019e+00
      1.2375020826556724e+00 -3.6019122864562070e-01
      1.8283830541204282e+00 -1.4464068573640341e+00
      -5.2177358568163235e-01 6.7197856323332616e-01
      -9.7633782131646207e-01 8.5183293389333323e-02
      4.9160339217531412e-01 3.4219292510530720e-02
      7.7135837570135901e-01 -3.2267535326558316e-01
      5.8555592391115485e-01 1.9244810506777191e-01
      -8.0862363440287011e-01 1.0153676346259399e+00
      5.8866265814219807e-03 3.5487378375748363e-01
      -5.3646749805592808e-01 -1.6903439277250720e-01
      -8.4071909145128326e-02 1.1105341489637131e+00
      -3.1810147168032027e-01 1.4836273608724508e+00
      1.0434128574104404e+00 -5.2826782913563952e-01
      1.7815688497153457e+00 -6.6811570083416050e-01
      5.0073895608855312e-01 -2.8500838368828080e-01
      -1.6697390687352467e-01 1.4545575513801003e+00
      7.1509412317433563e-01 -6.0490841571012921e-01
      1.2339409393723240e+00 6.5442545299638211e-01
      -1.2808723996715135e+00 8.2038908325198723e-01
      -1.1336820040030515e+00 1.4836429752076312e+00
      1.3542925549307824e-02 -4.3891403018109548e-01
      7.7038656040859688e-02 -2.2927098984190883e+00
      -8.1670892190515751e-02 2.3154572306080419e+00
      -5.8425170974520746e-01 -1.2688764332081302e+00
      1.5591102630051765e+00 -1.2659984721845945e+00
      1.0104250335334967e-02 -3.7646089796027910e-01
      1.2075070444064939e+00 -8.1194887756953626e-01
      -7.3210528529550856e-01 6.8486117972517047e-01
      -1.0624174874561003e+00 -1.5151894878306662e+00
      3.1072027549044823e-01 -1.4452468678725636e+00
      -2.2540597744328785e+00 1.2900241680019660e+00
      -9.9658336484919507e-01 -7.4960550105231605e-01
      1.0866188272399735e+00 -1.7255066395972680e+00
      5.1748361099184925e-01 -2.0650319768760133e+00
      8.1645168454289829e-01 -3.8047495257106406e-01
      1.7675212669742082e+00 -1.6361283685268102e+00
      -5.9403798009564457e-01 1.3089619176338785e+00
      -5.4786643289831172e-01 1.4867713718865974e+00
      8.6406502239423477e-01 -6.4824964701207599e-01
      -2.3151425755878914e+00 1.1748015975619233e+00
      -1.8759099045653729e+00 -1.0025249258664495e+00
      2.2383708035876668e+00 -5.8647262237603281e-01
      1.2782677476429658e+00 -4.8963934367332801e-01
      -1.0532847698008039e+00 -1.0419276330898950e+00
      4.9497413844842797e-01 -1.3065827583619952e-01
      -1.5074910918769169e+00 1.8125418445312325e-01
      4.1332672598741282e-01 -3.6474541522296583e-01
      2.1170917199608459e+00 2.0894660354837384e+00
      -1.2248303192875094e-01 -1.3307400084781431e+00
      1.4647624544406304e+00 -8.7656990198704143e-01
      7.5748694782597736e-01 4.3541063562507526e-01
      -9.1813228898171972e-01 2.0452532187505965e-01
      -1.4719140249391802e+00 7.9576091595039300e-01
      1.1100896243783982e+00 -1.1800164614627331e+00
      -2.1392747671581582e+00 -1.5027948537117821e+00
      5.9482359190719836e-01 -1.1678338321640165e+00
      2.4403170489627460e-01 -1.4873760610883291e+00
      -1.6299807293997624e+00 2.1871240612253401e-01
      4.8229652647194426e-01 8.5945972162598716e-01
      -4.5824555865067113e-01 6.6526090219864109e-01
      -2.2944378400494880e+00 2.9904086583078698e-01
      9.8501405812333964e-01 -9.8291246999769621e-01
      -1.0317008384359820e+00 1.4043212513869949e+00
      -1.0091826415647112e+00 -1.0058027462206343e+00
      1.0537800000368913e+00 -3.5070795932988563e-01
      -9.0226418511175610e-01 1.2243501793187654e+00
      -1.3050292679584008e+00 -1.7721610140960067e+00
      1.9512674534580982e-01 2.2994477210815600e-01
      9.1518571888458344e-01 -2.5921368854668447e-01
      8.9541729694987215e-01 9.0231646486694117e-01
      2.8626331816719416e-02 -2.7849387986100624e+00
      1.1698969229374250e+00 -1.2870925422050536e+00
      -3.4273742296297527e-01 -6.5820681956990965e-02
      -7.0965482608764807e-01 3.0458917578094558e-01
      1.8850218807572580e-01 1.3684090698899362e-01
      6.2098560405562464e-01 4.6123092071274630e-02
      -1.2770245222104433e+00 1.8914402801008767e+00
      -3.4034246283077219e-01 9.9158815662538380e-01
      9.6339493739713911e-01 -2.5768919304861687e-01
      -1.3553934087192538e+00 -1.2156470374866810e+00
      -6.6712773417450577e-01 4.0715544723443731e-01
      -2.5262687393130828e-01 7.2007059245113281e-01
      5.2426491134860764e-01 5.7211432454944167e-01
      4.4444833552733271e-01 1.0490018682035400e+00
      1.1850095218451517e+00 -1.4440337746933032e+00
      1.3939819603313233e-01 -2.8574318678616467e-01
      5.8571592582282372e-01 -1.0939958380361077e+00
      -1.2197573215542934e+00 1.8079335767237354e+00
      -2.2531148873497256e-01 -2.3191626811963947e-01
      2.1171440174024261e-01 1.7297143230363967e+00
      -7.1205336157373078e-01 1.1766145514733277e+00
      1.1413675825290530e+00 -1.3326089899318296e+00
      1.1452807305469495e+00 -3.3375368891908713e-01
      2.2864599563915009e+00 8.9948572004146454e-01
      -6.5280862005197071e-01 5.2985778959625096e-01
      -9.0012444314580753e-01 -1.9576182703348938e-01
      -1.2819405420378562e+00 1.5707395320747746e+00
      1.4362236443309098e-01 -1.5256193993009586e+00
      4.6102731369739258e-01 -6.8838273374672954e-01
      8.2511652378958966e-01 5.8264591484237536e-02
      2.6648197875035811e+00 1.6571810166775089e-01
      -1.0139928674214804e+00 -1.8009861836444243e+00
      -3.8235967831435563e-01 3.6913602606989154e-01
      -1.2652244598838374e+00 6.4301792325467999e-01
      2.3742736823788546e-01 1.4391992484818270e-01
      5.2981764354955385e-01 2.3609232944640759e+00
      1.6203050619102772e+00 1.6811380600210141e-01
      -1.8513521884502152e-01 -8.7366666794012826e-01
      -6.1480685387227896e-01 -5.6975732009954216e-01
      3.8591069196724986e-01 -1.7430260035805274e+00
      1.0821159053603548e+00 4.0883848516085425e-01
      -4.3718695034570570e-01 1.7296493563651423e+00
      -5.8294892120562181e-01 8.8002408513125785e-01
      1.0632190450768348e+00 2.3582207398152846e-01
      3.9160489738445187e-01 -1.8404891209108551e+00
      5.4322982963739064e-01 4.2622162570249333e-01
      4.1714371253912322e-02 -6.3249030168889619e-01
      6.3415148355731088e-02 -2.3363066865181463e+00
      8.0172474697941909e-01 -1.2536173485688220e+00
      4.3335446655211723e-01 -1.4830447233946700e+00
      -1.5092034412979551e+00 -5.9885637348961385e-01
      7.0603740967980966e-01 -3.5393468678502088e-01
      -1.7889421372904971e-01 -8.8797629728884375e-01
      2.6420118800017184e-01 -3.5453537304145205e-01
      -1.1849855170737891e-01 1.5803315497129730e-01
      2.0056427863333002e+00 2.2509485492292884e+00
      1.5023215862669719e+00 -6.2845061027878379e-01
      1.2182144647469551e+00 6.8868436243593911e-01
      -3.3490026984597482e-01 -1.8770803079177512e-01
      1.0753927317858512e+00 3.2277168156771674e-02
      2.0743945588458171e-01 -3.7734983857697785e-01
      4.8093440092068479e-01 -1.4369339244915149e+00
      6.6936479595828702e-01 -7.8004881949832650e-01
      2.1244703815925954e+00 -5.9093308251568433e-01
      1.2774093236046289e+00 -2.6270238530737722e-01
      -1.4383876132819133e+00 -4.3113355363708961e-01
      -9.9290422155380931e-01 -2.7737388874996549e+00
      1.9429168031116144e+00 -2.1877165965104259e+00
      8.0112698969290108e-01 -7.3960226036124210e-01
      5.5311505633079716e-01 1.1960104563517278e+00
      1.2576042584722222e+00 -1.6376355261682465e-01
      3.0448946287663181e-01 5.7770449423659553e-01
      -6.5801651367347103e-01 1.1776197157151179e-01
      -9.0341189801487776e-01 2.2462883223405450e-01
      2.0428294639478509e-01 -6.4837830819875852e-01
      -1.3279230927883290e+00 -4.0261221334045877e-01
      6.7583692129745354e-01 2.0665178896425282e+00
      -7.1338444618249319e-01 5.9151679494534704e-01
      2.0042460737726473e+00 -3.9093867865811799e-01
      -7.4629831467079244e-01 1.2245124283251057e+00
      -3.2028515143601433e+00 1.7055221601277304e+00
      -4.3466421082946410e-01 1.3714786879840943e+00
      6.0543992083674603e-01 5.7213298845767013e-01
      7.7341860628529102e-01 5.0991333374057002e-01
      -9.0137076561471519e-01 -3.8774782283878029e-01
      -2.6256701106110185e+00 2.5176205307888861e+00
      -1.7406684376806087e+00 1.3733734130100650e-01
      1.0198203721348145e-01 6.4863707783448887e-01
      9.7716467669324969e-01 2.9916990336796229e-01
      5.3314956446285822e-01 1.5226957278757161e+00
      1.5304112065124312e-01 6.2060624729231684e-01
      4.0907297605964160e-01 -3.2900365535504150e-01
      -4.5056281246143048e-01 9.5213700832963633e-01
      -7.0319618164459341e-01 -1.1892101401256321e-01
      -2.0899122782749409e+00 1.2109095812304296e+00
      4.4359152450039890e-01 -6.6555991672615533e-01
      -1.1594342844412988e+00 -6.2154548934152898e-01
      -1.1504157771726453e+00 -1.8971899308277633e+00
      -4.7446683542341219e-04 5.2569847018742200e-01
      -3.2768591171105976e-01 8.3244800578816669e-01
      8.4374474399997812e-01 2.1183771271307816e+00
      -1.8408951948009653e-01 -5.9045480227600988e-01
      -7.2659870873426091e-01 -9.5000667726803023e-01
      1.4998293206341770e-01 -7.6189629522326185e-01
      3.7498558718817554e-01 7.8036587459136042e-01
      -1.1072988598007052e+00 7.3032490457224208e-01
      1.5819808855110042e+00 -2.1781512199823849e-01
      -1.9280366013247074e-02 -1.0639604868843620e+00
      -2.8965214139393201e-02 -1.2884675753539081e+00
      5.6439835232881319e-01 -1.0877818281198215e+00
      -5.3046914015774072e-01 2.0671703748334029e+00
      -4.6473149486091825e-01 -7.5832080632418128e-02
      1.1350513887668456e+00 1.0945601401211198e+00
      -8.2612976880624700e-01 7.6158846731936225e-01
      7.8739513790544058e-02 -6.7076757741088999e-01
      -1.3673463408644455e+00 -6.1641314054745189e-01
      4.5317257224912699e-01 -4.5643773140469635e-01
      1.0208265886058013e-01 -1.4168941000357966e+00
      -1.1667241104846739e+00 -5.8966287246894389e-01
      -1.5184952667171623e+00 3.7053318663046786e-01
      -7.3004957190170683e-01 -6.9801490819108003e-01
      4.8026874381142898e-01 1.7097969871492393e+00
      -4.4380491090076565e-02 6.6420152987599024e-01
      5.3165941806535311e-01 5.8039573257933552e-05
      1.3733033115999886e+00 -2.3670180043416317e-01
      -5.2280515448900688e-01 -1.2185464170914950e+00
      1.8078063164884056e-01 1.3060075971440708e+00
      4.7096223811238647e-01 4.4108877205521857e-01
      -3.7241077216799001e-01 5.5631196080170964e-01
      4.2381485844548256e-01 -6.1620856220289988e-01
      4.3473430447889477e-01 -2.7197443642847702e-01
      -1.4882205468494841e-01 2.1631097945305380e-01
      2.6654145964978513e+00 3.7916580064017047e-01
      6.9392125900787444e-02 -9.5964669303574279e-01
      1.5528712444668427e+00 -2.4910378831693256e-02
      -2.9805688778121580e+00 6.4298143817728926e-01
      -1.8804974170787295e-01 -4.6404185849131019e-01
      -1.2740964412204232e+00 -5.6394807925773727e-01
      5.6584659235469559e-01 1.8230120777206984e+00
      -1.1862616217105315e+00 1.9737746705741099e+00
      -4.1418355587881589e-01 -2.7869273077661127e-01
      7.4549381825573047e-01 1.6567612816928654e+00
      1.0564651334954795e+00 -1.5411885786373994e-01
      1.8556059266434459e+00 -5.6403103593311654e-01
      3.7338793815351357e-01 -1.3775382700632612e+00
      -3.2538770171068487e-01 -1.0064212500589080e+00
      -1.0061743929566758e+00 -7.8517951795002316e-01
      2.0425383586407868e+00 -1.4826025539290024e+00
      4.7111920185539596e-01 2.6832104270923813e+00
      1.2881652670633303e+00 -4.2329978277286168e-01
      -1.1725199223375002e+00 -1.4145606809599349e+00
      -1.8904638590736693e+00 -1.8561943300266392e-01
      -1.2184921868791023e+00 -1.3412072470257606e+00
      4.3659473564643803e-01 3.9368556878465766e-01
      -1.4221295478351323e+00 -9.5525865519518482e-01
      7.0831134605031909e-01 -7.1076155346725081e-02
      -1.3958761417268137e+00 5.6905106110069337e-01
      1.2183145164324496e+00 1.8914207899978386e+00
      -7.4013706131965451e-01 1.9940441529422387e-01
      3.7106152081284610e-01 -4.0211742858768043e+00
      1.0598926534234556e+00 -3.6174377532468667e-02
      -3.4802450125885021e-01 2.1132549453689493e+00
      9.1629651785827774e-03 -1.0165238962183150e+00
      -1.0579922481981749e+00 1.0689168699716811e+00
      1.4707188391585726e+00 -1.1097948338538262e+00
      5.6120055609305108e-01 7.3618718274239048e-01
      -1.3638577852148146e+00 -1.8461772379778592e+00
      2.2707281053983011e-01 7.8850558929891590e-01
      -6.2556803327172950e-01 -1.6691468010099284e+00
      6.1529537242851728e-01 -2.0642370826503362e+00
      -1.0416211286269168e+00 1.0613650273666340e-01
      -2.5662255517604138e-01 -7.2130295939722855e-01
      -1.1143117424793441e+00 -1.9215007303329598e-01
      1.2391556287602488e+00 9.2439670835203525e-01
      5.4304579552432730e-01 3.4155874261240378e+00
      -2.2574256411624485e+00 2.9611986516246497e-01
      1.7093351753955894e+00 -1.2155337913543233e-02
      6.1932703201656980e-01 -2.5168273085485295e+00
      -3.1141191820591663e-01 2.5369342043058746e-01
      -3.5554060585436518e+00 6.0400777240423464e-01
      -1.1339023433338646e-02 -1.4830544332730347e+00
      6.3169322056315436e-01 -1.7235086926386221e+00
      -1.1338678892921858e+00 -1.0080831199159557e+00
      2.3075903605080941e-01 -1.1173318692615761e-01
      3.8071896112420323e-01 8.9045953089014007e-01
      -3.7370550366002866e+00 3.2685086036428976e+00
      -1.0219832209921951e+00 1.6138263357418487e+00
      9.1812192163267126e-01 1.5563267713925701e+00
      9.9104716534517234e-01 3.7173665322210259e-01
      1.9502280534862075e+00 3.4712863036300683e+00
      3.1022207617031011e-01 8.7309565164113967e-01
      7.7573223999467877e-01 1.1854354202195094e+00
      5.5349292724880927e-01 -3.1048048496479401e+00
      -4.5992362393331349e-02 -3.5801461638421739e-01
      1.2411352082053781e+00 -5.2730664773257641e-01
      1.2959605673898733e+00 -2.9528609574234022e-01
      -5.1284605032706021e-01 1.7338277667970228e+00
      -3.3704460938773068e-01 3.7765510533553914e-01
      7.2244600881991272e-01 -1.0215928999601398e+00
      -2.4479518315825849e-01 5.7889065246110250e-01
      -2.4986636707235910e-01 1.2706817217499928e+00
      -2.5359256717793000e-01 8.6065959130834840e-02
      7.5171772108357549e-01 3.9636346132263318e+00
      -8.4274514292252867e-01 2.2686564721461506e+00
      1.7624441127799388e+00 1.3601110117280233e+00
      3.6461466319729557e-01 3.0659317816276072e-01
      -2.3845747544560063e+00 3.6441501237228108e-01
      1.9579350132243062e-01 -3.1059813422645011e+00
      -8.8669467759092913e-01 -1.7002538752670897e+00
      3.7398543220416519e-01 -3.9083983908449549e-01
      -2.9854178623890109e+00 2.9969594251802989e+00
      -3.6697073259206525e-01 1.5637303483930582e+00
      2.0333137927303837e+00 -7.2542811344164404e-01
      -1.6568514983120115e+00 1.2445371713962465e+00
      -1.5939698537827744e+00 5.3977516634057499e-01
      -5.0700687812023371e-01 6.8947659377831139e-01
      6.8585506567833487e-01 -1.9644431084620257e+00
      1.1734265284949992e+00 -8.2676280912221733e-01
      2.0049732155832434e+00 1.0252568655836096e+00
      -1.9584341144524905e-01 7.6258543442690807e-01
      -2.4210211062057985e+00 -2.2744945612871925e+00
      -3.0517703257747968e+00 -1.4963437595592355e-01
      -1.7809030207700308e-02 3.5982412261975688e-01
      1.4846017185581608e+00 1.2030456855814111e+00
      -6.9559390660918841e-01 -2.5762612951569870e+00
      -6.1945043566323765e-01 -1.2702271558856733e+00
      6.5141582427634803e-01 -1.3599557690723563e+00
      1.1021708327445281e+00 -4.7867592067005410e-01
      -2.1400847959755955e+00 1.6781820618817542e-01
      -5.2812285207523735e-01 3.1536516016415816e-01
      -1.5728370167709047e-01 3.6081491539925692e-01
      1.0996938716125988e+00 -1.4021040992015534e+00
      8.8917298337369610e-01 -2.2126484727174281e-01
      -1.3992422918806638e-01 3.1177050585276339e-01
      -2.4124488891238909e+00 2.4530794058683192e+00
      2.2788730597073359e+00 -2.9595937158090752e-01
      1.9705651591091772e-01 4.8789533945694047e-01
      -4.5800901529874222e-01 -1.1980427758178707e+00
      -9.3073483041484317e-01 -2.2955925227403395e+00
      -4.2678376173688110e-02 -2.1203768997118635e+00
      1.6121107409660948e-01 4.4698421229866753e-01
      1.5496285145235256e+00 1.8841961482165519e+00
      -6.5481697168116937e-01 1.0925311120498844e+00
      8.9112964279778328e-02 3.9335055016905540e-01
      2.5754106346900936e+00 2.6795063851136987e+00
      2.3104740662712011e+00 -1.2358680077100745e+00
      1.3186330097372494e+00 -5.6519073738295467e-01
      -1.4762397197065541e-01 2.4217236193956107e-01
      -1.2259064252334089e+00 -3.0305086215582222e-01
      -1.3064961122570933e+00 2.5561090550850746e-01
      -1.3918642374825148e+00 -4.3465174328296352e-01
      8.3042546794789576e-02 1.2942855212931998e+00
      -6.9406224149153672e-01 -1.6959647509267710e+00
      1.3531123085387469e+00 -3.5409396491032861e+00
      3.7858011780159090e-01 2.2379372784784808e+00
      -1.4337131479688645e+00 5.1472949116917588e-01
      2.2310576948367591e+00 -6.1464644096427512e-01
      1.3216864463549725e+00 -1.2954868260834880e+00
      1.9625861269597245e-01 -8.8633342045182562e-01
      1.0166521308601311e+00 8.9268395507588039e-01
      -3.4170361494399420e-01 -3.5873122234840366e-01
      -3.0037394839465359e-01 3.2308450505095099e-01
      1.0681020430638184e+00 1.1964992164873254e+00
      -9.9013363411693889e-01 2.0464617082921027e-01
      3.0724330839161318e-01 -1.7675856157292456e+00
      -1.0176878070398048e+00 -8.5023290100490512e-01
      3.6932223362600869e-01 1.2540437786936562e+00
      1.5061096985996727e+00 -1.3424270725988992e+00
      1.4833947044808029e+00 1.7763082449371784e-01
      -4.8926871692307483e-01 -2.2955500658658288e+00
      8.6068778788150435e-01 9.3150028796692386e-01
      -2.9914643929549251e-01 -5.1526309255053748e-01
      -2.1695101664743510e-01 1.3659236379368158e+00
      -1.5546411307946836e-01 -1.1912729246248379e+00
      1.2107037766361186e+00 1.7113943717146569e+00
      -1.8075143295338025e+00 -7.1776065451497406e-01
      -1.1016822457722257e+00 -1.5250765021881083e+00
      -6.8870542320709471e-01 -7.0930405629281845e-01
      -6.4200793604173800e-01 4.5081820749018892e-01
      -1.2668348841026997e+00 -5.6602026965731667e-01
      -5.3412306932216498e-02 2.8981848383533282e-01
      5.0136542961350339e-01 -6.7955189970135343e-01
      -1.5309556089949199e+00 -8.8699914417498749e-01
      -3.8652562878276558e-01 -1.7891708773414978e+00
      -9.6897274429257574e-01 -3.4393617741321187e+00
      -6.8897698148664577e-01 8.8385760196478481e-04
      -9.2923543988811608e-01 1.6295751360068316e+00
      4.1544937836016865e-01 -6.1092276149125813e-01
      -7.5235145032847550e-01 5.1645590170191302e-01
      1.5611940150755952e+00 -1.3732660273671984e+00
      1.8027367071907425e+00 4.3466065366823098e-01
      4.4490765116907632e-01 -2.7943707238651738e-01
      -1.6606148850961161e-01 -1.6800547390218921e+00
      7.5283144616803563e-02 1.4652987868060852e+00
      5.2949288207773504e-01 -2.9308189935600687e-01
      -2.8405790408124171e-01 -4.6485310390720824e-01
      -8.0862400421076797e-01 -2.5125681235437929e+00
      -2.3409567842490320e-02 1.1723295540644194e+00
      1.3267776753021907e+00 1.2664378076203237e-01
      -2.5909188585717746e-01 1.1018314268908291e-01
      4.9281386514726255e-01 -2.4039184531041646e-01
      -7.2509360490095631e-01 -1.9682404883144000e+00
      1.9655813004450351e-01 -1.6158288511961412e+00
      -1.4402929387271053e+00 -1.0402099222145420e+00
      2.0489398670778898e+00 -1.4929764361516065e+00
      -3.7735083994603297e-01 6.7700812641728159e-01
      -1.5622607079281154e+00 9.9737364825542546e-02
      -1.3205084293204036e-01 -6.5464045650493330e-01
      5.4921398355022033e-01 1.8376851331836839e+00
      -2.2978518562444474e+00 1.5412814518285471e+00
      6.4997002959449146e-01 3.3940364737390494e-01
      -3.3925376658478834e-01 3.7597448776019216e-01
      -5.3839496758616034e-01 1.1155238248839827e+00
      7.1463320496205962e-01 2.3096231230473192e+00
      -1.3117884567561089e-01 -1.0794779765335998e+00
      1.3745817758287506e+00 -3.1901673157907440e+00
      1.5195594677085762e+00 1.4473840640135165e+00
      1.2234811081711179e+00 1.5377429172731434e+00
      3.0180657959936097e+00 -2.5346281768884904e-01
      -1.5667012459978997e+00 1.0735589986830527e+00
      1.6954840467655818e+00 5.3005743996040788e-01
      -3.1992399202603705e-01 4.5584086874847315e-02
      -3.8929750418108977e-01 -1.5746036209072820e-01
      3.7111853777590192e-01 3.9923864982502977e-01
      -1.4531464198452357e+00 -1.2982011226134726e+00
      1.3852062456040254e-01 -1.5148675202129964e+00
      6.6024995430080824e-01 -8.2375531823329862e-01
      5.1965304287296732e-01 -2.0472273750749306e+00
      -1.4181396825879604e+00 4.0001787834236552e-01
      9.3799869743576503e-01 -1.2521713081706236e+00
      -1.2475317579419176e+00 4.3094080965897313e-02
      3.6437750552760501e-01 3.1124092643330531e-01
      4.0724972976804989e-02 2.2287487609916695e-01
      -9.9417178077621893e-01 -1.0208553315210525e+00
      -1.4536291557109218e+00 -2.3703984713646203e-01
      -8.6766094025307927e-01 3.6276320725679150e-02
      -1.1699064600768456e+00 5.5532845456550362e-01
      9.4284969746971548e-01 1.8144126732169852e-01
      -2.7416001407393469e+00 9.0311969741110998e-01
      1.4774269301708058e+00 6.1509795633269471e-01
      7.8984170997644265e-01 3.2990621786334923e-01
      3.5371118871131502e-01 -2.4785198338582513e+00
      -1.8183304589753777e+00 1.3665661971754689e-01
      4.0384433731208313e-01 -1.2591758221861529e+00
      -7.0171271090612086e-01 1.4502360106617338e+00
      -2.0975064227384279e+00 -1.4557155475646240e+00
      5.7820114378452614e-01 4.4749797157315546e-01
      7.4989901482689714e-01 -1.1086571504200088e-01
      -1.0872445446858858e+00 -2.9811561611932462e+00
      -4.2756148745863737e-01 -4.1411726952645533e-01
