<?xml version="1.0"?>
<opencv_storage>
<opencv_ml_ann_mlp>
  <format>3</format>
  <layer_sizes>
    108 68 34</layer_sizes>
  <activation_function>SIGMOID_SYM</activation_function>
  <f_param1>1.</f_param1>
  <f_param2>1.</f_param2>
  <min_val>-9.4999999999999996e-01</min_val>
  <max_val>9.4999999999999996e-01</max_val>
  <min_val1>-9.7999999999999998e-01</min_val1>
  <max_val1>9.7999999999999998e-01</max_val1>
  <training_params>
    <train_method>BACKPROP</train_method>
    <dw_scale>1.0000000000000001e-01</dw_scale>
    <moment_scale>0.</moment_scale>
    <term_criteria>
      <iterations>30000</iterations></term_criteria></training_params>
  <input_scale>
    8.1082482430613272e+00 -1.9902613443414787e+00
    8.6363531622315808e+00 -6.6722906581397579e-01
    7.9756221657259365e+00 -1.8464213856944147e+00
    7.1464111303510816e+00 -1.7322078023688501e+00
    1.9624513209660776e+01 -7.4837618077178036e-01
    7.4370959863518493e+00 -1.7500593020510224e+00
    1.2194051345845281e+01 -4.4893201519975863e+00
    7.5578356043178205e+00 -1.6775408293064109e+00
    1.0814012665093943e+01 -3.7777290818349938e+00
    1.0213242003120083e+01 -3.6618584814721995e+00
    8.0969209496416337e+00 -1.5495719796154699e+00
    9.7751505048158815e+00 -3.4449609912880259e+00
    7.5257402588068709e+00 -1.6484451331882155e+00
    1.6493186368898233e+01 -6.8695352469302762e-01
    7.0124732180333664e+00 -1.6026070136719028e+00
    6.8825569726007281e+00 -1.5545153233774889e+00
    1.0626316305811638e+01 -6.6060703593041625e-01
    7.6306480266485845e+00 -1.7073824386385266e+00
    1.1845571311916233e+01 -4.4114548772837070e+00
    7.2779253827531516e+00 -1.4118267344946906e+00
    1.1103881550220457e+01 -3.9756042363619071e+00
    8.1263852708790481e+00 -2.8246099914484177e+00
    6.4862573410986437e+00 -1.4498097625801136e+00
    1.3846808273878485e+01 -5.2783116189639658e+00
    7.5149905793007585e+00 -1.7314148802570557e+00
    1.4206414218569750e+01 -6.8180105416391745e-01
    7.3972253753070660e+00 -1.5526672272097171e+00
    8.2411771116435411e+00 -2.0204056731186064e+00
    1.2354055819038692e+01 -8.8369439334635447e-01
    7.8964496529085233e+00 -2.0595673040587474e+00
    1.2712270107212037e+01 -4.6083454113020057e+00
    7.2434272189860511e+00 -1.2461929348517922e+00
    1.3244471402314538e+01 -4.7461502099930701e+00
    1.2786639016147284e+01 -4.7028734153915135e+00
    7.5558236303159827e+00 -1.8611686479551930e+00
    1.6282630075933202e+01 -6.1104373619424068e+00
    1.5941006954105863e+01 -4.9206285083554953e+00
    8.7969113267635439e+00 -2.1246276486458755e+00
    1.1147225801040172e+01 -2.8828929617147407e+00
    1.8399876309143554e+01 -5.7530408897146090e+00
    8.8597069693776920e+00 -1.8410388895845609e+00
    1.3586642157992051e+01 -4.0149047610640407e+00
    1.1374187856219805e+01 -3.2172818019109162e+00
    9.0661493778785065e+00 -2.2348091777183696e+00
    1.0670801744739922e+01 -3.0125457744153255e+00
    1.0521802459870509e+01 -3.0285625686066231e+00
    9.0886787249504248e+00 -2.0519783081235401e+00
    1.5359215112797411e+01 -4.6970120722380901e+00
    1.0687395138474223e+01 -3.0260550357177203e+00
    7.6022540521395126e+00 -1.5583758337155289e+00
    1.2157499868009767e+01 -3.4436436939742308e+00
    1.0109822326090516e+01 -2.9755931387977466e+00
    7.7122239735662363e+00 -1.6543273878605160e+00
    1.2282628663841130e+01 -3.5564800331443198e+00
    9.8234358383943885e+00 -2.7449960182808653e+00
    7.9647990964670914e+00 -1.7491334660627451e+00
    1.2452743120167375e+01 -3.6622102914164114e+00
    1.3547726131330931e+01 -4.1778350420047126e+00
    7.9907890557498220e+00 -1.7983607333606606e+00
    1.2618365527402990e+01 -3.8470266733726168e+00
    1.2448627637378179e+01 -3.7207591878570709e+00
    9.1982781414573065e+00 -1.6783881675960173e+00
    1.5010159754112282e+01 -4.4374126709413568e+00
    1.3724058006215934e+01 -4.0789501583297030e+00
    8.1632565402261559e+00 -1.9955507825220240e+00
    1.4889904898315518e+01 -4.5408303292080454e+00
    1.5696629266951959e+01 -4.9336893982988608e+00
    9.4138098562632546e+00 -1.7336087569155934e+00
    1.2025441777322088e+01 -3.5026200235891545e+00
    1.3700837417664989e+01 -4.2048074348216327e+00
    8.4061205667571546e+00 -2.1097299935156077e+00
    1.1659427481392003e+01 -3.1753507607438900e+00
    1.1534677274654904e+01 -4.1626624495065085e+00
    7.7804230790603954e+00 -1.7829690507271281e+00
    1.0532035431365872e+01 -3.6895025316576717e+00
    9.0156353201681316e+00 -3.0577416373562816e+00
    7.2924210400189668e+00 -1.5053991250262473e+00
    1.2440062466780278e+01 -4.5960594333010176e+00
    8.3666403432918290e+00 -2.0539378229184959e+00
    1.0609456436263967e+01 -8.5600840189960659e-01
    7.9463562778777765e+00 -1.8603107459874393e+00
    7.2399727446165034e+00 -1.6193621274642807e+00
    1.3897793556125590e+01 -8.4970756450939133e-01
    7.9422839335779445e+00 -1.8289219052791450e+00
    7.9181270733929248e+00 -2.6107796427217886e+00
    7.5586920163471163e+00 -1.5589685021638700e+00
    1.1210573015315976e+01 -4.1072567609612483e+00
    1.2662404262946934e+01 -4.7423237653691617e+00
    8.2275932826036531e+00 -1.5507393131715876e+00
    1.0626278761611694e+01 -3.8029493897067694e+00
    7.3739799845271259e+00 -1.6102044867712624e+00
    1.5363454865073079e+01 -8.8355373580550134e-01
    8.4829074553941393e+00 -1.9784281620644435e+00
    8.4016943402965953e+00 -2.1301825207612026e+00
    1.3311396583360064e+01 -7.9900174966568938e-01
    7.2058710963753363e+00 -1.8643463208662197e+00
    1.0291747413273962e+01 -3.8470772479146356e+00
    7.3524699271644378e+00 -1.1813471657290482e+00
    8.9890878183408471e+00 -3.1100706334188044e+00
    1.0576876127019704e+01 -3.8231441243660238e+00
    8.1501516937841227e+00 -1.8730851625846774e+00
    9.6622866046299354e+00 -3.3092265057453747e+00
    7.3705199431737762e+00 -1.8340783454167251e+00
    1.5050790693923904e+01 -7.3912490155195121e-01
    7.4009056841553429e+00 -1.7502710986413459e+00
    7.7265655885299802e+00 -1.9767474532440639e+00
    9.3888055488429245e+00 -8.1305128302189067e-01
    7.3633477989085980e+00 -1.7127830009606106e+00</input_scale>
  <output_scale>
    5.2631578947368418e-01 4.9999999999999994e-01 5.2631578947368418e-01
    4.9999999999999994e-01 5.2631578947368418e-01 4.9999999999999994e-01
    5.2631578947368418e-01 4.9999999999999994e-01 5.2631578947368418e-01
    4.9999999999999994e-01 5.2631578947368418e-01 4.9999999999999994e-01
    5.2631578947368418e-01 4.9999999999999994e-01 5.2631578947368418e-01
    4.9999999999999994e-01 5.2631578947368418e-01 4.9999999999999994e-01
    5.2631578947368418e-01 4.9999999999999994e-01 5.2631578947368418e-01
    4.9999999999999994e-01 5.2631578947368418e-01 4.9999999999999994e-01
    5.2631578947368418e-01 4.9999999999999994e-01 5.2631578947368418e-01
    4.9999999999999994e-01 5.2631578947368418e-01 4.9999999999999994e-01
    5.2631578947368418e-01 4.9999999999999994e-01 5.2631578947368418e-01
    4.9999999999999994e-01 5.2631578947368418e-01 4.9999999999999994e-01
    5.2631578947368418e-01 4.9999999999999994e-01 5.2631578947368418e-01
    4.9999999999999994e-01 5.2631578947368418e-01 4.9999999999999994e-01
    5.2631578947368418e-01 4.9999999999999994e-01 5.2631578947368418e-01
    4.9999999999999994e-01 5.2631578947368418e-01 4.9999999999999994e-01
    5.2631578947368418e-01 4.9999999999999994e-01 5.2631578947368418e-01
    4.9999999999999994e-01 5.2631578947368418e-01 4.9999999999999994e-01
    5.2631578947368418e-01 4.9999999999999994e-01 5.2631578947368418e-01
    4.9999999999999994e-01 5.2631578947368418e-01 4.9999999999999994e-01
    5.2631578947368418e-01 4.9999999999999994e-01 5.2631578947368418e-01
    4.9999999999999994e-01 5.2631578947368418e-01 4.9999999999999994e-01
    5.2631578947368418e-01 4.9999999999999994e-01</output_scale>
  <inv_output_scale>
    1.8999999999999999e+00 -9.4999999999999996e-01
    1.8999999999999999e+00 -9.4999999999999996e-01
    1.8999999999999999e+00 -9.4999999999999996e-01
    1.8999999999999999e+00 -9.4999999999999996e-01
    1.8999999999999999e+00 -9.4999999999999996e-01
    1.8999999999999999e+00 -9.4999999999999996e-01
    1.8999999999999999e+00 -9.4999999999999996e-01
    1.8999999999999999e+00 -9.4999999999999996e-01
    1.8999999999999999e+00 -9.4999999999999996e-01
    1.8999999999999999e+00 -9.4999999999999996e-01
    1.8999999999999999e+00 -9.4999999999999996e-01
    1.8999999999999999e+00 -9.4999999999999996e-01
    1.8999999999999999e+00 -9.4999999999999996e-01
    1.8999999999999999e+00 -9.4999999999999996e-01
    1.8999999999999999e+00 -9.4999999999999996e-01
    1.8999999999999999e+00 -9.4999999999999996e-01
    1.8999999999999999e+00 -9.4999999999999996e-01
    1.8999999999999999e+00 -9.4999999999999996e-01
    1.8999999999999999e+00 -9.4999999999999996e-01
    1.8999999999999999e+00 -9.4999999999999996e-01
    1.8999999999999999e+00 -9.4999999999999996e-01
    1.8999999999999999e+00 -9.4999999999999996e-01
    1.8999999999999999e+00 -9.4999999999999996e-01
    1.8999999999999999e+00 -9.4999999999999996e-01
    1.8999999999999999e+00 -9.4999999999999996e-01
    1.8999999999999999e+00 -9.4999999999999996e-01
    1.8999999999999999e+00 -9.4999999999999996e-01
    1.8999999999999999e+00 -9.4999999999999996e-01
    1.8999999999999999e+00 -9.4999999999999996e-01
    1.8999999999999999e+00 -9.4999999999999996e-01
    1.8999999999999999e+00 -9.4999999999999996e-01
    1.8999999999999999e+00 -9.4999999999999996e-01
    1.8999999999999999e+00 -9.4999999999999996e-01
    1.8999999999999999e+00 -9.4999999999999996e-01</inv_output_scale>
  <weights>
    <_>
      1.1428932094441822e-01 1.1154438528119510e+00
      -1.6091697709547320e-03 1.5809893680197671e+00
      6.2884977071962245e-01 1.2440119208085616e+00
      -5.5015552442405569e-01 5.6824134965744108e-02
      -1.7533339481812089e+00 -5.3453875821786145e-01
      -1.2128954465528838e+00 6.8761269879267883e-01
      6.1308291782615132e-01 3.3135109698977799e-01
      -5.7137410092480279e-01 -1.1248017686204251e-01
      4.3506967913172456e-01 9.5294910690064305e-01
      -7.8532547240323813e-01 1.4682403495392018e+00
      9.7353498415788875e-01 -2.6625019872447558e-01
      5.0734198873194782e-02 -2.2366419516337718e-01
      1.8507107840854893e+00 -1.0559027066246880e+00
      4.9428032933236438e-01 3.8205118409234706e-01
      1.0074208040866133e+00 1.4917985034196664e+00
      9.0605544390301396e-01 8.6196727542455651e-02
      2.4142064172807509e-02 7.1645291635206376e-01
      1.2473394311724333e+00 8.5132866979145905e-01
      -6.0378465686485305e-01 -1.1048723405645480e+00
      4.4758761055187346e-01 -5.3415773017082346e-01
      1.0678653049269549e+00 -2.1538576696347106e-01
      -7.2615094819550488e-02 1.7473556021781751e+00
      3.7039131768642481e+00 -2.5609079819569402e-01
      -3.0649243786108121e-01 1.2480904351415112e+00
      -1.2807543242118602e-01 4.0809819640026383e-02
      -6.9142561494930155e-01 6.4229119014577940e-01
      -9.9672708424777812e-01 -1.4152763416290768e+00
      3.2890182204957874e-01 -4.9321795472906563e-02
      -2.3842091717048222e+00 5.9830921664668202e-01
      4.4559970120352871e-01 -6.8975883339778032e-01
      9.4005261014178956e-02 4.1628613517609803e-01
      -5.4677678472971813e-01 8.4409964804045312e-01
      -4.6688098891058427e-01 7.7720949781228496e-02
      -4.2482546078671474e-01 -4.7191850976433053e-01
      4.1749578338923753e-02 1.5748492140785526e+00
      4.4052527235215017e-01 7.4132400701669299e-01
      -4.4025551641164923e-01 -1.8890773685421403e+00
      -3.6915499260407952e-01 -6.7347651997479996e-01
      -1.6252337779783033e+00 4.0782711397431437e-01
      -1.0696176047393367e-01 -1.1504412842547465e+00
      8.3854138262543482e-02 -2.9685765757235949e-01
      -2.3976831617405372e-01 5.9658524782126066e-01
      5.0770937916399361e-01 7.5965944410709318e-01
      -1.1779514322205493e+00 3.1414811334038411e+00
      6.5314509180766611e-01 1.2973297020561643e+00
      -5.5794652303333570e-01 2.0669438373489368e-01
      1.4124650452464653e+00 1.6883046923784766e+00
      -6.0218330950768895e-01 1.2891337496718607e+00
      -1.2000594045734567e+00 -4.6481432113502589e-03
      -9.1343116782203915e-01 8.7628490083559707e-01
      1.0532065170473810e+00 -3.9033320447085917e-01
      2.4955355481368726e+00 -3.1098410653246122e-01
      1.8953120576748229e-02 -1.0768598169659498e+00
      -7.3299008338558358e-01 -1.0302233800469273e-02
      -7.7683297385521333e-01 -7.8917630502698910e-01
      1.4305535398525357e-01 -6.6758353888959832e-01
      3.6515564975839978e+00 -4.3809624911509817e-02
      1.8852897679813069e-01 1.4655706462605032e+00
      1.1507516357964832e-01 -5.3815628412470895e-01
      2.0721697752737505e-02 -2.0167834503467513e-01
      -2.9229659301890076e-01 -1.5708592637751131e+00
      -3.7790517904236998e-01 -5.0272374126163066e-01
      -3.6913200495694740e+00 -1.3225182261218129e+00
      -1.7038919192597715e-03 -1.2711258696173761e-01
      2.5041408254970898e-01 -7.4936014728843869e-01
      4.6980730868316295e-01 1.4880927742029229e+00
      -5.4227011548859047e-02 1.5867641260687187e-01
      2.3613916026728116e-01 3.0998014928545164e-01
      -3.7357739075604646e-01 1.0662861671538388e+00
      -2.7975616979319919e-02 -9.5825364021965020e-01
      -1.2941815895862980e+00 1.7199940670619331e+00
      1.2160402716021725e+00 -5.9198527727525019e-01
      4.1378692435547535e+00 -4.9198597513679293e-01
      2.5349022812368799e-01 2.9874635869568411e-01
      1.8965074888756281e+00 -9.7696569626043572e-01
      4.3854678911316024e-02 1.0407347196479266e+00
      4.5577234670775790e-01 1.0078583276965467e+00
      -2.0727264407053458e+00 -2.8152347629842991e+00
      7.8343669900218377e-02 1.8269729071071975e-01
      1.1716410969912501e+00 1.1866079166685763e+00
      -3.8344513469791253e-01 -5.3098076066786759e-01
      2.3973222849355619e-01 4.9831267309768884e-01
      1.5049786323169914e-01 1.2731503833740812e+00
      3.2313620788979652e-01 5.0644941669333132e-01
      -8.6098268566105851e-01 1.4882415101120356e+00
      -3.4940696785572949e+00 2.2306411204176965e-01
      -5.5309941102007487e-01 -6.5868032493871176e-01
      -3.9663471928883953e-01 -2.8281012939279271e-01
      -2.3716688439079028e+00 4.5481678425481520e-01
      -1.0210663614432642e+00 5.9070364311569534e-01
      -9.9091366187962802e+00 -4.5628970751095976e-01
      -2.1242111942878317e-01 -1.1435174324020579e-01
      -3.5433793978894707e-01 -1.1658995672868766e-02
      -1.2231208346865974e+00 -4.3456580309774090e-01
      -1.3322498587771807e+00 1.9965488732195424e+00
      7.3946973053963660e-01 -5.8788375761129585e-01
      3.8187830859243621e+00 4.9485085867870669e-02
      -4.1309385611558913e-01 -5.2135739490483141e-02
      1.1255120749441425e+00 -1.7442322018626338e-01
      1.3723239827806542e+00 1.6217850531038547e+00
      7.1859087103300967e-01 1.2732551227632322e-01
      1.2871993123223335e+00 -1.1353454268881286e-01
      6.7510232385557645e-01 -4.3263124228001865e-01
      -2.2875178792829853e-01 4.3169760389100864e-01
      9.7373941346929982e-01 3.7018964913535707e-01
      -1.2956252484077189e+00 4.7249116958741016e-01
      9.2556233003665656e-01 3.5776510089273145e-01
      1.5475117340549002e-01 9.2285657577725122e-01
      -8.0384663788507260e-01 -1.2720494870878607e+00
      -3.4509741708863069e-02 -1.3091289700960265e+00
      -5.6195768187563255e-01 -1.5746592933654580e+00
      8.3765126267679191e-01 -2.4546995405775713e+00
      2.9125986305613294e-01 -3.4845351909006783e-02
      -8.5139129899130728e-01 -3.3726020252725536e-01
      1.5626763680129578e+00 5.2917774882420943e-01
      6.3591205983017685e-01 6.9161092241010291e-01
      1.3793292364156691e-02 -3.5665572386158240e-01
      4.3028025299746658e-01 3.7021410144795153e-01
      -6.1059884356149430e-01 -6.5336266550850275e-01
      -6.3041736326926623e-01 1.2757307988397432e-01
      -2.4377765926263816e-03 -5.7315339490059858e-01
      -3.1306542803419074e-01 3.9954652653814665e-01
      -2.4336326555486915e-02 4.2369250606012299e-01
      7.9977474100370238e-01 -1.0964999712159169e+00
      1.6883625606640869e+00 1.3459038482250267e+00
      -1.6309650947820864e-01 -7.8496837594945010e-02
      -7.7395936397123311e-01 7.4642869795157374e-01
      6.5932314030854000e-01 -1.8069193673822798e-01
      1.7484788328119530e-01 3.9045400859475365e-01
      2.7610447219728229e-01 -3.6032231009365839e-01
      7.1670287253047005e-01 -5.6360491358842157e-01
      -1.6505138319380405e-01 -1.6971462557121292e-01
      1.5052667545074033e-01 -1.0320873656645531e-01
      -5.0082455846328222e-01 4.1024825279076682e-01
      -3.4140822132171927e-01 3.5851472402363210e-01
      5.9216850319763169e-02 7.1191498491150440e-01
      6.4395190977750283e-01 9.4768048530459226e-02
      -4.1665260515384883e-02 -8.0008766961618648e-03
      7.4834443551213770e-01 -9.7483740470617986e-01
      7.2733005442724014e-02 7.4961702067842051e-01
      8.5274060565707221e-01 -3.1190610070770347e-01
      -7.5776477171388856e-02 -5.0610879480522819e-01
      1.4035224308193944e-01 -1.2954172699428426e+00
      1.4085317260843042e+00 1.0023800682840434e+00
      -7.3593374033674175e-01 -8.3945622395557395e-01
      4.3763696963100834e-01 -1.1250716678370170e+00
      -1.3636264370476086e+00 -4.7806358325713122e-01
      -4.1775371783681020e-01 -6.6482326581814322e-01
      -3.7148850402989103e-01 -2.4639373251240521e-01
      2.0215515631005831e-01 -2.0999008360921706e-01
      2.9740022185651205e-01 1.4556657262082370e-02
      4.0670665471648965e-01 4.5782214540815452e-01
      4.5954399681263573e-02 9.4436395679616730e-02
      -1.8459916745087508e+00 -1.3440535983745980e-01
      -2.4931582663955879e-01 6.8938367886340640e-02
      8.3774357320615403e-02 4.3554442467190824e-01
      2.1545458408341861e-01 4.7262314872393146e-01
      9.0454949120151673e-01 1.6640702716507536e-01
      -2.7326255270779991e+00 -2.9954315319833880e-01
      1.6071635087534693e-03 -2.0555167959581919e-01
      -2.4461139668455376e-01 4.9559547578920676e-01
      5.1739752044534826e-01 8.2999879440633040e-01
      5.6312890841228902e-01 1.6872789827040853e+00
      -4.3552701288222945e-02 -1.3263145111209987e-01
      -5.9153869178520491e-01 -2.9280421210324387e-01
      -2.0518520211493080e-01 -3.9691030031433516e-01
      -6.1143634645099455e-02 4.1027594854254656e-01
      -1.6192537174415653e-01 -3.3134872709485799e-02
      -5.8426431767089149e-01 -5.1949102639987928e-02
      -5.9915774348862610e-02 4.4279428560193138e-02
      -9.3621895591333892e-01 -8.5613746931686685e-01
      2.0743599993902537e-01 -1.2111544094037392e+00
      1.0426421638791004e+00 2.9309130750791721e+00
      -1.1973426130446965e+00 -2.0990178633550219e-01
      -1.3015396212060106e+00 8.8187295099074692e-02
      4.9466803506445839e-01 1.0440150930332426e+00
      -4.8787140645133259e-01 -6.3778642642203098e-01
      -1.1194462321956735e+00 -3.4167908141159248e-01
      -1.5318496069204413e+00 2.8497260122195489e-01
      8.7898113010879553e-01 3.6369218705390803e-02
      6.3934825412925766e-01 -1.3608869859151893e+00
      1.8492264943554084e+00 -3.9113417363750663e-01
      -6.0051869988104711e-01 -9.6018094280010158e-01
      3.3354253377839749e-01 -8.4680140558608430e-01
      4.6651747373812541e-01 2.0009877846969744e+00
      6.8535628113329161e-01 6.6334598803545819e-01
      -1.1798862804427943e+00 1.3700482584906486e+00
      1.0806752958479411e+00 1.3339837378030626e+00
      -6.4423390880264719e-01 1.9225001803076591e+00
      3.5435099169247258e-01 3.1880117620361559e-01
      1.8177678965802337e+00 -4.9130360725166522e-01
      7.8569210748201157e-01 1.3859022365055649e+00
      3.1941583528912600e+00 5.6823256195160365e-01
      5.6506150000070976e-01 3.4562215698067467e-01
      -1.1318817305908393e+00 2.8791635333562327e-01
      2.1712234314903850e-01 -4.2773840668271457e-01
      5.2303849114423939e-01 -1.3696752731423772e-01
      -4.8283931355890111e-02 -5.5486109807428081e-02
      -6.1447677161925562e-01 7.3034404201638559e-01
      6.9493671845671423e-01 8.2947747689984697e-01
      2.9737767271817084e-01 1.1147528734310113e+00
      2.7497822335098554e-01 3.9790841357056089e-01
      1.5905662897258760e-01 1.4177118197852143e-01
      -2.2629637952007697e-01 -7.1883925624610701e-01
      1.2572051245197950e+00 -1.3245966840198644e+00
      -2.6852840617241108e-02 3.2555601705961834e-01
      2.8666560269532698e-01 1.4112419547592880e+00
      5.3099903711396779e-01 1.0054111956098050e-01
      -6.6029866872302834e-01 3.1634807023216599e-01
      -5.5137728973837485e-01 -7.0965806248908703e-01
      -2.3539111050661513e-01 -6.7532713894480023e-01
      1.0010600699747589e-01 -1.2242069550664818e+00
      -7.3528979840465947e-01 1.7773479257049687e+00
      5.7970419353579894e-01 -7.8764336158413473e-01
      4.7428325600616394e-01 -4.1975351104022435e-01
      1.6467823274363387e+00 -3.6127387798808019e-01
      -1.1144813807188028e+00 -8.0021077268399202e-02
      5.0231970241765200e-01 -9.6167581251621240e-02
      -1.8605266819068260e-02 3.0020562345670991e+00
      1.0851771654151958e+00 -8.9373982026251408e-01
      -8.0456707001223571e-01 -1.1060240725404018e+00
      -1.3442465479067023e+00 4.3843825859309760e-01
      -2.0263753974820886e-01 -8.2768584956124325e-02
      8.9064983260404440e-01 -1.6242061614832914e-01
      5.0111932895767952e-01 1.4390757875780846e+00
      -2.0428129760678138e-01 1.0640690048489190e+00
      1.2510556331951443e+00 1.0375435592611093e+00
      -4.4362554558806216e-01 -5.9832849047171832e-01
      -1.8302179631032389e-01 -2.8213340140904115e-02
      -2.1159087175956415e-01 2.2604252723845875e+00
      3.2953647872696806e-01 4.3170599892496059e-01
      1.0439982724834900e+00 -3.2972603670298117e-01
      9.8284436897433081e-01 2.4842783225109910e-01
      -4.4792248441761079e-01 -3.2596277989880013e-01
      -2.0945514966042844e-01 -1.4998615584133146e-01
      -7.1037638121106597e-02 5.7127691442915338e-02
      5.3670785879630249e-02 1.7619024453046764e-01
      -9.6026232293650218e-02 -1.0377590632017866e+00
      -7.1211439172404845e-01 6.8266336864853838e-01
      -7.6814421158708834e-01 -9.0622217281931883e-01
      2.4837563043037192e-01 1.4897476970031056e+00
      -7.1761379016481697e-01 -4.3646578909739803e-02
      -8.1471913486901471e-01 6.8447176570432075e-02
      -3.7845842391315293e-04 -1.5061943341517141e+00
      -8.0342365713282904e-02 -2.2603490686475569e-01
      1.5802300465011923e-01 -1.4615153662355115e-01
      -8.1728092334470703e-01 -7.3441593067053523e-01
      -4.8034438850821137e-01 -5.6316735540699825e-01
      1.5959294568221207e+00 2.4813101377949523e-02
      1.8705894426672370e-01 -2.5170290998097938e-01
      1.6684776991566799e+00 1.2549524875799616e+00
      3.8887311025050481e-01 5.9918763032546851e-01
      -9.5269154778597576e-01 -1.4552170227167831e+00
      5.3079655868664366e-01 7.5057664434963833e-01
      6.4911060439641577e-01 -7.8672937159071227e-02
      -4.5852775165747445e-01 -9.6229551522296308e-01
      4.0703653480256818e-01 -1.0171015270997088e+00
      9.0678388312619942e-02 2.9158054087686258e-01
      -8.1138165776817539e-02 6.7906544187380624e-01
      4.0936939741118633e-01 -5.5470067001053591e-01
      1.7244047286150046e+00 9.4935237987033572e-02
      -7.5385687112737065e-01 2.6818147712011225e-02
      -3.1099296317736574e-01 2.8642859985343616e-01
      -1.4710325910302460e-02 -1.6993724535483445e-01
      -1.4614772659001150e+00 -5.5237496733608227e-01
      -5.3778282565207292e-01 -1.9725113194322748e-02
      -1.6178729740696391e+00 -1.0109355202712527e+00
      -1.2653023614602785e+00 3.2922437482439126e-01
      6.5802976528015433e-01 -3.4486567851022060e-01
      2.0963665193166234e-01 1.1797853608315627e+00
      1.4662249521172493e-01 2.0221055166445470e-01
      -9.6390245535712238e-01 1.5406660337453293e-01
      3.3082409376276328e-01 3.3812654229629424e-01
      -3.4048468429355983e-01 3.7240110019372946e-01
      -8.9857051093842433e-01 1.3425529441125414e+00
      -2.0874073133615463e+00 -1.6668259868987423e+00
      -3.5177373749555152e-01 -2.4957044402741449e-03
      2.4049780974036001e-02 -2.8462375771706233e-01
      -9.2118931709693139e-02 -1.4263417365888227e+00
      -4.5450917473826530e-01 1.0614825588833445e+00
      -1.0677028015972558e+00 -4.7439961682448334e-01
      -1.2521486784607621e+00 3.2191492651500755e+00
      8.6026466926566747e-01 -5.9831601481414676e-01
      1.8889193532240253e-01 4.5979130069718582e-01
      8.4200572999549556e-02 8.4042009899140691e-01
      6.2330163427426782e-02 1.4722422340210595e-01
      1.4341491677963644e-01 7.7779175560769676e-01
      -7.6818333984092968e-01 1.2790159456052337e+00
      1.2701655174923140e-01 6.5173094004782384e-01
      7.2019323328025997e-01 4.7817257046218982e-02
      -3.9696748815126154e-01 -2.0811617306512817e-01
      3.8029339988960992e-01 -5.4503148233801979e-01
      3.5457364463563529e-01 -9.2341502563662456e-02
      1.2313369792037747e+00 1.1101405616420668e+00
      4.5379486428336197e-01 -1.9624039725808723e-01
      1.5974405630435787e-01 1.0863636684069897e+00
      -2.0974372866169358e-01 2.4180476183781049e-01
      -5.6297440626518447e-01 -1.4084049165162410e-01
      -7.6393646913578428e-01 8.9063940554156651e-01
      3.7336952529554113e-01 -3.1784439875648701e-03
      -1.1694661544623156e-01 -1.2788169775952352e-01
      6.8554406668369672e-01 -1.0893649255869735e-01
      -8.8441265239621425e-02 5.0064150090342097e-01
      1.2608355453081349e-01 -2.0695180053416362e-01
      -1.4474616399816500e+00 3.1244827552640625e-01
      2.6304775451860901e-01 4.8414369919140460e-01
      1.0781188933569248e+00 -5.8415625620856959e-01
      -7.4487162973641685e-01 2.7193089567860990e-01
      1.2217598965214438e+00 1.3394987142183992e+00
      -1.0379706435364797e+00 -1.0453808626074228e+00
      -5.3935443085445645e-01 8.2344427913396745e-01
      -8.6130492380337209e-01 -2.9673047506717991e-02
      -3.4466615116739208e-01 -6.6320250705815542e-02
      2.4192942732639630e-01 -1.1236829928777652e+00
      -6.6306322647712823e-01 2.0940992767337039e+00
      -4.6102079651256389e-01 -1.3252554405434198e+00
      7.7441352398613439e-01 -4.7041696430828489e-01
      1.2026539899134936e+00 -2.5124017565789930e-01
      -2.4005044653707813e-01 9.9172287587227848e-02
      6.2346286067732970e-01 4.8175118353867197e-01
      -2.8482447770149455e-01 5.4998632252587243e-01
      4.5056498934139606e-02 -2.0283595174772301e-01
      -6.3469118659037371e-01 -1.1661416317556161e+00
      -1.8464338339918027e-01 1.0956240405173290e+00
      -1.5829647891219356e+00 -4.5142587839405218e-01
      3.7960143933645596e-01 -5.9403645225402701e-02
      1.1300412388070133e+00 2.7616363923327264e-01
      7.5620826594493218e-01 2.9744856591850827e-01
      1.3089476654530448e+00 1.3497614709659154e+00
      -4.9936471827900891e-01 7.3256993662828374e-01
      -1.7055754386511776e-01 7.7192075531487825e-02
      -7.3342161893990365e-01 -3.5928851088060175e-02
      1.6172981400225581e-01 3.9582977765810917e-01
      1.4084789213635944e+00 -1.7726136454997801e-01
      5.5854053495828193e-01 -8.1232235157918414e-02
      -2.0315958613513332e-01 -1.6758943475309924e+00
      -4.5105984101899060e-01 3.6447908630916065e-01
      5.3039540726508783e-01 -1.3336448420078417e-01
      5.0321149930535547e-01 4.8708525562844018e-01
      -5.9541397950506214e-01 -6.9144397761088272e-01
      9.4861322875821641e-01 -5.5948851333136529e-01
      -4.8800697024754219e-01 -1.7171803758491624e-01
      6.5171786943813204e-01 -2.8457348861625903e-01
      8.7936880900555195e-02 -1.1892583190346792e-02
      -3.4202823553723910e-01 8.0492054739899188e-01
      -2.4540475925407865e-01 -7.4762525947874836e-01
      4.5125470379604365e-01 1.1597628853202551e+00
      2.3950880419648091e-02 -6.4978226757977164e-01
      1.1374735649845971e-01 4.3132453931360437e-01
      3.5880541015601886e-01 9.5532552355234734e-01
      4.4868901597523481e-01 2.5329330070255668e-01
      1.1050246794821676e+00 2.1567740887238904e-01
      -2.2771054930543325e-01 2.9954555420741530e-01
      6.3056676749629292e-01 2.8285380306439573e-01
      -6.7873357134595094e-02 4.1548444139158841e-01
      -1.0290106293806278e+00 -3.8972958060690138e-01
      -2.0812020694971711e-01 -4.4685408695815632e-01
      -2.7036942494619365e-01 3.7378245537171517e-01
      5.6363716718807866e-01 -4.0262944599612477e-01
      -1.2832745646101362e-01 -1.7373213336683002e-01
      -3.9340929280243314e-01 -1.9257405952287984e-01
      -7.4549272359344901e-02 1.6279100099661314e-01
      -6.0849091652952991e-01 -6.1049793933926866e-01
      2.3972528154341902e-01 -4.5500658555289503e-01
      1.8051069584142776e-01 -2.2114442705972748e-01
      -2.1453143029257157e-01 -4.0453813933171207e-01
      4.8981252062903446e-01 -1.4915179537039309e+00
      7.7811556864277887e-01 7.5957282641257784e-01
      -9.7330633962997004e-01 -9.4639528093785252e-01
      -2.6920721626197502e-01 -2.5029359527016298e-01
      -4.7810713698711538e-01 -3.9926269489818023e-01
      2.3999277097966922e-02 6.5035715545340420e-02
      3.5697777216556026e-01 3.2914554683950498e-01
      1.1858605804531000e-01 -1.0059610385457915e-01
      -5.0295629020686194e-01 -1.0816271039259489e+00
      -4.9669869764343916e-01 5.2793843334320456e-01
      2.2279024802297687e+00 2.9055911013509657e+00
      4.4879545309458278e-02 5.6951205025169127e-01
      -8.8650562179592407e-01 4.7936929451964078e-01
      -9.1335573536230064e-01 -6.7483752958818399e-01
      -1.1316134095253789e+00 9.1692434399434655e-02
      -7.9463102457883156e-02 -8.1803346049005565e-01
      -1.8583556099664802e-01 1.2664758620935084e+00
      1.3094226947919163e+00 -1.7612562240263248e+00
      -7.6771168782512855e-01 -1.8510472313994925e-01
      1.8966782476346240e+00 6.7472843291107110e-03
      -2.1771894802788054e+00 -5.2995522763003311e-01
      3.4157041025775609e-01 -3.0515106212624438e-01
      -1.2783702428223956e-01 3.9574886559742956e-01
      1.3247980590828845e+00 -9.9885527237577196e-02
      -2.5480795634113735e+00 -1.3266270710538342e-02
      -3.2369656661830443e-01 2.5520349910810549e+00
      2.3368921751728869e-01 1.7099113768780447e+00
      8.3389898034675636e-01 -4.3666320726144631e-01
      8.5127925643969105e-01 9.2720671207625216e-01
      4.3928898028954694e-01 1.0563749157541360e+00
      1.5237982886286994e+00 1.5157764717263413e+00
      -6.5859599461350804e-01 -5.3232445819923653e-02
      1.8751085321195765e-01 5.7042239954582574e-01
      -6.2200233971582475e-01 1.8770562111063709e+00
      2.0629506487852259e-01 4.0825547769789604e-02
      8.8896114487479683e-01 -4.5033696413684321e-02
      6.9087738739599958e-01 -2.5929525352935012e-01
      -2.4348794576203415e-02 -4.0813390150157242e-01
      9.8460005737375261e-02 -6.6431567332386365e-01
      7.1322170826163253e-02 2.0142921757459842e-01
      4.7987882931482340e-01 5.1277666886656392e-01
      -5.1775071967036984e-02 -1.4041000126149744e-01
      8.0935833841293725e-01 -6.3717410395589735e-01
      1.4089979671912972e-01 1.2917558358228693e+00
      8.6469956487485578e-01 2.1961388639002039e-01
      -4.4772342827256001e-01 5.0121207459451500e-01
      1.3518874902369906e+00 2.6742366398791913e-02
      1.1445273400615519e+00 -5.5991414336502310e-01
      1.9345621219257977e-01 -4.2271495689179844e-01
      4.1376575291919966e-02 -9.2317838730486645e-01
      -1.6537124450121060e-01 -4.1122563521351063e-01
      1.8696733354448387e+00 -2.6141215917248055e+00
      -1.4257531210980759e-01 8.8588873208346824e-02
      -7.6067124345221038e-01 1.0896456723671994e+00
      -5.8975160729471940e-02 7.9360207298937835e-01
      2.1862286641759593e-01 1.4392240131235148e-01
      -1.5563988863072151e+00 -1.6694353548661875e-01
      -4.4713538387459381e-02 9.4465043232733803e-01
      -7.6203801012932337e-01 8.7181335334935189e-02
      -1.5582010167221094e+00 5.9305876136724123e-01
      -1.0743758281170069e-03 7.8332712470230451e-02
      -9.2667407016921735e-02 7.0681510097145017e-01
      3.5776960653074391e-01 8.7106022958956614e-02
      2.2583945121588292e-01 -1.3899396328388597e-01
      -9.0462008895475732e-01 8.6339185267371810e-01
      -5.0793088444109902e-01 5.5654865866879436e-03
      -2.3814482297215309e-01 4.1823778705466184e-02
      4.2797078462853544e-01 8.7067829305877797e-01
      2.6541032930731373e-01 -2.4436169542170769e-01
      9.4412827619534540e-02 -3.8595850406397253e-01
      1.7578767782824387e+00 -1.3740896642686251e-01
      -1.1242494730966075e+00 5.8584471912718294e-01
      3.2605272097715365e-01 -5.4503658351071649e-01
      1.6221895295175615e-01 6.7126235023457337e-01
      -4.0804153457989789e-01 2.4458414659958302e-01
      -4.0925712487424860e-02 5.5986899479529306e-01
      -6.6901975118159540e-01 -1.3330239187615298e+00
      -2.0071435308566798e-01 4.7267048350545809e-01
      1.1063544759886634e+00 1.5213565897519661e+00
      -3.5853095562123011e-01 -6.7457733074394244e-01
      -2.5494374791444896e+00 1.4973652356120737e-01
      -1.3204201617992763e+00 -6.3275775939294254e-01
      2.0664023325703190e-01 1.0390983342341225e+00
      -4.7123142851838656e-01 -8.5125845478480922e-01
      -5.5765360805946118e-01 2.2921867061689633e-01
      4.5611113693963556e-01 1.3566349455389068e+00
      -1.9489369759002856e-01 -7.2534621128396504e-01
      4.8306356043879090e-01 -7.3029712650450440e-02
      -2.3196509296616183e-01 1.3823394173365842e+00
      2.6800974592991356e-01 -2.7117335308324980e-01
      -8.0798332777697712e-01 -2.0579123845838784e-01
      2.8508981361173658e-01 -6.4474797459394073e-01
      -6.0772329895292143e-01 -3.3329298878056657e-01
      1.5578306915489384e+00 2.4014382010133006e-01
      6.3962420770306438e-01 2.4069299566588254e-01
      -7.3337528249922668e-01 -4.4864319506949923e-01
      6.9003791195804376e-01 -1.1771759517098825e-02
      -1.3751259523619030e-01 -4.9239490360250410e-01
      2.2482684043733561e+00 8.9599529906796715e-01
      3.9145989486204663e-01 -4.8498668809084122e-01
      3.6737520040654370e-01 -5.1879890380996219e-01
      -4.8678229452854882e-01 -2.3787076445766456e-01
      4.7873825588719632e-01 -6.2345354338558079e-01
      8.5314861156847679e-02 -9.8249471690316248e-01
      -1.0284850853770746e+00 2.3805910578327538e-01
      2.0238121024040712e-02 1.3199558042128995e-01
      -3.1755912060704350e-01 -3.1669934235514041e-01
      3.3290278519457123e-01 -1.5165270648623550e+00
      -1.0315828169971503e-01 -8.6066293268138583e-01
      -4.1638405877257256e-01 -9.1111851581004866e-01
      3.9605097486336532e-01 -2.1649332104254621e-01
      -3.1955284670765477e-01 -2.8569565918744932e-01
      1.5388079759516371e-01 1.8158585234851905e+00
      -4.1759721088460872e-01 -1.0182288568239508e+00
      5.8535528931956837e-01 -7.8934727579102759e-01
      4.1548671069408394e-01 3.9060782408459488e-01
      -6.4422090966604062e-01 1.3552360124992753e+00
      -3.8846291369784974e-01 -3.8216514279991620e-01
      -9.9256482306261018e-01 2.9637408074485383e+00
      9.1591923976678355e-02 -1.5017686190897312e+00
      7.9861340586430318e-01 1.4783157738187944e-01
      1.5866915611213659e+00 3.2779536973710049e-01
      -8.8407246263897077e-01 -3.5876446744216567e-01
      4.7394257003484280e-01 -8.8393001216262790e-01
      2.0160743323583466e-01 1.7732992792596873e+00
      -4.8643590919697782e-01 1.1363176658334655e-01
      -7.4024125611592528e-01 4.1650368768479762e-01
      1.5938616651218616e+00 9.8385198417334263e-01
      -1.5203677196860530e+00 -2.4922741795200702e-02
      3.7569951274404889e-01 -9.3247510938390632e-01
      1.8942706759256265e+00 3.8009612788510488e-01
      2.1289443628038274e-01 5.7275769083881645e-01
      8.6383698941997134e-01 1.1151760813407403e+00
      -5.5112827363705263e-01 8.0893743918363542e-02
      -4.8303524918235802e-01 4.8938435540724929e-03
      -2.1356718412961984e+00 2.2597245604330500e+00
      2.3888682665299463e-01 -6.8125135525644309e-01
      2.4403944620562640e-01 6.7553846958962119e-02
      5.6767629382108709e-01 1.2455330566873293e+00
      6.7649283980997033e-01 7.0470533377971289e-01
      -5.3108154574700080e-03 -8.0352818379708563e-02
      -3.6568759147935004e-01 -1.8624594278552911e+00
      9.1283803402568786e-01 1.9569949417200622e-01
      -4.2406050099012174e-02 -9.3746773111388082e-01
      2.2338953079247954e+00 9.4410193200294290e-01
      8.4571317629541121e-01 3.4263511274216157e-01
      1.5350303840568964e+00 -9.7407580489024570e-01
      -4.2235571838903019e-01 -9.9781387695363419e-02
      -2.6938526171577953e-01 1.0785573799748824e+00
      -2.0789362880647838e-01 1.2328149820148643e-01
      -5.4354894601151327e-01 -1.0918608304455641e+00
      -3.7491033894174147e-01 1.6372363845144072e-01
      -8.0147733332171978e-01 -2.8805617355146462e-01
      6.4083290881410770e-01 9.6859165424096128e-01
      6.8544713701360971e-01 -1.7948674490233826e-01
      -7.7201701830383274e-01 -2.5953453750458915e-02
      -4.9952362524908694e-01 1.8259002862143301e+00
      -4.0773340988366651e-02 -6.5476425386321890e-01
      -8.5347897119483374e-01 3.0358326782243683e-01
      -9.2904778645432362e-01 -2.6191266816496916e-01
      -3.1327978578778515e-01 8.1236483615799071e-01
      -1.2906801048082142e+00 -3.2211960248006688e-01
      -2.0201594336178638e-01 -4.5406454106515931e-01
      3.1869683410567784e-01 6.9567070665236919e-01
      6.6844146068466970e-01 6.4392160351022965e-02
      1.3124951060084333e+00 1.6448440836205898e+00
      1.1167260757718176e+00 6.7746918989512883e-01
      6.1495413843219837e-01 1.2479171408138041e-01
      -4.3896164968547874e-01 -2.9089409056485688e-01
      1.7158321522163440e+00 -5.1147384120446138e-01
      9.9933553353165172e-01 5.5427781334036286e-01
      6.4657218326128607e-01 -1.1520768093724663e-01
      8.0730265286567704e-01 2.0812197317041303e-01
      -4.3821567159412317e-01 2.2418463105529018e-01
      -4.8808122307819612e-01 1.2637549234044440e-01
      -8.2042811899554635e-01 2.3748096463943627e-01
      -6.6640098221617250e-01 -1.1909036828463901e+00
      -1.6366535576516458e-01 -3.6871574961067977e-01
      -1.3180880556725338e+00 5.6365708811098658e-01
      -6.7301571614137368e-01 4.3270823412291215e-01
      -8.2535166278228245e-01 1.4153730755010254e+00
      -2.4694599596514372e-01 -9.4857041215208893e-01
      7.6182809705214027e-01 6.4225513633286402e-01
      7.0700033001066281e-02 -2.1355762390957547e-01
      -1.4770603025721762e-01 3.4630266117903835e-01
      -7.2187404226695284e-01 3.8777894328860524e-01
      9.2855877816173493e-01 1.8023972926177423e-01
      -6.7948472153810924e-01 1.2913074271340039e+00
      -2.1233203840336176e-01 3.6976777899827756e-01
      -6.5252293894836897e-03 -5.6784387609453402e-01
      -1.3699959750000372e+00 -9.3302326292261473e-01
      -4.9325386025600104e-01 4.2133331165465820e-01
      1.1508315463516585e+00 8.5835779010406243e-01
      -6.0070786873827742e-01 -6.5344325501887246e-01
      -2.5740914378277868e-01 -2.3787156099216505e-01
      1.6696363552525746e+00 -1.4797864921093035e-01
      1.4576249126012308e-01 -6.0534669773638905e-01
      3.1911651569518007e-01 -8.5249482496677476e-01
      -8.0486315051081980e-01 -8.4472764410016232e-01
      2.5951997513691416e-01 -1.1442359022569202e+00
      7.3394875548737826e-01 -8.9948345801875301e-02
      -3.9582489133416970e-01 -5.2852038543468249e-01
      3.7544671831898419e-01 -6.1117877486636008e-01
      -1.3833466824668266e+00 -6.3161821217347625e-01
      -3.6336118101833309e-01 4.5887614684970884e-01
      -5.1280966047439935e-01 -2.7897654741080696e-01
      -8.6328292023243780e-01 1.4801524345170103e-01
      5.6423036676140359e-01 -5.0533202431615509e-01
      5.4046016365983685e-01 4.4217925255462726e-01
      -1.2160768961519049e-01 -1.4152530796813871e+00
      4.1664545852451795e-01 6.6268963146011117e-01
      -5.6273432108422872e-01 -3.2575900765223481e-01
      8.5443766576110725e-01 -3.8680500095340542e-01
      -8.6798463464872910e-01 2.5486499783267663e-01
      1.0227464449689225e+00 3.9870874392556693e-01
      -8.7546633895086501e-01 -2.2740131468885461e-01
      1.4061761601397214e+00 -3.9667369100584976e-01
      1.1568452664734397e+00 4.1176432725791329e-01
      -1.2635404966696709e-01 1.5076452220703676e-01
      2.3359888083975464e-01 -9.1506856011063820e-01
      6.3869492212967657e-02 -1.5421380612395116e-01
      -1.8400549593114945e-01 -1.7304906253986228e+00
      3.5763554489526878e-01 -1.2365576538556709e-01
      -6.9722750067466532e-01 -3.1303374297336234e-02
      6.8728038482352694e-01 -7.6572090220167477e-01
      -2.3675749477243932e-01 -4.1218071555396679e-01
      2.4740624477688250e-01 4.9226349684489978e-01
      6.7075066748257017e-01 -2.6122188274881081e-01
      -5.2267772175430005e-01 -4.7456023922605028e-01
      -1.8964362645656256e+00 9.6643923595859271e-02
      -7.3640811842385390e-01 -6.0669769388398531e-01
      6.3902064024830979e-02 -9.0127411937015411e-01
      1.2483968350317400e+00 4.9930294507796902e-01
      2.2457509836828465e-02 -5.4482407970302049e-01
      1.6228916409810799e-02 1.1355118515823683e+00
      -4.6030208313176024e-01 -2.9347896906598003e-01
      -1.5508639347030276e-01 5.5290743264587716e-01
      -8.3532404697000928e-01 4.4269644692236815e-01
      3.2216869230000872e-01 -1.5055790097411173e-01
      -3.4763678272848875e-01 1.2515817239978919e+00
      1.1960560311413460e+00 3.3650141926541942e-02
      1.7840118604368677e-01 9.9263703397000191e-01
      -3.9244455640843651e-01 2.6803597729986928e-01
      1.5048476472550117e-02 3.3407631659103215e-01
      -4.3160781775574497e-01 7.5071275208670496e-01
      4.6881693720782563e-01 4.0394965125747151e-01
      1.2002558483663395e+00 -1.7097856209515772e-01
      -2.0417602600933268e-01 3.8367534668148878e-01
      -5.9201859559336587e-02 -6.9684225964362001e-01
      -1.8724320316801923e-01 -8.7568683927144775e-01
      -1.0680886059347630e+00 6.3217956244075091e-01
      -3.3315389665391082e-01 3.0603773508891480e-01
      -4.2300591869833948e-01 -6.2643700986284057e-01
      -3.9471760566211345e-01 -1.7056545815265059e-01
      3.4554888082373253e-01 -3.2502969766888246e-01
      4.2855929750669963e-01 7.5053098800074070e-01
      2.1348435622222034e-01 -5.5797894056298314e-01
      1.2835639221741690e-01 -2.6991617822964264e-01
      -5.2369906642740638e-01 1.5005463778886963e-01
      6.7170062394535490e-02 2.0547556638101649e-01
      -5.1365824418077033e-01 5.1049105292199481e-01
      -6.8262067525182001e-03 4.3064187422700551e-01
      -4.7134984343412900e-01 -1.0734768784854523e+00
      -2.9992239731982573e-01 6.6945105542246430e-01
      9.0336353007471615e-02 -1.7481735494278144e-01
      1.5203572144734950e-02 1.6192650302745731e-01
      -4.1345149564520511e-01 2.8593662209189746e-01
      8.6935232372706361e-01 5.7634651164824757e-01
      -5.3360767347870697e-01 9.5517754518927411e-01
      4.8854861654839149e-01 -9.0990202518208885e-01
      -2.5475097971411625e-01 -3.4876167874780434e-01
      2.9559255300266229e-01 -6.9234319698954228e-01
      -7.5874390652694590e-01 2.1675892964686286e-01
      6.5260712428530054e-01 -3.4791224795314607e-01
      1.4057383485616134e-01 -4.0883112877709898e-01
      -6.2931207306632730e-01 -3.8499703336442398e-01
      -9.3241102038206014e-01 5.4227643266508765e-02
      -1.0351331848014436e-01 8.4876469524680387e-01
      -3.1966483429239634e-01 3.9094123084049431e-01
      -7.4204721791775119e-02 3.8918326591555180e-01
      4.8762709962683687e-01 1.2301732832759542e+00
      3.4217404705766219e-01 -1.7250559399338214e+00
      5.7501329124077338e-01 6.8221416979783256e-01
      -1.5137770768647213e-01 3.4414507348542478e-01
      1.5345103783130554e+00 8.0207108765943155e-02
      9.4617432168921067e-01 3.5526838383126919e-01
      2.3576784992542915e-01 -2.5501430315515966e-01
      3.0168170693513546e-01 -2.9348453698885996e-01
      8.5609849442832786e-01 4.9881272473144972e-01
      -7.5733577226363036e-01 -4.7653489426379125e-01
      -4.8362572221609418e-02 5.5428760257904952e-01
      1.1189853092309201e+00 -8.4991791381628246e-01
      -1.0337869666853865e+00 -1.0302809851690595e+00
      9.1407281085084202e-01 -8.7089073818622420e-01
      6.8029216446023255e-01 -2.1145047142636192e-01
      -1.1311986038256054e+00 -2.9152281710279872e-02
      8.2288615889244832e-01 6.0184961157397310e-01
      6.7306756847238192e-01 5.2122085079040514e-01
      -4.8317084797096554e-01 3.9864953340128167e-01
      2.6953610256174720e-01 -4.2840330370360241e-01
      -9.0251533657096161e-01 -5.2856638233839737e-01
      -5.9275594420626143e-01 -2.6133183055490988e-01
      1.9272660905882477e-01 8.5715776774414304e-02
      8.4615462286067911e-01 -6.0334244793331204e-01
      3.8653728784801444e-01 -1.8028897317094045e-01
      8.7511207138427735e-02 1.1028633775515744e+00
      -2.8629312010697616e-01 4.5354415413328258e-01
      2.8634552942517155e-01 1.0374883088582723e+00
      -1.0143413192505968e+00 4.0376724643172773e-01
      3.5416236493037956e-01 -3.1219508568353576e-02
      6.3720391148931321e-01 6.6593732900581404e-02
      2.9444964257675116e-01 3.9452567593308152e-01
      3.0830246386578414e-01 -1.1037498901741148e-01
      -7.3716984691318196e-02 3.1924326788223178e-01
      -9.7068403098033018e-01 4.1164881980518475e-01
      5.4262902057334439e-01 9.5310789955179709e-01
      9.1804676479968750e-01 1.3207351534554481e+00
      -1.6213086933134508e+00 -1.6486230966567916e+00
      1.5998157108992492e+00 7.6084051803707775e-01
      1.6200813301191246e+00 -7.0411880010576922e-01
      -1.4859791025376818e+00 -8.3624038379863397e-01
      -9.6025831068380751e-01 -1.5380818050644760e+00
      -1.9813118348532308e-02 -6.9195030203148900e-01
      8.0224457636278257e-01 5.3471585786458484e-02
      5.4401213864208453e-01 -2.9650484247404563e-01
      -7.1390426511825789e-01 5.0348468976961280e-01
      -2.1723223320547205e-01 8.4689885588448843e-01
      5.5868575533065556e-01 -1.1015383038135216e-03
      -7.4131232493096319e-02 -4.6040219691797812e-01
      -1.7532254625621249e+00 3.7039473826114638e-01
      -2.5328509002649180e-01 8.3994801736640301e-01
      9.5762533205443967e-01 9.0904420801707853e-01
      -1.0271630139529884e+00 -2.6006800600779389e-01
      -1.2463494355243090e-01 -5.7947338065817633e-01
      4.8353213372755754e-01 -8.9101427705623237e-01
      2.3036933011487628e+00 9.2454837093831066e-02
      1.5125724838134218e+00 7.1768514581293275e-01
      -3.8267949926070116e-01 8.0239244060513826e-01
      9.8233153579312127e-01 -1.9670199340758190e-01
      -8.1962178156085885e-01 -7.2452942322664415e-01
      9.3312901222488120e-01 1.4871975001686583e-01
      -9.1124840739586965e-01 -1.4336325419189913e+00
      8.0364061737499370e-01 -5.2843692391430430e-01
      -7.9086539174490475e-02 1.9164382325858759e-01
      1.2857229463121300e+00 1.6055742855220123e-01
      -7.0323835654010336e-01 -8.8032023502007872e-01
      -2.8599798807518617e-01 -8.2112377949305049e-01
      -1.8414612029685480e+00 -1.7614658427999816e-01
      1.8634081150268613e+00 -1.3037014860539693e+00
      1.6764530362423362e+00 6.2779937674530428e-01
      -1.0238985659175284e+00 2.9904569552697879e-01
      1.3144027315826918e+00 2.5620206169005595e+00
      -1.5533408971914133e+00 1.3002735013982603e+00
      -1.2468217151605230e+00 -5.5786044821439762e-01
      6.6960022501663741e-01 -1.6198688824057474e+00
      -8.0506928581897919e-01 1.4328673236742606e+00
      -1.8387382584976351e+00 -8.1484087055463661e-01
      5.7192744644295446e-01 9.5991966103618853e-01
      5.9247720940382798e-01 -9.8200309948877440e-01
      -1.9754016945754171e-01 1.1480044852319746e+00
      -9.1394653613420207e-01 -1.7296032083090399e-01
      1.8415843565442436e-01 3.1308022481970399e-01
      -6.7254339328407353e-01 1.0773435563728198e+00
      1.1376193451771046e+00 9.0122266172412202e-01
      -2.1461462572531680e+00 1.0442667272503545e+00
      -1.4098177099030853e+00 -5.1076996035115851e-01
      7.5734999032372718e-01 1.8669644954737536e+00
      -1.3172723240290176e+00 1.2521814929918262e+00
      -2.3920798109931127e-01 9.9192742454864841e-02
      5.4992951515767485e-01 2.3692828114067264e+00
      -1.5945644063850748e+00 -9.0747823048780918e-01
      6.9514876571094911e-02 -2.0831375857330575e-01
      -7.6356038788697775e-02 -6.5534622112819407e-01
      3.5567437431061955e-01 -9.2746652979911948e-01
      9.9097659523545778e-01 1.1276153638904793e+00
      1.2333260673135136e+00 -7.5522166261802096e-02
      4.2759078279339097e-01 -2.3544598298109104e-01
      -2.7898725047483480e-01 -6.1043173483614965e-01
      -4.2807182094608454e-01 6.0440421766543562e-01
      -5.4154848808002520e-01 2.1014958995493385e+00
      -1.6751797680111835e-01 -1.3435396981016419e+00
      -5.0046345960116578e-01 1.4800578391571115e+00
      1.5295076160144356e+00 -5.4860877773356909e-01
      -7.9666857773460575e-01 -1.2419823654699629e+00
      -6.0490080862535167e-01 -2.3941753555432874e+00
      1.3670913765731203e+00 4.2762112268481028e-01
      -1.0867344864067665e+00 8.4999057105333853e-01
      -4.0330372121495178e-01 8.0306424145587707e-01
      -1.6676304677652913e+00 -1.5869523090552111e+00
      -5.0611733258801507e-02 -6.9184312802852654e-01
      -8.7359574159593889e-01 -4.8244815619707332e-01
      -9.5780274222442299e-02 1.9068080930931242e+00
      -4.4652782305710820e-02 -4.7072640313486874e-01
      2.7382616212129918e-01 -1.0249928057769064e+00
      1.3561446300578650e+00 1.1065218189719754e+00
      9.7697402012582021e-02 -7.7431036534063691e-01
      1.1427831852927584e+00 -5.0878647778106501e-01
      5.3996085295373364e-01 -6.6565550948243390e-01
      8.2067186371353695e-01 1.7425782319255518e+00
      1.5493169224538728e+00 -5.8079121247437027e-01
      9.0354976093833017e-01 4.8368898797671978e-01
      4.1247228328316565e-01 -9.5296878868006207e-01
      -4.0315959221151271e-01 -5.6788028074063801e-01
      5.4846546410310903e-01 -2.2744386463418115e-01
      5.4081263913431232e-01 6.2391968234087503e-01
      -4.2689937681728624e-01 -1.0405829679014069e+00
      2.5628054093482489e-03 1.3112283310540627e+00
      -1.8933432950252665e-01 -6.8215708949708898e-01
      2.1234132067110514e-01 9.0205604218153768e-01
      -4.8090318724910847e-01 1.6512840012859675e-01
      -1.1529811477248415e+00 5.1884389807370639e-02
      8.3408314121182114e-01 -1.1206581539068732e-01
      -8.9891405620036746e-01 2.2929635498979201e-01
      1.6963367292965728e-01 -1.7786483591320179e-02
      -2.1333953781392750e-01 8.4905142974182446e-01
      -9.7670757358654547e-01 -2.5926058984136269e-01
      -1.1875900010476041e+00 -5.3475444317818210e-01
      -9.3755279955475179e-01 -1.3483928542165440e+00
      1.3903212710888371e+00 5.4680073652407535e-01
      3.4290826159457566e-01 -6.9857878727547784e-01
      2.7030822671098692e-01 5.2434919456671580e-01
      5.0549053746865813e-01 5.5030220583942235e-01
      -1.1883254508891921e+00 3.2015938865981219e-01
      2.6746133676074924e-01 -4.3621432342852395e-01
      3.6288665167774137e-01 4.8791510009310002e-01
      -5.4320527493395443e-01 -1.0208751035241451e-01
      1.3381752702540711e-01 2.0055142956235780e-02
      7.1809746156396626e-01 -1.6147919787714438e+00
      4.5985663449505948e-01 -3.6878338828709512e-01
      6.1485132100895712e-01 -7.7893115410843439e-01
      -2.0367954623466927e-01 -7.2045159601295627e-01
      -8.2757740090975185e-01 -4.3651160251442656e-01
      8.5666741871764263e-01 -6.4769342125358764e-01
      8.0363803481121293e-02 -1.9082199378758652e-01
      -2.4485250397066750e-03 -4.7857045253566696e-02
      9.3525171084959613e-01 -1.6059090825031481e+00
      1.9671028921402572e-01 5.8081731613162359e-02
      -1.0742893901353836e+00 -7.9370266730053063e-01
      1.7324439453064251e+00 1.2289058954923607e-01
      7.8364775770247708e-01 2.9675419992601374e-02
      1.4632063041501403e-01 1.6249024130286296e-01
      -4.2282980650655239e-01 -2.9210078134178752e-01
      -8.5274463016459390e-01 -8.7815966766510722e-01
      -6.7716365278356216e-01 4.6837882071796338e-01
      -7.3419406064662085e-01 2.5520559366180384e-01
      3.7075281581674685e-01 4.2090391541036122e-03
      9.2077150874044010e-04 -5.8552892595980743e-01
      4.5083684970818727e-01 -5.7521615589707165e-01
      -4.8860046013910924e-01 -3.0268540227660040e-01
      1.5303791564910324e-02 3.5642202069800122e-01
      8.2222970390769423e-01 -1.2069602438802902e-01
      3.5389472448182202e-01 4.8084515666468436e-01
      3.9636916420736307e-01 -6.3945698042952237e-01
      4.9657732833488244e-01 3.7718412742401347e-01
      -2.4290547375841696e+00 3.5648495867852059e-01
      -1.3804009689593570e+00 -6.7122121197429530e-01
      -3.4844270115475795e-01 -5.3553632604061197e-01
      -6.7348255989426864e-01 2.3050448144827140e-01
      -8.9672411506121152e-01 2.9423115577895909e-01
      7.1955065089535786e-01 2.4944936551798089e+00
      1.2895284339808761e+00 -4.4436634249624185e-01
      -6.0557069647283113e-01 7.0998867956144418e-01
      -1.1689749340150866e+00 1.3934918770889018e+00
      -1.5010345104284062e-01 4.8742267568701841e-01
      -5.3459127551262198e-01 -5.1587624404471299e-01
      -4.8239268279658082e-01 3.1942642052703790e-01
      -2.8008854400145206e-01 -4.2133922781851052e-01
      5.4629524149381514e-01 -1.9270162744741084e-01
      -1.0378594328676003e-02 4.3341824802986600e-01
      1.3210712107155265e-01 3.6764803517673378e-01
      5.1204594928057387e-02 1.0833831325198986e+00
      5.1251617122679094e-01 1.0356998657920506e+00
      2.5007435053889231e+00 3.1127394891959242e-01
      6.7070874971376493e-01 2.3506387772825466e-01
      -5.1490533893429396e-03 4.0283653126835034e-01
      1.0771167624348385e-02 2.7068032662262670e-01
      1.4033797343151828e+00 -2.0740069942592829e-01
      3.4729959150545875e-01 -7.0583656566198402e-02
      -2.1308312342452954e-01 2.7307784968926239e-03
      -4.1587728070611335e-01 -1.1323824877036363e-01
      -1.5965287481270135e-01 -1.0167232634710135e-01
      -3.8539660566043354e-02 4.5441647397188567e-01
      -2.1523550803491992e-01 -1.1217967434349696e+00
      -1.5794295205253928e+00 -3.5486909181961040e-01
      -8.6861360927276465e-01 -2.3434671405378787e-01
      -1.1620878376375367e-01 -4.8528116066464868e-03
      -1.0593366617399254e+00 -1.6983509599844407e-01
      1.1467293229533367e-01 -7.7240293174750974e-01
      1.9843405334316104e+00 5.9034258529659725e-02
      -2.1158801175030048e-01 1.3100741357954976e-01
      -1.7242021778337968e-01 1.1483186127827021e-01
      1.0121065570722390e+00 -3.3274408793123372e-01
      -1.0320430682747073e+00 5.0838543184145846e-01
      -1.2382944598117467e+00 -1.7334538757054493e-01
      -6.9019044676375785e-01 -7.0075689279613029e-01
      1.0923455693915403e+00 -3.5460805712007520e-01
      -9.3215138322944605e-02 -1.6487993665824909e+00
      2.2779093563424957e-01 -6.0799382785691324e-02
      7.7241690552814191e-01 -6.6492944909401219e-01
      -5.8020474135507510e-02 -4.4365400602376687e-01
      6.1467431914796711e-01 -2.1410379737463220e-01
      -4.2603055810559809e-01 3.4831505141971236e-01
      -1.3289758545890082e-01 3.5689819039942805e-01
      1.5632152161567953e-01 -4.0161730436931165e-01
      -3.6432146224917326e-02 -3.9634464855402979e-01
      -2.9062071730008693e-01 -8.7784411660575143e-02
      -3.8779298303025405e+00 5.0733893076769794e-02
      2.8509193017880713e-01 -3.6836064516960776e-01
      -5.4593604920355776e-01 4.3029977033465799e-01
      -2.0493134861067389e-01 9.3726575269353563e-01
      -1.5605608324330715e+00 1.9062406323666112e+00
      4.0425842391198508e-01 2.8655217347830259e-01
      2.4243851969911923e-01 4.1155330821987879e-01
      3.6516023087549604e-01 -1.8891405746499065e-01
      -8.9253011369578861e-02 2.6462677808445256e-01
      8.2229254725402379e-01 8.2394834143718776e-01
      -2.6290276976870815e-02 1.1261444959055191e+00
      1.0302154689605696e+00 5.9137482505148650e-02
      7.2547884768204052e-01 1.1380239501140066e+00
      1.7113119174884717e+00 -8.7504766490192010e-01
      1.6007940326941417e-01 -4.3961874438938708e-01
      5.5344711516955170e-01 1.1913954712902040e+00
      -9.1976048209385031e-01 6.5194285602457436e-01
      1.7699780831644013e-01 -4.2547791412941349e-01
      5.5920303640313496e-01 5.1789213997163175e-01
      -1.6527125792271056e+00 1.4045524112917193e-01
      4.6687667475282874e-01 -6.2647002464841628e-01
      6.6193033594757156e-01 1.4536110336939516e+00
      1.2157970634719963e+00 1.8148413211561498e-01
      -3.8626871316952205e-01 1.9753207238765996e-01
      -9.8501286126005805e-01 5.0010874310128428e-01
      6.2479876414347713e-01 1.8984188644558500e-01
      -6.7722941472811438e-01 -1.9737685277473135e-01
      1.4770860650221559e-01 5.6071833756313816e-01
      -1.6371593735943504e+00 1.6290550020125899e-01
      -1.4645292361368938e+00 -2.2510199783401111e-01
      1.3306916216638284e-01 -2.6979277466398144e-01
      -3.5347129080839612e-01 1.2095920874240380e+00
      1.1894585754467837e-01 7.1546234086455618e-01
      -6.5053948562669509e-03 1.2827832405809516e+00
      1.5434371615743461e+00 -7.2838606759412761e-01
      -2.4043065114916715e-01 1.0347831571749115e+00
      -6.9028024048491854e-01 -5.0903775829234155e-01
      2.8906872865445588e-01 -1.1695369290539985e-01
      1.6474877755665862e+00 -3.9489687352056851e-01
      3.6216828496901043e-01 -1.3605086354105438e+00
      -2.4554668591144005e-01 -4.5192359265170517e-01
      -5.6224211362880816e-01 2.1118489870771889e-01
      -7.6496009744005955e-01 1.0383556184124923e-01
      -1.2561911696418222e+00 5.2987845258740385e-01
      7.5937222367837487e-01 -5.9869042052339638e-01
      -5.4763532899791678e-01 1.0047684430675266e+00
      1.1588486045482560e+00 -4.4331506296890971e-01
      -7.1157921018517012e-01 2.5276234673482340e-01
      -4.6282202619868418e-01 -1.9701497128428702e-01
      2.2916839080842205e-01 -1.6408346206435398e+00
      3.7156265746745460e+00 9.8783725867315719e-01
      -1.2673567505001113e-01 1.0961465973513902e+00
      -4.1095936266745119e-02 -3.4602531098933120e+00
      3.5684896573812103e-01 -1.0141794669829693e+00
      -1.3121162088201062e+00 -1.8330822702971017e+00
      9.4810661979520328e-01 -3.4026846642862112e+00
      -6.5739710107041394e-01 -1.0979625546562313e+00
      -7.7649001118652568e-04 -3.8528679065063376e-01
      -6.8489307891446227e-01 -8.8797716777905789e-01
      7.1720980975433790e-01 -5.1121338435356245e-01
      1.4359739800541567e+00 5.0854908657453080e-01
      3.8989091961806088e-01 6.7936332377853814e-01
      9.7902595426250039e-01 -7.4801047204935878e-01
      -4.4963188261264513e+00 -1.1053836513348805e+00
      -1.9371527956845886e+00 -5.0371503019215380e-01
      9.3354278568764848e-01 -2.8318421806629569e-02
      6.4609449467247315e-01 -5.1525803553960095e-02
      9.7206997456088973e-01 8.0445997174406014e-01
      -9.0379862446566612e+00 5.3543911179305637e-01
      6.0061129164943154e-02 -6.7553330184653337e-01
      -1.0526817814299037e+00 7.5458785433922954e-02
      4.2356884380653853e-01 1.6789668851514222e-01
      -1.8620729364926836e-01 3.9936151741912931e+00
      1.5044974101833630e+00 3.3746034974047806e-01
      5.3390069489529068e+00 3.1855370717276377e-01
      -2.8876794741175693e-01 -7.3900273897833613e-01
      -1.9535237048228057e-01 1.3793893571650426e+00
      -2.3440271781997454e-01 7.1946855742126070e-01
      -1.6469131887962474e+00 1.5923940552326663e+00
      1.2792110065602229e+00 7.5063025075787237e-01
      5.4225227942115273e-01 -1.7330929969540465e-01
      1.4243668733190423e-01 -7.7922374141138140e-01
      1.1701434516309426e+00 -6.5408440671033763e-01
      2.5813050995573794e-01 7.3889089457483415e-01
      -2.5590091779588580e+00 -2.1714140405359428e-01
      -8.0870263705676637e-01 -6.5260865768810394e-01
      -7.1006907492550597e-01 2.2858695114492305e+00
      6.3804782241368363e-01 2.0592305683017489e-01
      5.3618392790789871e-01 2.6651544528792809e-01
      5.6351179360365433e-01 2.7414877412001983e+00
      -3.4965887207784277e-02 2.3482688593380888e-01
      2.7909385304973476e-03 -1.3198483819017720e-01
      -6.1024300307690593e-01 3.5077163159910774e-01
      -8.0650398927207517e-02 3.7519260364516976e-01
      2.1549867217523233e-01 -5.8403704450243121e-01
      -4.5123595478563966e-01 -4.6442871768550931e-01
      -4.5920405471184284e-01 2.0923469132556743e-01
      2.5955828834372690e+00 3.8238107961006640e-01
      1.3628311407765881e+00 -3.1036277688159836e-01
      -1.5277012109693297e-01 2.2420737488010559e-01
      -9.3890135967355071e-01 2.3913328464627376e-01
      2.1023433872151653e-01 9.3906887588246155e-02
      6.7248544653584394e+00 -4.6962255167100300e-02
      1.9998832805726191e-01 5.2366949070888325e-01
      2.8582067694952251e-01 -2.0153879129388319e-01
      1.0467884633100687e-02 -1.2369856050226786e+00
      5.5469190700918414e-01 -2.2515441651147299e+00
      5.7288791464864408e-01 -1.6620086706774498e-01
      -3.9409327732656565e+00 -4.3298146136841625e-01
      3.1236634560051690e-01 4.2668949598732653e-01
      -2.8481665883819823e-01 -9.0859293628759108e-02
      -5.0860057394963798e-01 -1.4830175449954306e+00
      8.9415463460378752e-01 -1.1948013801395698e+00
      -9.7677105957293642e-01 -2.8701406431664717e-01
      8.6520233049424700e-01 3.5941722879535087e-01
      -4.9556036061021203e-01 -5.8559173462396441e-01
      -7.4405246682186721e-01 -5.8398889325010617e-01
      -1.9401838171918930e+00 5.4553185344440003e-01
      -3.1919669568025135e+00 6.4614086460665743e-02
      -8.9278891740256816e-01 -2.1696864216501254e-04
      -6.3779819688680595e-01 -3.9767289277892770e-01
      -1.3727782800295283e+00 -1.1160868764122389e+00
      -5.2728198252972824e-01 1.8452996196575109e+00
      -4.3850964613938187e-01 4.0033015237236560e+00
      2.9199409128794596e+00 -6.7435171324725141e-01
      4.5338128747618200e-01 5.7463732322320182e-01
      -9.6010955039562407e-01 2.9695477451475140e-02
      5.8633640738767134e-01 4.1478611193466908e-01
      7.6182833337647204e-01 8.6606828336465758e-01
      9.1121356526089237e-01 -6.9453303549599099e-01
      -7.3663860463553965e-01 -7.9979224116196956e-01
      1.0114126381246840e+00 -2.1152012271608742e-01
      -3.6478743225938859e-01 -8.7539816519215774e-02
      -6.7603401915763095e-01 6.5108106508036542e-02
      -1.2499725010927763e-01 2.6851883149173233e-01
      1.5650270503093575e+00 3.0194198781560816e-01
      2.6515524979320952e+00 8.2707783540875901e-01
      -7.7744396226702739e-01 -1.6962096222227940e+00
      -7.8550312871790262e-02 7.9332258254339683e-01
      -3.3969041933144073e-01 7.1892348759404112e-01
      1.1787419122894469e+00 6.2527285124754728e-01
      1.3125346953367867e+00 -2.0015686442547631e+00
      -4.6320692057543217e-01 8.7882761261987652e-01
      2.0973742677705581e-01 -4.3075178785090473e-01
      -1.2773083469072932e+00 1.3732321834844194e+00
      -1.0532556261889428e+00 -1.5645758229849145e+00
      -5.0619610734950260e-01 -2.2481339743087969e-01
      -2.5357285287063260e+00 -7.2272293729009585e-01
      1.3665435234922374e+00 2.4322269574032673e-01
      1.9055097343739663e-01 6.2928052328560902e-01
      5.0332893411790169e-01 -5.7641058273316070e-01
      -1.8327251874807760e-01 1.3069056486651736e+00
      -3.1871214559446209e-01 -2.5891444511191197e-01
      -4.6531168919650556e-01 9.8933865409794999e-02
      6.6156644937461595e-01 -7.2153403089977919e-01
      -8.0394582497152547e-02 7.5022606434867101e-01
      -4.6118504646542206e-02 -8.9979878736326824e-01
      1.1832172937660863e+00 -2.7813524904449144e-01
      -7.2678915826059232e-01 2.2360755746138497e-01
      -5.0479015951015027e-01 5.8056801530732594e-01
      9.0456092166772395e-01 1.4656999933728065e+00
      2.0540565666020283e-01 2.1638273073719197e-01
      -7.4454559461058473e-02 3.8103649770597742e-01
      1.8820451011301365e-01 3.2402066140098335e-01
      -1.4669065406351697e-01 5.6039382828296591e-01
      -4.0427356474077791e-01 -7.4310252035088550e-02
      1.0158226001710637e-01 -1.7037250846232113e-01
      2.4987484587283956e-01 6.4062102354626749e-01
      2.1571453440059074e-01 1.9112195349602798e-01
      -2.2237722548240108e-01 7.2109284710231358e-01
      1.7195644966632349e+00 -2.7269960519577180e-01
      -4.9289877067215643e-01 4.8679689495484901e-01
      -4.8369141762660584e-01 7.5515670196576556e-01
      3.1893751358557171e-01 1.0097073766447509e+00
      6.5935986531209689e-01 -6.7676215172509857e-01
      -3.3650018566964407e-01 7.4209255907761895e-01
      -1.3547936918097776e+00 3.6534102582013422e-01
      -6.6501753781234196e-01 6.9023025739549604e-01
      1.8280922077283862e-01 2.9998229897706341e-01
      -3.8569820943146255e-01 1.3311180148013051e+00
      -6.3639718722663685e-01 -4.5664866561852335e-01
      -6.4128789482754622e-01 1.4215487292975532e-01
      -3.5339311625535486e-01 9.7243068084032797e-02
      -7.2930909993536575e-01 5.4868428518048316e-02
      -1.2073256485520585e+00 -1.1689009006832978e+00
      1.6977404168838353e+00 6.1566572791664131e-01
      4.0904177501913752e-01 2.7221211936308048e-01
      -3.8040990604786890e-01 3.9953358097709085e-01
      2.7763016212360977e-02 5.5088584476247926e-01
      1.0338971534864143e+00 -6.8053807047045597e-02
      1.1829871516832464e+00 2.0991602534578870e+00
      -5.3806982600766973e-01 1.3816690710720775e-02
      -8.2673792796996948e-01 5.3578690573529753e-01
      1.3978697647339997e+00 -1.4145600720252857e-01
      2.2081122035533163e-01 -1.0242573848231711e+00
      7.7577653353208476e-01 -5.9314391619257223e-01
      3.1166287420759792e-01 1.3709575578979835e-01
      3.7657492579394536e-01 -1.8560746230219041e+00
      9.4617690385188058e-01 -2.0035486906989228e-01
      1.1893540446062683e+00 -8.7902707022414750e-01
      -5.0028139373602365e-01 -1.9321542799419777e+00
      4.3808465870623892e-01 -1.6220486518835195e+00
      -7.5607602859163381e-01 4.1562147973152545e-02
      -7.7361697505257609e-01 -4.1805139241703915e-01
      -2.7279637888534880e-01 -3.6178100587191842e-01
      4.7764592050926875e-02 -8.3072783121853755e-01
      -3.9611828983814845e-01 4.9580860709890817e-01
      -1.0600298746542631e+00 1.1710093315228038e+00
      -8.0283883278816803e-01 -2.5745617926753093e-02
      3.6326345645373426e-01 3.5273379897719742e-01
      -1.2969305418605459e+00 1.6711528133140638e-01
      6.5027432581266920e-01 5.8293544708404266e-01
      -1.9431363443147570e-01 -1.7753659102457925e-01
      3.2464286541392240e-01 -7.7884727489838068e-01
      6.7900124979059606e-01 5.5550273871633060e-01
      6.8395836019666190e-01 6.9525985287047037e-02
      7.1165932985077185e-01 1.3850564166510207e-01
      1.3330667006646753e+00 6.0296081365649290e-01
      3.4683213310840860e-01 8.2494717027251130e-01
      1.5072526203613512e-01 -8.1392508949322193e-02
      2.2177964219883944e-01 3.1206045042401076e-01
      -7.4167334481196601e-01 -1.1988241889375688e-01
      4.4953946122346805e-01 -3.1646302173845364e-01
      -9.6089136910716377e-01 -1.2198520226091929e-01
      -1.1526509417775972e+00 1.0650071565178525e+00
      -6.1081925556935968e-01 5.1749030035121890e-01
      4.8045712022427195e-01 -7.9424739264977007e-01
      -1.0545309424079030e+00 4.9390378043063682e-01
      -2.4030188255435334e-01 3.8235084067695196e-01
      -4.3627705643895442e-01 6.2057134346293043e-02
      -1.1574083189371799e-01 -6.3300954689812977e-02
      -5.6971591628232248e-03 5.7106484923950984e-01
      -2.2856366459663632e-01 8.0564152171821179e-01
      3.3421728765794628e-01 -1.5211688271415367e+00
      -1.0259070501068031e+00 4.8467170940461535e-01
      -5.5773262812801663e-02 -1.2415627193902247e-01
      -1.3461588601356857e-02 1.4130154990945923e-01
      3.3823735816638029e-01 4.9423807751320659e-01
      3.6910182889850353e-02 1.0311402501274709e-01
      -3.3686033577635710e-01 4.6518921584174494e-01
      1.4091456927630810e-01 -2.3384167796753805e-01
      3.7854350047429519e-01 -3.8846064008765674e-01
      1.4345580066343140e+00 -4.6213742595327206e-02
      -1.6917236852866119e-01 -7.3947236410942707e-01
      -6.6949166238182201e-02 1.9064468182303951e-01
      7.8906756342116469e-02 1.3929425264194981e-01
      2.9300124450610471e-01 5.8599570148115343e-01
      -2.7021212185945620e-01 -6.8114809192454884e-02
      -5.8827094536669433e-03 -5.3733757478528210e-01
      -9.3372059509326344e-01 9.4041038396001905e-02
      5.0364161527783302e-01 -1.8004833216598318e-01
      -9.5694024675418354e-01 -4.2447935697948896e-01
      -9.0242159912284153e-02 -2.5164312281202789e-01
      -5.0438365378204808e-01 4.8038578348487584e-02
      7.9935123472640279e-01 -5.0938038505854488e-01
      -1.5733768982023635e-02 3.0353203694759290e-01
      -7.4393638647962765e-02 3.0558892705506974e-01
      4.1690005204345609e-01 -3.6373242675374112e-01
      -2.7028113638408430e-01 6.1953478793713546e-01
      -8.7358959460985064e-01 4.4031051983620723e-01
      -1.6463156395363313e-01 2.6403205289420256e-01
      6.1715112642443093e-01 6.3226376253433136e-02
      -3.4381624063214539e-01 -8.5149137436491407e-01
      1.2508815314038149e-01 3.0624165329717701e-01
      6.4695617684031337e-01 9.7224801689465346e-02
      -1.6553996455510386e-01 -8.2938490481873461e-01
      -5.6000151639054663e-01 6.9760871870401489e-02
      -2.7627211420117308e-02 -1.3790403005285493e-01
      7.0409491965346960e-01 -7.9500008364504671e-01
      7.5849033174214764e-02 -2.2433855336319350e-01
      1.3988198254253198e-01 -2.7406562817019953e-01
      4.4834781277169222e-01 -1.3082168235106495e+00
      7.1899857760091879e-01 3.2540859543362527e-04
      -6.9477229968795004e-02 -5.1634098691483055e-01
      -1.4495326229571689e-01 6.7764217403956251e-01
      -7.9726878621499320e-01 -3.1431211166628342e-01
      1.7825464175282210e-01 -7.0480964486697417e-01
      -1.5535379865075540e-03 2.2535588645002444e-01
      -1.0360803445292104e+00 -7.5541605270548970e-02
      2.8786411030774067e-01 2.4967441074361996e-01
      7.1950262438814416e-02 -1.1201309135738115e-02
      -7.2846577996644402e-02 -4.7666423239359085e-01
      -5.2184105229832556e-01 5.4919884959042975e-01
      -4.0645812450037377e-01 -5.1608084834662060e-01
      -2.1896750564866160e-02 -4.9610941024495087e-01
      6.0081130167328167e-01 4.5426070628852888e-01
      -3.4358811041654308e-01 5.7529702613284073e-01
      -6.8494318264154164e-01 -3.5458895589202238e-01
      -1.5854326055425310e+00 -5.1082980500850850e-01
      -1.5481783541996210e+00 4.4351513205756637e-01
      2.1301526719223024e-01 3.2131253256537579e-01
      -2.7968936137769335e-01 -6.8620326982122126e-01
      1.1075203919344723e-01 1.6223910973925490e-03
      -1.1142362809995608e-01 8.3175285373536356e-01
      1.1005619342552712e-01 -7.8264656704501212e-01
      -5.9523522290602049e-01 -9.6515235648920750e-01
      8.8060187280668756e-01 -5.2476118212138267e-01
      2.0756301023185050e-01 5.4919158802374235e-01
      9.5698767743414326e-01 5.5652479265611669e-02
      -4.1988398232494645e-01 -5.0020270365286124e-01
      2.1458219723184913e-01 -1.5099925012505411e-01
      2.0769865107803365e+00 -5.6470160303223937e-01
      -5.7523284313530676e-01 -5.9553002779806796e-01
      4.1030534263317320e-01 -8.3482338686878566e-01
      4.1807904104838245e-01 1.1001400162114121e-01
      -5.9311730453499256e-01 9.9549841039517584e-02
      4.5715083529104792e+00 7.2365962381712778e-01
      1.6449370130059524e-01 2.0131122049750699e-01
      -8.7774851900680440e-01 5.7035418732906851e-01
      5.8839074727535590e-01 4.8227909329358731e-01
      5.3507685023713317e-03 -3.2619481948429008e-01
      -5.4752595403283166e-01 4.0303868602660586e-01
      -1.5565005662751882e-01 7.7270442548014084e-01
      4.4446911408657713e-01 4.6226059895907917e-01
      3.9229035527203049e-01 -2.1780252760307088e-02
      -5.1420734500203366e-03 -1.5455730239872543e+00
      -1.3746992825459472e+00 -1.7707574656347208e-01
      -1.7848629373414326e+00 -8.0660791428039891e-02
      2.5164141428627923e-01 7.2606114793629772e-01
      -9.7133952684763092e-01 3.6635975785250691e-01
      -3.5579642919224573e-02 -6.1653271895603057e-01
      -3.4466621152118182e-01 2.9254047734539390e-01
      -7.3101212475099564e-01 4.7621774116065768e-01
      -4.5410367136282298e-02 -1.5743928412514865e-01
      -5.1393778363632958e-01 -6.5905386797431442e-01
      -1.0552312637252004e-02 4.1263297986734743e-01
      -5.4181247145769440e-01 -2.3511717847601668e-01
      -8.1407596493608583e-02 -1.1408160629496181e-01
      3.2990823324445379e-01 -7.3948456277948027e-01
      -4.3425724057283083e-01 2.1656948375006962e-01
      2.2597487364393865e-02 -2.6319110617302327e-01
      -2.0904152225727607e-01 -1.8963991657968041e-01
      1.0168402775572689e+00 1.3671845240983047e+00
      2.4686098138825333e-01 7.2674542697653069e-02
      2.2064606270523568e-01 4.4168501547683348e-01
      -2.7395716838118428e-01 -3.1468818434330065e-01
      -5.3309894118108636e-01 -3.0576072918570413e-01
      -1.9127487986012201e-01 -2.7331749302345487e-01
      5.4976668177409216e-01 5.3112416688430197e-01
      9.0687646526706922e-01 6.6560104396800723e-03
      -1.7630489093655466e-01 1.4497391990330738e-01
      -6.1110445520076391e-02 -5.9870695187865186e-01
      -8.4007274226971962e-01 9.4075873961349432e-01
      -6.1287933375466064e-01 6.4667607879342315e-01
      7.6185386346516104e-01 6.3818481267795024e-01
      6.5211461353635269e-01 -7.6487491653049267e-01
      -3.6447421817908698e-01 3.6205745987165838e-01
      3.7829283604621583e-01 2.1437956991495871e-01
      -4.3773339584346749e-01 2.4618251257281518e-01
      -6.4961232066413035e-02 4.3804970150990058e-01
      3.8054763005161051e-02 6.0374263726760347e-01
      4.9899576135128348e-01 -1.8479457589464143e-01
      4.2497363011252021e-01 1.5866220809993600e-02
      3.3421036307856276e-02 -7.9381296846114668e-01
      7.4266346805736372e-01 2.6065280359205977e-02
      -2.5646657981957988e-01 4.1126493106747264e-01
      -3.3047742237942552e+00 3.6671166467610866e-01
      -1.4079509530168886e+00 -2.5732275023547446e-01
      -8.3397565947155272e-01 1.4090546147639477e-01
      -3.2439661731361763e-01 4.8410664638152856e-01
      -7.3403436596141536e-01 1.2162335977221850e+00
      -6.2554485125954373e-01 1.6223951574396542e+00
      -1.2955548914884962e-01 -4.8800544172985610e-01
      4.1911166385552034e-01 -1.3370803822609048e+00
      -1.2675818080804417e+00 -2.9353481518625851e-01
      1.4067086798527090e-01 -7.6155397064397379e-01
      4.1827572927634654e-01 2.7796511433882404e-01
      -5.3623191230953758e-03 3.4671016528253229e-01
      2.8757430868635248e-01 -8.5363428957183363e-01
      2.4314646968880740e+00 4.0259913546188436e-01
      -2.9922717781145175e-01 1.0335727507871604e+00
      9.6124254717847346e-01 -1.0788682694375161e-01
      -7.8957775091181892e-01 3.1517771448373956e-02
      7.2266073395720953e-01 3.7021703046020238e-01
      5.1682020911651589e+00 1.8088435935159705e-01
      3.4086624911718660e-01 -4.2394226812946856e-01
      2.0791793623291155e-01 4.7586151539916638e-01
      -2.8639116624097644e-01 2.1216566665449950e+00
      2.0668985128065500e-02 -6.9923913024595430e-01
      9.5429826823305253e-01 -8.2908883152404955e-01
      -2.6837649881271410e+00 -4.9757179868257578e-01
      7.3045967467696382e-01 -4.8650833154267065e-01
      -5.8194772527369443e-01 -8.3093348655653976e-01
      -1.9552601873496966e-01 -1.2695182332299990e+00
      -1.0398807195540158e+00 5.9776409593957358e-01
      -1.0521915445239511e+00 -7.5918803789629896e-02
      -4.4668156694060801e-01 8.4836755548351128e-01
      -8.1387138396664782e-01 -8.6134699436022166e-01
      -9.6832655663057310e-01 -4.7942808637076234e-01
      3.8144813698654029e-01 -1.7429193961220574e-01
      2.1777498935094466e-01 1.5089379466415906e+00
      6.4839674561513327e-01 1.1356052519226234e+00
      6.3420410839280150e-01 1.5484043203056039e-01
      2.2693454046144954e-02 -1.0359527600956839e+00
      9.8098680609158639e-01 1.3313326282380795e+00
      -1.4911782932929851e+00 -3.4816451008198956e-01
      2.0300816734462894e+00 -4.5442360368920985e-02
      1.9585867354498299e-01 4.0731166492669862e-01
      -2.3018092869247271e+00 -5.4503311772689145e-01
      -1.1280031040623035e+00 8.1755489935645631e-02
      1.5151077296468316e+00 4.1862648747670752e+00
      -1.2513106417187199e+00 -1.0378776873952436e+00
      7.4509738435164108e-01 1.3619922730176437e+00
      1.5511948348674871e+00 -8.8593841774933990e-01
      2.4198880032079795e-01 3.9839146300933831e-01
      4.5379340566652687e-01 -9.3785714558374456e-01
      1.4507492716780761e+00 9.3314153127110877e-01
      2.8452101397337159e-01 1.7484042770831365e-01
      -2.5227313336175570e+00 -4.1739394563696210e+00
      -3.3436341945739717e-01 1.8164916739940253e+00
      -3.9370875019848783e-01 8.6374436815752220e-01
      6.2626303805750749e-01 -1.9111110881693295e-02
      -1.1425634331714891e+00 -1.8341613283537002e+00
      1.0342865618903638e+00 -3.2476494132448169e-01
      -3.1367157842512068e+00 6.8389003477235555e-01
      7.8635940114818603e-01 -1.0123699104942565e+00
      -6.2004416323511624e-01 9.4342439088947105e-01
      7.0516009787292167e-01 1.3598185519741512e+00
      5.0943294275192541e-01 1.4348989934904149e-01
      1.8696807875635897e+00 -1.0297410663760802e+00
      -3.8813655690525006e-01 4.5177671695026406e-01
      -2.9980043362352204e-01 3.1332131011329084e-01
      5.6560515638905096e-01 1.2793931310406514e+00
      9.1035477300548251e-01 -5.1730656399315345e-01
      1.1520310470181130e+00 1.5723987791280387e+00
      -6.2618487455796037e-03 2.3301846296907075e-01
      3.0814583550448521e-01 5.9507568928726129e-01
      -7.6627016625508226e-01 -4.2296534893028620e-01
      -6.8739057865977837e-01 4.7831366174030734e-03
      -1.2573009827211951e-01 -1.5767893835329598e+00
      4.4922788879556708e-01 -6.9872226035733298e-01
      6.5635114365076952e-01 2.0025305256365658e-01
      -4.6398529923805254e-01 3.5659760021254505e-01
      -1.9407444318969688e-01 -3.1302332347629191e-02
      4.5129123827522788e-01 4.0864830402485414e-01
      9.0102882970562959e-02 -4.1529810444969262e-01
      6.5012154295103305e-02 2.5205888343207222e-01
      -1.2787918382971261e-02 -1.0166845513469945e-01
      -9.5355495151896685e-01 -1.1111161699098149e-01
      2.4660039984132792e-01 -6.2582634856928748e-02
      3.8657420577671253e-01 -1.4624575076459981e-01
      7.9489755748494340e-01 -1.1228259246769955e-01
      2.0163887610706382e-01 -1.2297663676100068e+00
      -8.9242311539866406e-02 2.1174410672809771e-02
      -6.5618365621538566e-01 3.4506857786005457e-02
      7.4580210176450046e-01 -1.4456770661445357e+00
      3.6277303362307795e-01 7.4948574591299089e-01
      -3.2685784757330950e-02 -3.3254356430081178e-01
      9.5004702468351854e-01 -4.2535996959860606e-01
      2.2834674010716847e-02 -7.7456223229780086e-01
      -1.9828067148578099e-02 8.1055254932799836e-01
      4.5806861597946175e-01 1.0685608441730121e+00
      1.5695950434595218e-01 2.0421615215541106e-01
      1.0423324771331597e+00 -9.5660099766220352e-01
      5.0891841295708784e-01 3.8311822700572395e-01
      -1.0423944577737390e+00 1.2551336453987114e-01
      -5.6840346503207251e-01 -1.0530874821344978e+00
      4.1454905017125893e-01 -5.2449852718028289e-01
      3.2545320743494849e-01 -2.6107193502587317e-01
      -3.0515152124446748e-01 -1.1146980230968615e+00
      -1.9457695951156642e-01 1.4816986937985290e+00
      -3.8422580011714516e-02 2.5977639674611730e-01
      1.8315855267282447e-01 5.0201410148465997e-01
      -1.9507807657110732e-01 -5.2901151478648889e-01
      -7.0915052874599135e-02 2.6010777137842660e-02
      -1.4437125892031490e+00 3.0254296275741621e-01
      -1.1657380301411562e-01 -3.7906577729065344e-01
      7.2579089781421760e-02 -1.3962307635005158e-01
      -5.5738316123309539e-01 1.9039139707550753e-01
      4.4601623899911369e-01 -3.0254261862472642e-01
      6.8867450237363559e-01 1.0525655831004175e+00
      -8.7468984080381895e-01 -9.8468918578398801e-01
      1.3738129077601005e+00 -1.3257756367121473e-01
      6.7540748046285459e-01 -5.6424039826405967e-02
      -6.2568921363016505e-01 6.4298444500252627e-01
      -1.4997538650223678e-02 7.3252726661607745e-02
      -1.0449587216577965e+00 4.9529892304497325e-01
      -6.8854406393311574e-01 3.0499575716286936e-01
      -8.1966482174272137e-01 3.3233988618566157e-01
      1.8183378579813328e-01 1.7391592941028924e+00
      -1.1436211145542730e-01 -5.5389426240441264e-01
      -4.0810210455806095e-01 2.9163845508203629e-01
      -7.2867797124972933e-01 -6.6403616058137016e-01
      -5.7707510401585005e-01 6.2240894274256248e-02
      -3.3660990027411219e-01 -5.3682041885213516e-01
      3.5472714880550849e-01 6.7742461905270279e-01
      -4.8660276066369790e-01 8.4668701845978772e-02
      -5.0908498394144543e-03 -2.2368189334585512e-01
      -1.2267140484075663e+00 -4.5266174653221225e-01
      -1.0553036619187344e+00 1.7661387246755589e-01
      -1.4522909476040760e-01 1.4771487273757344e+00
      -4.5030125628147927e-01 -3.8911354462631731e-01
      9.1281406993082859e-01 8.6856730377315139e-01
      -2.1030080501361456e-01 1.2906646422054444e-01
      -1.7531094914336756e+00 -1.4227970389797824e+00
      -1.3081065378597379e+00 2.0434900048365562e-01
      -8.4899941075050500e-01 -1.7600073515550191e-01
      -5.7335324472625515e-01 -1.6865837385477811e-01
      1.2295178796992472e+00 -5.9601028283761637e-01
      4.0553719552178047e-01 3.2003133820664142e-01
      -8.9592805810044052e-01 8.3816956950641774e-01
      -3.3073978035303137e-01 3.0940530757462142e-01
      2.2061601107606163e-01 6.0752844570662573e-02
      7.5502224219405112e-01 -9.8608252669732763e-02
      -1.4650202933907178e-01 -2.5804971702056967e-01
      5.6582523903853588e-01 5.7929023739386387e-01
      5.8052824259109057e-02 9.6484214774356969e-01
      1.1822958083561779e+00 -1.0743533047912146e-01
      6.3068133481237854e-01 -4.6505936282449722e-01
      6.3433128717740583e-01 -3.6090625893956202e-02
      -7.8465864365305849e-01 2.8444318530353668e-01
      -9.5577419335725056e-02 2.7407461028187230e-01
      7.2070530620426243e-01 1.4183219142522649e-01
      1.7643914971869434e-01 6.9497864406719942e-02
      -4.1083939382299001e-01 -8.7050667913290880e-01
      7.8610354995102727e-01 -1.4306153069800973e+00
      1.2229151490425283e+00 3.4699921318448901e-01
      6.8669585547500384e-02 -7.5069549082162301e-01
      8.0105950539281323e-02 5.4324761577767521e-02
      -5.9350290210946932e-01 -2.5071128954479893e-01
      6.4339369810461378e-01 9.5899107939023609e-01
      -2.8908767889303666e-01 -2.4326460568753397e-01
      7.1894536914927809e-01 -5.2088812564208586e-01
      -4.9490716513420280e-01 6.7989786442348030e-02
      1.7845086963676799e+00 5.3195750337879544e-02
      -1.7573721888891611e-01 -1.0169565663203893e-01
      -5.1550887822701386e-01 -5.1184020875257863e-03
      -7.2607018259069300e-01 -3.7915296951315541e-02
      -5.3443542805957878e-01 -1.0030460947898860e+00
      -2.9635480434350758e-01 5.3426770787862254e-01
      -1.9640202944558879e-01 1.0142025633677061e+00
      3.8584877085099950e-01 -1.5273466585272339e+00
      3.7702187704788725e-01 -3.0146509073596955e-01
      2.9655869267024204e-01 -5.1423912207862699e-01
      -3.3752497079941124e-01 5.5302137648731708e-01
      -3.9504150527701110e-01 1.1595555808632356e-01
      -2.2423988676110490e-01 7.2344906868161674e-01
      -5.5630038360403589e-01 -3.5934697873359683e-01
      -5.0435246876092865e-01 5.5157233327111588e-01
      -2.5046787968415668e-01 9.0152908059292414e-01
      1.2296246741334570e-02 9.2565140508339583e-01
      -2.7220734439916659e-02 -1.5334088245383951e-01
      8.2504484884539708e-01 -3.0051883328343515e-01
      9.1122734804414995e-01 -4.6385202953896298e-01
      1.8867793338403103e+00 4.4745293578386264e-01
      -4.4668257904901659e-01 -3.9171215765542799e-01
      9.8242121236900992e-01 -4.0497373751799870e-01
      -9.3053091261567167e-01 -1.5379530960239704e-01
      1.6001059797331374e-01 -9.0912741344839634e-02
      -6.8603917257245750e-01 1.8971624614445215e-01
      5.0871423305117736e-01 -7.1635062474572367e-02
      -1.5268656054383120e-01 4.5201929375746458e-01
      3.4024865087947070e-01 -5.6443192512430651e-01
      9.9925529318829094e-03 1.7167582417171778e-01
      1.0517221020266558e+00 -4.4326267692344246e-01
      -8.4271816410098321e-01 -1.1400578352828661e+00
      6.1149835006714082e-01 6.9382037807586294e-01
      1.0252165416133521e-01 -1.4535065217137964e+00
      -4.2908645012878383e-01 -6.6287527897822995e-01
      -5.8986579705367226e-01 4.9020168066453856e-01
      -2.0598875778438171e-02 9.8171780086190008e-01
      -4.7711261133592014e-01 -6.7655770056345377e-01
      2.6077429056381135e-01 1.1724542961289919e+00
      8.3506829392100843e-02 -4.0114808907894794e-01
      8.1311093562004033e-01 -1.0895310973921100e+00
      -8.8208884992106851e-01 7.3597255082367008e-01
      -5.2056132429880675e-01 7.7565900785363040e-01
      8.8605227639130202e-01 -9.1184467176060735e-01
      -3.4744420310303434e-02 6.6352516207642459e-02
      -1.2821169785909305e+00 -7.7070486603583566e-02
      2.2103296027240493e-01 -4.0033391202444696e-01
      -8.3700975109282283e-01 5.4430728686247454e-01
      1.8111710454709759e-01 4.6340060221409218e-01
      4.1527175701496843e-01 -9.9506115301927017e-02
      1.8959088604027025e-01 -2.3247274161366380e-01
      -4.5841225742401299e-02 3.8919519424382332e-01
      -4.4797865205506343e-01 2.2552456643931904e-01
      -2.0522523847427787e-01 -2.6569905513902065e-01
      6.4396690811443236e-01 -6.5705809778784097e-01
      4.0667840551090761e-01 1.7804765304837378e-01
      -1.1427792512540787e-01 -6.1704041687942457e-01
      4.2927799881553313e-01 -1.5211243900572042e+00
      3.4303703207512254e-01 -6.0843680913312648e-01
      3.4628278948353280e-01 -4.0245353115517879e-01
      -1.3032327517773483e+00 -1.6371825492916192e+00
      2.5716049929525142e-01 -3.2712115782080226e-01
      2.2935063810920278e-01 -3.4866880316264448e-02
      -1.7286927296351054e-01 -1.5440619658367280e-01
      6.8603181063521279e-01 -6.6633499140471758e-02
      -3.3414151630232497e-01 3.2062578934852493e-01
      -1.6653620112536652e-01 2.5014099954679125e-01
      -5.4763600233928944e-01 -2.7117909520415040e-01
      7.3991156942648251e-01 1.9116509236356982e-01
      -9.4252716520983257e-02 -1.0354554025005676e+00
      1.8093685398430806e-01 1.5898151546354833e+00
      4.1381454734893802e-01 9.6938490178341252e-01
      5.4264264962520770e-01 -1.2556595966712650e-01
      3.7724641492050615e-01 9.8402967180405654e-01
      -8.1090360862205002e-01 1.2843383815901590e+00
      -6.7455364098931192e-01 -2.3322246992203914e+00
      6.7082287556646902e-01 -8.1143577682801316e-01
      -4.6220355370768829e-01 9.5863203912468020e-01
      -3.0167064305881599e+00 1.0891502900771217e+00
      -6.5731656193266996e-01 -1.1792890362136927e+00
      2.8022155272110005e-01 1.4000930321903196e+00
      -1.5959855487406946e+00 -1.1090484955285878e+00
      -2.5635626030537406e-01 9.5029720624755093e-02
      2.0844081331879987e+00 1.2467219295221834e+00
      -1.5180923610939254e+00 3.4051074167524031e-01
      -1.5288780581067596e-01 -2.3655979729469357e-02
      1.9142663959576030e+00 6.6560651760013734e-01
      1.1761555444388649e+00 -4.9690140297340996e-01
      -5.7078838665679432e-01 -3.1305879301141619e+00
      2.7995702384271581e-01 1.8145382908110304e+00
      6.2045904577933644e-02 -9.3904554252430028e-01
      5.5809297602265651e-01 4.4184860139735693e-01
      -1.7102037702242407e+00 -1.3699945921465866e+00
      1.1281218612734112e-01 9.9636124805958459e-02
      -1.1922366968196094e+00 5.0644262113712624e-01
      7.4212418742685404e-01 -6.0170450628906580e-01
      -2.7106789921283986e-01 3.9858602111557735e-02
      4.4409414179976719e-01 1.8881057315811951e+00
      -9.3755000344023409e-01 -5.8732159322327204e-01
      -1.1684178164620021e-02 -7.8603547356731396e-01
      -1.9468319442930815e-01 1.5065977718049606e+00
      6.6407616325471508e-01 -1.6770040380609088e+00
      1.7393517224145045e+00 7.1743208915524614e-01
      -4.4655269073583764e-01 -8.4423399896383344e-01
      9.1283836162997489e-01 1.1902512433516630e+00
      4.4688665402829619e-01 -4.1361254371858246e-02
      4.2907457980849772e-01 -5.9510557596615887e-02
      -7.2516528080627252e-01 -1.6870917380675707e-01
      -1.5819093150631691e-01 4.3990931573873343e-01
      -2.8873586176912691e-01 9.5473984951775781e-01
      -8.6719453320614803e-01 -2.7647514178744920e-01
      -6.3757410845405804e-01 1.1847378085599123e+00
      -2.4181048386095277e-01 -1.6169604717486359e-02
      -2.2646467007351101e-01 -1.9235592538857813e+00
      5.9761138545665005e-01 -8.4722992880943693e-01
      -1.3545490166257383e+00 -7.1155819367101159e-01
      1.3953285096608787e+00 3.2137829674093926e-01
      -2.9126626191001526e-01 -7.3429526195563022e-01
      7.5461264770550443e-02 -1.7097788501990088e-02
      -3.5176394705667502e-01 1.8893835942699577e-01
      1.5181032884628307e-01 -1.6605186598978774e-01
      -9.5989536731836667e-01 7.5855005248635654e-01
      7.9388993139125263e-01 4.7554127449361557e-02
      1.0795771249505943e+00 -1.5922502344254300e-02
      4.6742879799602183e-01 4.8194183566000831e-02
      3.2993554571398787e-01 -7.0162963379714649e-01
      -1.2752647730408739e+00 -3.5855151577515731e-01
      -2.1111883374995960e-01 1.2064548149471546e+00
      -9.0727766352806749e-01 9.7969395958938429e-02
      5.3843398374071094e-01 -1.0037833605391882e+00
      2.0826081968767890e-01 -5.6720251824454271e-01
      -1.1067393534234591e+00 2.0237323950996391e+00
      4.5678722975739733e-01 -8.5525322689222993e-01
      1.5341272712921721e+00 7.0037897362208434e-01
      7.5258477141655378e-01 1.3964320023549184e+00
      -8.9750143243631841e-01 -9.2390246959271161e-01
      8.2810579966323916e-01 -1.4497283497092526e+00
      6.5790913188903055e-01 3.8526809322722566e-01
      1.0483591452610210e+00 -1.3876613109466443e-01
      3.0412176786793954e-01 -1.5245297288718154e+00
      -3.2672297455115795e-01 -3.0658026191860388e-01
      5.7685083214317749e-02 4.7471158137135716e-01
      1.4293597790946202e+00 -6.4718252236086393e-01
      4.0489886692081428e-01 1.2507574747095513e+00
      -4.7875906655577516e-01 7.7879849075612106e-01
      1.9892753686077685e-01 -1.3640854958686585e-01
      -9.5647774925797269e-01 8.3517655201454033e-01
      4.7710601586069867e-01 -7.4510451264394512e-02
      1.9419115320864000e-01 -1.3939897322547878e+00
      -1.0555879578702605e+00 2.2827185075025461e-02
      5.1370347268681804e-01 6.8754045951612452e-01
      -1.1137298318902136e+00 -4.7371813380993072e-01
      8.8011219688642062e-03 -1.5708270927291577e+00
      -2.2297821231126713e-01 9.2589888846305191e-01
      -5.0836796169002878e-02 -6.5050707204370423e-02
      -1.0996059009970552e-01 -2.3687211326396215e-01
      1.8757262826093573e+00 7.3180486624867480e-01
      1.3075331440956730e+00 -8.9367512995854947e-01
      1.1511586971136925e+00 -1.3356701908550489e-01
      4.5315765002340014e-01 5.0001629350509469e-01
      7.2424941367014695e-01 5.6096600560032805e-01
      1.9767344500805062e-01 -6.5353930071504340e-01
      4.2257304520430444e-01 -1.3542226719287054e+00
      -1.2608608738324290e+00 5.4646726654697286e-01
      5.6514208550121781e-01 -2.9642800492393634e-01
      -9.0219980537568556e-01 -3.9822698159204806e-01
      1.9963758999167464e-01 -1.0849919479779817e+00
      1.5146374459397158e+00 3.8332132693852450e-01
      6.3982777407448066e-02 4.3819170325983930e-01
      8.0121044017997978e-01 -1.0278098346043736e+00
      3.0099098363365956e-01 1.6999767685086775e+00
      4.6790482701830269e-02 -3.7665692881719892e-01
      1.1219343215959690e+00 1.1990061312520812e+00
      -5.0432046731398628e-01 2.8245457261217796e-02
      -5.0444209200608892e-01 5.4346650796795859e-01
      -1.3798528495713267e+00 -7.6226490096522936e-01
      -1.0788925436530167e-01 -1.4329419472375174e-01
      -7.2047219724078926e-01 -6.5323298978508881e-01
      3.0457322033880047e-01 -3.5402128104690678e-01
      1.2670387755793218e+00 -4.1392736679083758e-01
      -1.1117860858378970e+00 5.8688700319271814e-02
      -6.8800609764750986e-01 -5.5691045772065559e-02
      8.1750772990335718e-01 -4.2306627652922107e-01
      1.1549826986553194e-02 -9.9304762037113881e-01
      -3.4977009669167036e-01 8.1561423943789779e-01
      1.8606352226839237e-01 6.4324351835491900e-01
      4.3858309344227669e-01 8.2180722262701789e-01
      8.7106804577913621e-01 -2.9113703497309368e-01
      1.8246016518900474e-01 2.0048276598278694e-01
      3.0016275434090434e-01 2.7829812676142163e-01
      9.7144055446405919e-02 -4.8038416881751596e-02
      5.7706758949964876e-01 -9.4776607846816407e-01
      -7.6854534005998631e-01 6.2083296366298524e-01
      3.9392657910564016e-01 -1.4115925160019735e-01
      -1.0412524411284119e+00 -1.0027581764053153e+00
      7.4316787838642318e-01 -1.0433537419936791e+00
      1.2925055227147859e+00 -4.7993954981767062e-01
      -1.0027509989746913e-01 -1.4070045288171427e+00
      1.0819860731843162e-01 -2.8399934438206254e-01
      8.5138950628984841e-02 5.1580139804677827e-01
      6.3448793028653383e-01 6.3034446680174605e-01
      -1.9963931888758658e-02 -4.5608602124794589e-01
      2.9818626255495989e-01 -1.7701981092741645e-01
      -8.7241636169014547e-01 8.6002246174335240e-01
      -1.2108049545350419e+00 -3.4118288350923696e-02
      4.0869149975894425e-01 2.5076226875759478e-01
      -1.1681223451600249e+00 2.9079823594886051e-01
      -6.4304821680288160e-01 -2.7336750948832511e-01
      -5.2531142661133456e-01 4.4133843961331840e-02
      -2.2551605376299194e-01 -2.7838507566203397e-01
      -1.4660522323170419e-01 1.8550965016683538e-01
      3.2265965472422470e-01 1.1742184316636513e+00
      -2.0403572297150147e-01 -1.6876635881991547e-01
      -7.9675130563033519e-02 -2.9021928294659627e-01
      3.9579216872221096e-03 -1.5933626080846039e-01
      3.5937903346408612e-01 4.3532453505929064e-01
      5.9124503066435585e-01 1.4847693297814754e-01
      6.8557655870776635e-01 1.4670661352567707e-01
      1.8667014429962261e-01 -6.8127028429933334e-01
      1.2731506405307298e+00 -1.3917484427397511e-01
      6.1002385447559548e-01 1.6271161139739104e-01
      1.6943355963962142e-01 1.5136196390721002e-01
      -1.0119154515092880e-02 -2.5905666621093720e-01
      3.0101482498051246e-01 -2.9017669443347160e-01
      1.4161361791674371e-01 2.1385562548677706e-01
      -7.9395123835403036e-01 -2.9602744660790170e-01
      -2.3803159269838292e-01 4.6738002251031835e-01
      -9.4697877584049661e-01 4.5053216989879191e-01
      -4.0672159579724276e-01 2.1163720020714069e-01
      6.0282010811853082e-01 9.8392241406391767e-01
      -4.1801421002301392e-01 -3.5746080199091079e-01
      7.8940636948454845e-01 2.6764697568834378e-01
      8.8067359209325943e-02 -3.8299163961947813e-01
      -3.8215252939237353e-02 -7.2015384078241407e-01
      7.4682869722038780e-01 5.1535319798340384e-01
      -7.3652866536424322e-01 -5.8013266199106306e-01
      -1.5613618776775875e+00 8.2842593602681269e-01
      -2.9654468503170262e-01 1.3151778099157947e+00
      -9.5616706201209478e-01 -6.2661487538688099e-01
      5.5118786965568245e-01 2.0180377842756272e-01
      -1.4804269823606633e+00 1.1308881678021312e+00
      5.3777376298120338e-01 -5.7728841558084076e-01
      3.5708061532997504e-01 1.2872738116785780e+00
      1.0172387829625276e+00 -2.0541370565881598e-01
      5.6118905701338963e-02 -4.7655706873014897e-01
      2.9629491840734340e-01 2.7024803418474064e-01
      9.0233564610094727e-02 2.4726811029930514e-02
      -1.0121703051982112e+00 8.6033676870777898e-01
      -2.0110430582704208e-01 1.3325637164860071e-01
      5.0324304264204445e-01 7.5473626849017084e-01
      4.9729890899071971e-01 5.5224935549661758e-01
      1.0655390908168234e+00 2.0178438961692516e-01
      -3.1135408212602453e-02 -1.0932925317862230e+00
      -1.2100635345861757e+00 -2.6920001643283376e-01
      1.0633744091314894e+00 -6.4357295066459974e-01
      -5.6126343591596450e-01 -4.8956942478070815e-02
      -6.2630990559528321e-01 3.2182610057301531e-01
      4.7718562251549912e-01 7.8042754937499503e-01
      -1.4360657724837436e+00 -1.7811936745410142e+00
      -3.9083815134706645e-01 3.2056191134760610e-02
      -4.4508736834596768e-01 -1.3250979550675144e+00
      -1.0017677618080238e+00 -9.1005289540371526e-01
      -1.3468685878941717e+00 -1.2211960555887056e+00
      7.0404863520546235e-01 7.8221076099699444e-02
      -4.8826135842700169e-01 -1.3412889751136700e-01
      -1.8900383963156062e-02 -5.5217694702757880e-01
      -5.5870193181815531e-01 5.6536286312922190e-01
      -1.3823096902047419e-01 1.3033609313460184e+00
      -7.9696705220839259e-01 -1.1785613842440038e-01
      -1.0869270884377684e-01 7.3041880529907810e-01
      1.3960519373156788e-01 1.0286582974550040e+00
      -1.1726938473410749e-01 2.5652943079957517e-02
      1.0095730519206145e+00 2.0653187094113252e+00
      -1.7324586557514734e+00 -1.3850328169203867e+00
      8.2740559957591397e-01 1.5173862348987335e+00
      -3.1853807929908495e-01 2.3860493896137391e-01
      -1.9708852582376815e+00 -1.5602985919446175e-01
      -1.8963438756327844e+00 -2.7466723459297521e-01
      -1.4133683046699153e+00 3.3118692946908640e-01
      -1.3630420559855447e+00 -5.1259810052057220e-01
      8.7018350268829892e-01 -3.2716282325246371e-01
      1.3067860690480617e+00 1.6188240754936026e-01
      -1.1217657305674811e+00 -5.1972468202608113e-01
      1.3178319046453313e-01 -5.8802376098795427e-03
      7.1162409905619517e-01 1.6139096134197466e+00
      5.5830286086194247e-01 -9.3035489064318366e-01
      -3.4799155012005456e-01 5.7387819181825304e-02
      3.4244833691237547e-01 -3.7604072508220499e-01
      -6.4785832090353590e-01 1.8759249991934682e-01
      8.6325219959612687e-01 -2.9054268806009281e-01
      8.1171132988987804e-01 7.1301861173023909e-02
      1.5693239864481363e+00 1.7364299453368640e-01
      5.4459449906346802e-01 1.6032754341608815e+00
      -7.7757574750312464e-01 -1.1789609421049099e+00
      1.3924123253105574e+00 8.2075426016132524e-01
      -3.6471968855115589e-01 -1.0492769746213502e+00
      8.4035112620857766e-01 5.2411455947550911e-01
      -6.6262386786719307e-02 -2.3543610519195641e+00
      5.2162344411229755e-01 -1.2912197704845880e+00
      5.3299232424438936e-01 -5.0316056771508055e-01
      -1.8026178869562659e+00 -9.5996603223971388e-01
      -3.8366191226929108e-01 -4.6371462991680173e-01
      8.0428263552117729e-01 8.0686920336679258e-01
      -7.3464571506793169e-02 -1.5502618555768370e+00
      -3.4254200629767800e-01 5.5666149627932149e-01
      9.4995942590078986e-01 -8.1039949515373899e-01
      -1.8199882537457826e-01 1.5178790548894707e+00
      3.6458648892501284e-02 -1.2219260631861124e+00
